#include <string>

namespace mct
{
	static const std::string bubble_boost_model = R"(%YAML:1.0
)"
R"(---
)"
R"(opencv_ml_boost:
)"
R"(   format: 3
)"
R"(   is_classifier: 1
)"
R"(   var_all: 19
)"
R"(   var_count: 18
)"
R"(   ord_var_count: 18
)"
R"(   cat_var_count: 1
)"
R"(   training_params:
)"
R"(      boosting_type: GentleAdaboost
)"
R"(      use_surrogates: 0
)"
R"(      max_categories: 10
)"
R"(      regression_accuracy: 9.9999997764825821e-03
)"
R"(      max_depth: 1
)"
R"(      min_sample_count: 10
)"
R"(      cross_validation_folds: 0
)"
R"(      weight_trimming_rate: 0.
)"
R"(   global_var_idx: 1
)"
R"(   var_idx: [ 0, 1, 2, 3, 4, 5, 6, 7, 8, 9, 10, 11, 12, 13, 14, 15, 16,
)"
R"(       17 ]
)"
R"(   var_type: [ 0, 0, 0, 0, 0, 0, 0, 0, 0, 0, 0, 0, 0, 0, 0, 0, 0, 0, 1 ]
)"
R"(   cat_ofs: [ 0, 0, 0, 0, 0, 0, 0, 0, 0, 0, 0, 0, 0, 0, 0, 0, 0, 0, 0, 0,
)"
R"(       0, 0, 0, 0, 0, 0, 0, 0, 0, 0, 0, 0, 0, 0, 0, 0 ]
)"
R"(   class_labels: [ 0, 1 ]
)"
R"(   missing_subst: [ 0., 0., 0., 0., 0., 0., 0., 0., 0., 0., 0., 0., 0.,
)"
R"(       0., 0., 0., 0., 0., 0. ]
)"
R"(   ntrees: 100
)"
R"(   trees:
)"
R"(      -
)"
R"(         nodes:
)"
R"(            -
)"
R"(               depth: 0
)"
R"(               value: -2.2584772872680178e-01
)"
R"(               splits:
)"
R"(                  - { var:2, quality:6.2198168039321899e-01,
)"
R"(                      le:9.6086299419403076e-01 }
)"
R"(            -
)"
R"(               depth: 1
)"
R"(               value: -8.1987577639751297e-01
)"
R"(            -
)"
R"(               depth: 1
)"
R"(               value: 7.3534338358458362e-01
)"
R"(      -
)"
R"(         nodes:
)"
R"(            -
)"
R"(               depth: 0
)"
R"(               value: -1.0642331776195449e-01
)"
R"(               splits:
)"
R"(                  - { var:4, quality:4.3480029702186584e-01,
)"
R"(                      le:1.9298887252807617e-01 }
)"
R"(            -
)"
R"(               depth: 1
)"
R"(               value: -7.8971508246113575e-01
)"
R"(            -
)"
R"(               depth: 1
)"
R"(               value: 5.1333296448910337e-01
)"
R"(      -
)"
R"(         nodes:
)"
R"(            -
)"
R"(               depth: 0
)"
R"(               value: -7.7963914731774733e-02
)"
R"(               splits:
)"
R"(                  - { var:3, quality:3.1350716948509216e-01,
)"
R"(                      le:6.6240596771240234e-01 }
)"
R"(            -
)"
R"(               depth: 1
)"
R"(               value: -8.3718066876631125e-01
)"
R"(            -
)"
R"(               depth: 1
)"
R"(               value: 3.2696497513642647e-01
)"
R"(      -
)"
R"(         nodes:
)"
R"(            -
)"
R"(               depth: 0
)"
R"(               value: -7.9550657844361855e-02
)"
R"(               splits:
)"
R"(                  - { var:1, quality:2.0814168453216553e-01,
)"
R"(                      le:9.7686998546123505e-02 }
)"
R"(            -
)"
R"(               depth: 1
)"
R"(               value: -5.1400086722373106e-01
)"
R"(            -
)"
R"(               depth: 1
)"
R"(               value: 3.8497525308282610e-01
)"
R"(      -
)"
R"(         nodes:
)"
R"(            -
)"
R"(               depth: 0
)"
R"(               value: -1.6500636687803643e-02
)"
R"(               splits:
)"
R"(                  - { var:8, quality:2.2907474637031555e-01,
)"
R"(                      le:8.2453548908233643e-01 }
)"
R"(            -
)"
R"(               depth: 1
)"
R"(               value: 2.4440543525066791e-01
)"
R"(            -
)"
R"(               depth: 1
)"
R"(               value: -8.9345408767341450e-01
)"
R"(      -
)"
R"(         nodes:
)"
R"(            -
)"
R"(               depth: 0
)"
R"(               value: -6.3758017338715681e-02
)"
R"(               splits:
)"
R"(                  - { var:5, quality:1.1654278635978699e-01,
)"
R"(                      le:2.5706339627504349e-02 }
)"
R"(            -
)"
R"(               depth: 1
)"
R"(               value: -6.4416024064595667e-01
)"
R"(            -
)"
R"(               depth: 1
)"
R"(               value: 1.3003466770864516e-01
)"
R"(      -
)"
R"(         nodes:
)"
R"(            -
)"
R"(               depth: 0
)"
R"(               value: -2.4237675117983755e-02
)"
R"(               splits:
)"
R"(                  - { var:4, quality:8.7885715067386627e-02,
)"
R"(                      le:4.2810791730880737e-01 }
)"
R"(            -
)"
R"(               depth: 1
)"
R"(               value: 9.8833970313990480e-02
)"
R"(            -
)"
R"(               depth: 1
)"
R"(               value: -7.3356636365516981e-01
)"
R"(      -
)"
R"(         nodes:
)"
R"(            -
)"
R"(               depth: 0
)"
R"(               value: -2.1301033979003112e-02
)"
R"(               splits:
)"
R"(                  - { var:2, quality:8.7489001452922821e-02,
)"
R"(                      le:9.0051603317260742e-01 }
)"
R"(            -
)"
R"(               depth: 1
)"
R"(               value: -4.5202924629039626e-01
)"
R"(            -
)"
R"(               depth: 1
)"
R"(               value: 1.8076435599057802e-01
)"
R"(      -
)"
R"(         nodes:
)"
R"(            -
)"
R"(               depth: 0
)"
R"(               value: -9.1034407113428258e-03
)"
R"(               splits:
)"
R"(                  - { var:14, quality:1.0718185454607010e-01,
)"
R"(                      le:-1.2149999534080000e+12 }
)"
R"(            -
)"
R"(               depth: 1
)"
R"(               value: -3.9342440976844467e-01
)"
R"(            -
)"
R"(               depth: 1
)"
R"(               value: 2.6956723797344856e-01
)"
R"(      -
)"
R"(         nodes:
)"
R"(            -
)"
R"(               depth: 0
)"
R"(               value: -5.1358470647757341e-03
)"
R"(               splits:
)"
R"(                  - { var:0, quality:9.2218980193138123e-02,
)"
R"(                      le:3.4161500632762909e-02 }
)"
R"(            -
)"
R"(               depth: 1
)"
R"(               value: -8.2600379471890739e-01
)"
R"(            -
)"
R"(               depth: 1
)"
R"(               value: 1.0717527722237934e-01
)"
R"(      -
)"
R"(         nodes:
)"
R"(            -
)"
R"(               depth: 0
)"
R"(               value: -2.5172465505673047e-02
)"
R"(               splits:
)"
R"(                  - { var:7, quality:6.8642795085906982e-02,
)"
R"(                      le:4.5176801085472107e-01 }
)"
R"(            -
)"
R"(               depth: 1
)"
R"(               value: -6.2011906154029972e-01
)"
R"(            -
)"
R"(               depth: 1
)"
R"(               value: 8.9138869786273417e-02
)"
R"(      -
)"
R"(         nodes:
)"
R"(            -
)"
R"(               depth: 0
)"
R"(               value: -1.3621507457682933e-02
)"
R"(               splits:
)"
R"(                  - { var:1, quality:6.8916216492652893e-02,
)"
R"(                      le:1.5468749403953552e-01 }
)"
R"(            -
)"
R"(               depth: 1
)"
R"(               value: -1.9925011894795444e-01
)"
R"(            -
)"
R"(               depth: 1
)"
R"(               value: 3.5663751142276390e-01
)"
R"(      -
)"
R"(         nodes:
)"
R"(            -
)"
R"(               depth: 0
)"
R"(               value: 3.4728834908661428e-03
)"
R"(               splits:
)"
R"(                  - { var:8, quality:9.6924103796482086e-02,
)"
R"(                      le:5.2101451158523560e-01 }
)"
R"(            -
)"
R"(               depth: 1
)"
R"(               value: 2.7989932434441706e-01
)"
R"(            -
)"
R"(               depth: 1
)"
R"(               value: -3.4711601690096489e-01
)"
R"(      -
)"
R"(         nodes:
)"
R"(            -
)"
R"(               depth: 0
)"
R"(               value: -2.2113316972632016e-03
)"
R"(               splits:
)"
R"(                  - { var:4, quality:7.3038496077060699e-02,
)"
R"(                      le:1.1353208869695663e-01 }
)"
R"(            -
)"
R"(               depth: 1
)"
R"(               value: -3.6724387984880963e-01
)"
R"(            -
)"
R"(               depth: 1
)"
R"(               value: 1.9786289951853464e-01
)"
R"(      -
)"
R"(         nodes:
)"
R"(            -
)"
R"(               depth: 0
)"
R"(               value: -4.4153834145995424e-03
)"
R"(               splits:
)"
R"(                  - { var:6, quality:7.1125939488410950e-02,
)"
R"(                      le:6.1275804042816162e-01 }
)"
R"(            -
)"
R"(               depth: 1
)"
R"(               value: 7.1833010252956409e-02
)"
R"(            -
)"
R"(               depth: 1
)"
R"(               value: -9.3697854515323209e-01
)"
R"(      -
)"
R"(         nodes:
)"
R"(            -
)"
R"(               depth: 0
)"
R"(               value: -2.3503508501053195e-02
)"
R"(               splits:
)"
R"(                  - { var:6, quality:7.4315980076789856e-02,
)"
R"(                      le:4.8673650622367859e-01 }
)"
R"(            -
)"
R"(               depth: 1
)"
R"(               value: -4.1862820429797504e-01
)"
R"(            -
)"
R"(               depth: 1
)"
R"(               value: 1.6318075526598319e-01
)"
R"(      -
)"
R"(         nodes:
)"
R"(            -
)"
R"(               depth: 0
)"
R"(               value: -7.2788451834913002e-03
)"
R"(               splits:
)"
R"(                  - { var:3, quality:7.6952777802944183e-02,
)"
R"(                      le:7.4827349185943604e-01 }
)"
R"(            -
)"
R"(               depth: 1
)"
R"(               value: -3.0381349578182099e-01
)"
R"(            -
)"
R"(               depth: 1
)"
R"(               value: 2.5204934878612040e-01
)"
R"(      -
)"
R"(         nodes:
)"
R"(            -
)"
R"(               depth: 0
)"
R"(               value: -1.5985949650255949e-03
)"
R"(               splits:
)"
R"(                  - { var:8, quality:6.0830138623714447e-02,
)"
R"(                      le:9.2803549766540527e-01 }
)"
R"(            -
)"
R"(               depth: 1
)"
R"(               value: 8.1387836381862866e-02
)"
R"(            -
)"
R"(               depth: 1
)"
R"(               value: -7.3458086637761844e-01
)"
R"(      -
)"
R"(         nodes:
)"
R"(            -
)"
R"(               depth: 0
)"
R"(               value: -1.4512410808008556e-02
)"
R"(               splits:
)"
R"(                  - { var:11, quality:6.9856666028499603e-02,
)"
R"(                      le:2.4498825073242188e+00 }
)"
R"(            -
)"
R"(               depth: 1
)"
R"(               value: 1.4603328504358254e-01
)"
R"(            -
)"
R"(               depth: 1
)"
R"(               value: -4.4832069676038327e-01
)"
R"(      -
)"
R"(         nodes:
)"
R"(            -
)"
R"(               depth: 0
)"
R"(               value: -7.8018618332757039e-03
)"
R"(               splits:
)"
R"(                  - { var:6, quality:4.2910940945148468e-02,
)"
R"(                      le:4.2580097913742065e-01 }
)"
R"(            -
)"
R"(               depth: 1
)"
R"(               value: -7.9566197114663439e-01
)"
R"(            -
)"
R"(               depth: 1
)"
R"(               value: 4.6586054929028085e-02
)"
R"(      -
)"
R"(         nodes:
)"
R"(            -
)"
R"(               depth: 0
)"
R"(               value: -1.1805885557671012e-02
)"
R"(               splits:
)"
R"(                  - { var:6, quality:4.3882455676794052e-02,
)"
R"(                      le:5.9839296340942383e-01 }
)"
R"(            -
)"
R"(               depth: 1
)"
R"(               value: 4.1619925511418188e-02
)"
R"(            -
)"
R"(               depth: 1
)"
R"(               value: -8.3056890127549332e-01
)"
R"(      -
)"
R"(         nodes:
)"
R"(            -
)"
R"(               depth: 0
)"
R"(               value: -1.2833736498382943e-02
)"
R"(               splits:
)"
R"(                  - { var:13, quality:3.6764819175004959e-02,
)"
R"(                      le:2.7246298789978027e+00 }
)"
R"(            -
)"
R"(               depth: 1
)"
R"(               value: -1.
)"
R"(            -
)"
R"(               depth: 1
)"
R"(               value: 2.4242200268953212e-02
)"
R"(      -
)"
R"(         nodes:
)"
R"(            -
)"
R"(               depth: 0
)"
R"(               value: -1.3627759532377720e-02
)"
R"(               splits:
)"
R"(                  - { var:2, quality:3.4620977938175201e-02,
)"
R"(                      le:6.9003403186798096e-01 }
)"
R"(            -
)"
R"(               depth: 1
)"
R"(               value: 7.2770465457342837e-01
)"
R"(            -
)"
R"(               depth: 1
)"
R"(               value: -6.0078258278869007e-02
)"
R"(      -
)"
R"(         nodes:
)"
R"(            -
)"
R"(               depth: 0
)"
R"(               value: 8.0716691790945864e-03
)"
R"(               splits:
)"
R"(                  - { var:4, quality:5.1782686263322830e-02,
)"
R"(                      le:2.4625249207019806e-02 }
)"
R"(            -
)"
R"(               depth: 1
)"
R"(               value: -5.5862661581613304e-01
)"
R"(            -
)"
R"(               depth: 1
)"
R"(               value: 9.9332814138384837e-02
)"
R"(      -
)"
R"(         nodes:
)"
R"(            -
)"
R"(               depth: 0
)"
R"(               value: -8.2607508912505585e-03
)"
R"(               splits:
)"
R"(                  - { var:8, quality:6.6762574017047882e-02,
)"
R"(                      le:5.5059200525283813e-01 }
)"
R"(            -
)"
R"(               depth: 1
)"
R"(               value: 2.1143618972604078e-01
)"
R"(            -
)"
R"(               depth: 1
)"
R"(               value: -3.1183500714092482e-01
)"
R"(      -
)"
R"(         nodes:
)"
R"(            -
)"
R"(               depth: 0
)"
R"(               value: -2.5353376484853738e-03
)"
R"(               splits:
)"
R"(                  - { var:1, quality:4.6729285269975662e-02,
)"
R"(                      le:1.5468749403953552e-01 }
)"
R"(            -
)"
R"(               depth: 1
)"
R"(               value: -1.5274806196696653e-01
)"
R"(            -
)"
R"(               depth: 1
)"
R"(               value: 3.0850927852652849e-01
)"
R"(      -
)"
R"(         nodes:
)"
R"(            -
)"
R"(               depth: 0
)"
R"(               value: 2.4737754849518522e-03
)"
R"(               splits:
)"
R"(                  - { var:2, quality:4.7730907797813416e-02,
)"
R"(                      le:9.0051603317260742e-01 }
)"
R"(            -
)"
R"(               depth: 1
)"
R"(               value: -3.9404120242328183e-01
)"
R"(            -
)"
R"(               depth: 1
)"
R"(               value: 1.2283439032351888e-01
)"
R"(      -
)"
R"(         nodes:
)"
R"(            -
)"
R"(               depth: 0
)"
R"(               value: -4.4581503488875162e-03
)"
R"(               splits:
)"
R"(                  - { var:1, quality:3.4076776355504990e-02,
)"
R"(                      le:3.4718498587608337e-02 }
)"
R"(            -
)"
R"(               depth: 1
)"
R"(               value: -4.5057052590482233e-01
)"
R"(            -
)"
R"(               depth: 1
)"
R"(               value: 7.1883381842812968e-02
)"
R"(      -
)"
R"(         nodes:
)"
R"(            -
)"
R"(               depth: 0
)"
R"(               value: -4.5211502831146036e-03
)"
R"(               splits:
)"
R"(                  - { var:7, quality:3.7865240126848221e-02,
)"
R"(                      le:5.2926898002624512e-01 }
)"
R"(            -
)"
R"(               depth: 1
)"
R"(               value: 8.4742782330878230e-02
)"
R"(            -
)"
R"(               depth: 1
)"
R"(               value: -4.2848633459337571e-01
)"
R"(      -
)"
R"(         nodes:
)"
R"(            -
)"
R"(               depth: 0
)"
R"(               value: -4.5674153362266863e-03
)"
R"(               splits:
)"
R"(                  - { var:9, quality:3.9071880280971527e-02,
)"
R"(                      le:1.3680949807167053e-01 }
)"
R"(            -
)"
R"(               depth: 1
)"
R"(               value: 7.0803217430505749e-01
)"
R"(            -
)"
R"(               depth: 1
)"
R"(               value: -5.9368205603896933e-02
)"
R"(      -
)"
R"(         nodes:
)"
R"(            -
)"
R"(               depth: 0
)"
R"(               value: 9.0122229752239019e-03
)"
R"(               splits:
)"
R"(                  - { var:12, quality:3.7767961621284485e-02,
)"
R"(                      le:5.4395194053649902e+00 }
)"
R"(            -
)"
R"(               depth: 1
)"
R"(               value: -7.7181823932314125e-02
)"
R"(            -
)"
R"(               depth: 1
)"
R"(               value: 4.4624360060818585e-01
)"
R"(      -
)"
R"(         nodes:
)"
R"(            -
)"
R"(               depth: 0
)"
R"(               value: 4.9449290230409995e-03
)"
R"(               splits:
)"
R"(                  - { var:2, quality:4.1757434606552124e-02,
)"
R"(                      le:9.6393650770187378e-01 }
)"
R"(            -
)"
R"(               depth: 1
)"
R"(               value: 2.0163744117939447e-01
)"
R"(            -
)"
R"(               depth: 1
)"
R"(               value: -2.0722879273966058e-01
)"
R"(      -
)"
R"(         nodes:
)"
R"(            -
)"
R"(               depth: 0
)"
R"(               value: -9.5185312545141631e-06
)"
R"(               splits:
)"
R"(                  - { var:3, quality:3.4226402640342712e-02,
)"
R"(                      le:5.3726899623870850e-01 }
)"
R"(            -
)"
R"(               depth: 1
)"
R"(               value: -8.6425328689306824e-01
)"
R"(            -
)"
R"(               depth: 1
)"
R"(               value: 3.9593199724413365e-02
)"
R"(      -
)"
R"(         nodes:
)"
R"(            -
)"
R"(               depth: 0
)"
R"(               value: -1.0341686551612507e-02
)"
R"(               splits:
)"
R"(                  - { var:8, quality:3.3672563731670380e-02,
)"
R"(                      le:7.4842649698257446e-01 }
)"
R"(            -
)"
R"(               depth: 1
)"
R"(               value: 8.5330667265521937e-02
)"
R"(            -
)"
R"(               depth: 1
)"
R"(               value: -3.6118090507955386e-01
)"
R"(      -
)"
R"(         nodes:
)"
R"(            -
)"
R"(               depth: 0
)"
R"(               value: -3.3035764246162236e-03
)"
R"(               splits:
)"
R"(                  - { var:4, quality:3.9181150496006012e-02,
)"
R"(                      le:1.1601766943931580e-01 }
)"
R"(            -
)"
R"(               depth: 1
)"
R"(               value: -2.7415333729143915e-01
)"
R"(            -
)"
R"(               depth: 1
)"
R"(               value: 1.4131622099494417e-01
)"
R"(      -
)"
R"(         nodes:
)"
R"(            -
)"
R"(               depth: 0
)"
R"(               value: -1.8307297239743903e-03
)"
R"(               splits:
)"
R"(                  - { var:7, quality:3.8651786744594574e-02,
)"
R"(                      le:4.7425651550292969e-01 }
)"
R"(            -
)"
R"(               depth: 1
)"
R"(               value: -3.1092401075019577e-01
)"
R"(            -
)"
R"(               depth: 1
)"
R"(               value: 1.2320736471340318e-01
)"
R"(      -
)"
R"(         nodes:
)"
R"(            -
)"
R"(               depth: 0
)"
R"(               value: -2.5188061701838763e-03
)"
R"(               splits:
)"
R"(                  - { var:4, quality:3.9472676813602448e-02,
)"
R"(                      le:4.2810791730880737e-01 }
)"
R"(            -
)"
R"(               depth: 1
)"
R"(               value: 7.9000908990699226e-02
)"
R"(            -
)"
R"(               depth: 1
)"
R"(               value: -4.8665118262599910e-01
)"
R"(      -
)"
R"(         nodes:
)"
R"(            -
)"
R"(               depth: 0
)"
R"(               value: -5.6453361324452977e-03
)"
R"(               splits:
)"
R"(                  - { var:0, quality:3.4167595207691193e-02,
)"
R"(                      le:4.5868001878261566e-02 }
)"
R"(            -
)"
R"(               depth: 1
)"
R"(               value: -3.2720691078422004e-01
)"
R"(            -
)"
R"(               depth: 1
)"
R"(               value: 1.0051077095562627e-01
)"
R"(      -
)"
R"(         nodes:
)"
R"(            -
)"
R"(               depth: 0
)"
R"(               value: -2.7221698468583976e-03
)"
R"(               splits:
)"
R"(                  - { var:16, quality:3.8167960941791534e-02,
)"
R"(                      le:-8.7000001082818560e+15 }
)"
R"(            -
)"
R"(               depth: 1
)"
R"(               value: 8.0528506064208208e-02
)"
R"(            -
)"
R"(               depth: 1
)"
R"(               value: -3.3355486280028206e-02
)"
R"(      -
)"
R"(         nodes:
)"
R"(            -
)"
R"(               depth: 0
)"
R"(               value: 3.7857738666711212e-05
)"
R"(               splits:
)"
R"(                  - { var:7, quality:4.0687780827283859e-02,
)"
R"(                      le:5.2926898002624512e-01 }
)"
R"(            -
)"
R"(               depth: 1
)"
R"(               value: 9.3912244302156986e-02
)"
R"(            -
)"
R"(               depth: 1
)"
R"(               value: -4.3339004263035497e-01
)"
R"(      -
)"
R"(         nodes:
)"
R"(            -
)"
R"(               depth: 0
)"
R"(               value: -4.7962440858679324e-03
)"
R"(               splits:
)"
R"(                  - { var:16, quality:3.6074422299861908e-02,
)"
R"(                      le:-8.7000001082818560e+15 }
)"
R"(            -
)"
R"(               depth: 1
)"
R"(               value: 7.6092728231473644e-02
)"
R"(            -
)"
R"(               depth: 1
)"
R"(               value: -3.4590754750470291e-02
)"
R"(      -
)"
R"(         nodes:
)"
R"(            -
)"
R"(               depth: 0
)"
R"(               value: 2.9508494674403662e-05
)"
R"(               splits:
)"
R"(                  - { var:16, quality:3.5128436982631683e-02,
)"
R"(                      le:-8.7000001082818560e+15 }
)"
R"(            -
)"
R"(               depth: 1
)"
R"(               value: 1.4737465934168344e-04
)"
R"(            -
)"
R"(               depth: 1
)"
R"(               value: -1.3806185652044983e-05
)"
R"(      -
)"
R"(         nodes:
)"
R"(            -
)"
R"(               depth: 0
)"
R"(               value: 2.3663517434609217e-12
)"
R"(               splits:
)"
R"(                  - { var:16, quality:3.5126995295286179e-02,
)"
R"(                      le:-8.7000001082818560e+15 }
)"
R"(            -
)"
R"(               depth: 1
)"
R"(               value: 7.9662786813956820e-12
)"
R"(            -
)"
R"(               depth: 1
)"
R"(               value: 3.0852528865415945e-13
)"
R"(      -
)"
R"(         nodes:
)"
R"(            -
)"
R"(               depth: 0
)"
R"(               value: 2.2087908758960934e-16
)"
R"(               splits:
)"
R"(                  - { var:16, quality:3.5126995295286179e-02,
)"
R"(                      le:-8.7000001082818560e+15 }
)"
R"(            -
)"
R"(               depth: 1
)"
R"(               value: -1.3394505194329230e-16
)"
R"(            -
)"
R"(               depth: 1
)"
R"(               value: 2.2654678453588714e-16
)"
R"(      -
)"
R"(         nodes:
)"
R"(            -
)"
R"(               depth: 0
)"
R"(               value: 1.1977723500533613e-16
)"
R"(               splits:
)"
R"(                  - { var:16, quality:3.5126995295286179e-02,
)"
R"(                      le:-8.7000001082818560e+15 }
)"
R"(            -
)"
R"(               depth: 1
)"
R"(               value: 9.8441544199287134e-17
)"
R"(            -
)"
R"(               depth: 1
)"
R"(               value: 3.0616433904882664e-17
)"
R"(      -
)"
R"(         nodes:
)"
R"(            -
)"
R"(               depth: 0
)"
R"(               value: 1.1503385050071200e-16
)"
R"(               splits:
)"
R"(                  - { var:16, quality:3.5126995295286179e-02,
)"
R"(                      le:-8.7000001082818560e+15 }
)"
R"(            -
)"
R"(               depth: 1
)"
R"(               value: -3.3889711937459508e-17
)"
R"(            -
)"
R"(               depth: 1
)"
R"(               value: 8.2582826561838428e-17
)"
R"(      -
)"
R"(         nodes:
)"
R"(            -
)"
R"(               depth: 0
)"
R"(               value: 8.2941466195141105e-18
)"
R"(               splits:
)"
R"(                  - { var:16, quality:3.5126995295286179e-02,
)"
R"(                      le:-8.7000001082818560e+15 }
)"
R"(            -
)"
R"(               depth: 1
)"
R"(               value: 4.6800078389825033e-17
)"
R"(            -
)"
R"(               depth: 1
)"
R"(               value: -7.7097073271375231e-17
)"
R"(      -
)"
R"(         nodes:
)"
R"(            -
)"
R"(               depth: 0
)"
R"(               value: 8.3348042009823129e-17
)"
R"(               splits:
)"
R"(                  - { var:16, quality:3.5126995295286179e-02,
)"
R"(                      le:-8.7000001082818560e+15 }
)"
R"(            -
)"
R"(               depth: 1
)"
R"(               value: -3.3889711937459508e-17
)"
R"(            -
)"
R"(               depth: 1
)"
R"(               value: 3.1839608625053510e-17
)"
R"(      -
)"
R"(         nodes:
)"
R"(            -
)"
R"(               depth: 0
)"
R"(               value: 8.8958788252435651e-17
)"
R"(               splits:
)"
R"(                  - { var:16, quality:3.5126995295286179e-02,
)"
R"(                      le:-8.7000001082818560e+15 }
)"
R"(            -
)"
R"(               depth: 1
)"
R"(               value: 4.6800078389825033e-17
)"
R"(            -
)"
R"(               depth: 1
)"
R"(               value: -5.4486873898519990e-17
)"
R"(      -
)"
R"(         nodes:
)"
R"(            -
)"
R"(               depth: 0
)"
R"(               value: 8.3348042009823129e-17
)"
R"(               splits:
)"
R"(                  - { var:16, quality:3.5126995295286179e-02,
)"
R"(                      le:-8.7000001082818560e+15 }
)"
R"(            -
)"
R"(               depth: 1
)"
R"(               value: -3.3889711937459508e-17
)"
R"(            -
)"
R"(               depth: 1
)"
R"(               value: 3.1839608625053510e-17
)"
R"(      -
)"
R"(         nodes:
)"
R"(            -
)"
R"(               depth: 0
)"
R"(               value: 8.8958788252435651e-17
)"
R"(               splits:
)"
R"(                  - { var:16, quality:3.5126995295286179e-02,
)"
R"(                      le:-8.7000001082818560e+15 }
)"
R"(            -
)"
R"(               depth: 1
)"
R"(               value: 4.6800078389825033e-17
)"
R"(            -
)"
R"(               depth: 1
)"
R"(               value: -5.4486873898519990e-17
)"
R"(      -
)"
R"(         nodes:
)"
R"(            -
)"
R"(               depth: 0
)"
R"(               value: 8.3348042009823129e-17
)"
R"(               splits:
)"
R"(                  - { var:16, quality:3.5126995295286179e-02,
)"
R"(                      le:-8.7000001082818560e+15 }
)"
R"(            -
)"
R"(               depth: 1
)"
R"(               value: -3.3889711937459508e-17
)"
R"(            -
)"
R"(               depth: 1
)"
R"(               value: 3.1839608625053510e-17
)"
R"(      -
)"
R"(         nodes:
)"
R"(            -
)"
R"(               depth: 0
)"
R"(               value: 8.8958788252435651e-17
)"
R"(               splits:
)"
R"(                  - { var:16, quality:3.5126995295286179e-02,
)"
R"(                      le:-8.7000001082818560e+15 }
)"
R"(            -
)"
R"(               depth: 1
)"
R"(               value: 4.6800078389825033e-17
)"
R"(            -
)"
R"(               depth: 1
)"
R"(               value: -5.4486873898519990e-17
)"
R"(      -
)"
R"(         nodes:
)"
R"(            -
)"
R"(               depth: 0
)"
R"(               value: 8.3348042009823129e-17
)"
R"(               splits:
)"
R"(                  - { var:16, quality:3.5126995295286179e-02,
)"
R"(                      le:-8.7000001082818560e+15 }
)"
R"(            -
)"
R"(               depth: 1
)"
R"(               value: -3.3889711937459508e-17
)"
R"(            -
)"
R"(               depth: 1
)"
R"(               value: 3.1839608625053510e-17
)"
R"(      -
)"
R"(         nodes:
)"
R"(            -
)"
R"(               depth: 0
)"
R"(               value: 8.8958788252435651e-17
)"
R"(               splits:
)"
R"(                  - { var:16, quality:3.5126995295286179e-02,
)"
R"(                      le:-8.7000001082818560e+15 }
)"
R"(            -
)"
R"(               depth: 1
)"
R"(               value: 4.6800078389825033e-17
)"
R"(            -
)"
R"(               depth: 1
)"
R"(               value: -5.4486873898519990e-17
)"
R"(      -
)"
R"(         nodes:
)"
R"(            -
)"
R"(               depth: 0
)"
R"(               value: 8.3348042009823129e-17
)"
R"(               splits:
)"
R"(                  - { var:16, quality:3.5126995295286179e-02,
)"
R"(                      le:-8.7000001082818560e+15 }
)"
R"(            -
)"
R"(               depth: 1
)"
R"(               value: -3.3889711937459508e-17
)"
R"(            -
)"
R"(               depth: 1
)"
R"(               value: 3.1839608625053510e-17
)"
R"(      -
)"
R"(         nodes:
)"
R"(            -
)"
R"(               depth: 0
)"
R"(               value: 8.8958788252435651e-17
)"
R"(               splits:
)"
R"(                  - { var:16, quality:3.5126995295286179e-02,
)"
R"(                      le:-8.7000001082818560e+15 }
)"
R"(            -
)"
R"(               depth: 1
)"
R"(               value: 4.6800078389825033e-17
)"
R"(            -
)"
R"(               depth: 1
)"
R"(               value: -5.4486873898519990e-17
)"
R"(      -
)"
R"(         nodes:
)"
R"(            -
)"
R"(               depth: 0
)"
R"(               value: 8.3348042009823129e-17
)"
R"(               splits:
)"
R"(                  - { var:16, quality:3.5126995295286179e-02,
)"
R"(                      le:-8.7000001082818560e+15 }
)"
R"(            -
)"
R"(               depth: 1
)"
R"(               value: -3.3889711937459508e-17
)"
R"(            -
)"
R"(               depth: 1
)"
R"(               value: 3.1839608625053510e-17
)"
R"(      -
)"
R"(         nodes:
)"
R"(            -
)"
R"(               depth: 0
)"
R"(               value: 8.8958788252435651e-17
)"
R"(               splits:
)"
R"(                  - { var:16, quality:3.5126995295286179e-02,
)"
R"(                      le:-8.7000001082818560e+15 }
)"
R"(            -
)"
R"(               depth: 1
)"
R"(               value: 4.6800078389825033e-17
)"
R"(            -
)"
R"(               depth: 1
)"
R"(               value: -5.4486873898519990e-17
)"
R"(      -
)"
R"(         nodes:
)"
R"(            -
)"
R"(               depth: 0
)"
R"(               value: 8.3348042009823129e-17
)"
R"(               splits:
)"
R"(                  - { var:16, quality:3.5126995295286179e-02,
)"
R"(                      le:-8.7000001082818560e+15 }
)"
R"(            -
)"
R"(               depth: 1
)"
R"(               value: -3.3889711937459508e-17
)"
R"(            -
)"
R"(               depth: 1
)"
R"(               value: 3.1839608625053510e-17
)"
R"(      -
)"
R"(         nodes:
)"
R"(            -
)"
R"(               depth: 0
)"
R"(               value: 8.8958788252435651e-17
)"
R"(               splits:
)"
R"(                  - { var:16, quality:3.5126995295286179e-02,
)"
R"(                      le:-8.7000001082818560e+15 }
)"
R"(            -
)"
R"(               depth: 1
)"
R"(               value: 4.6800078389825033e-17
)"
R"(            -
)"
R"(               depth: 1
)"
R"(               value: -5.4486873898519990e-17
)"
R"(      -
)"
R"(         nodes:
)"
R"(            -
)"
R"(               depth: 0
)"
R"(               value: 8.3348042009823129e-17
)"
R"(               splits:
)"
R"(                  - { var:16, quality:3.5126995295286179e-02,
)"
R"(                      le:-8.7000001082818560e+15 }
)"
R"(            -
)"
R"(               depth: 1
)"
R"(               value: -3.3889711937459508e-17
)"
R"(            -
)"
R"(               depth: 1
)"
R"(               value: 3.1839608625053510e-17
)"
R"(      -
)"
R"(         nodes:
)"
R"(            -
)"
R"(               depth: 0
)"
R"(               value: 8.8958788252435651e-17
)"
R"(               splits:
)"
R"(                  - { var:16, quality:3.5126995295286179e-02,
)"
R"(                      le:-8.7000001082818560e+15 }
)"
R"(            -
)"
R"(               depth: 1
)"
R"(               value: 4.6800078389825033e-17
)"
R"(            -
)"
R"(               depth: 1
)"
R"(               value: -5.4486873898519990e-17
)"
R"(      -
)"
R"(         nodes:
)"
R"(            -
)"
R"(               depth: 0
)"
R"(               value: 8.3348042009823129e-17
)"
R"(               splits:
)"
R"(                  - { var:16, quality:3.5126995295286179e-02,
)"
R"(                      le:-8.7000001082818560e+15 }
)"
R"(            -
)"
R"(               depth: 1
)"
R"(               value: -3.3889711937459508e-17
)"
R"(            -
)"
R"(               depth: 1
)"
R"(               value: 3.1839608625053510e-17
)"
R"(      -
)"
R"(         nodes:
)"
R"(            -
)"
R"(               depth: 0
)"
R"(               value: 8.8958788252435651e-17
)"
R"(               splits:
)"
R"(                  - { var:16, quality:3.5126995295286179e-02,
)"
R"(                      le:-8.7000001082818560e+15 }
)"
R"(            -
)"
R"(               depth: 1
)"
R"(               value: 4.6800078389825033e-17
)"
R"(            -
)"
R"(               depth: 1
)"
R"(               value: -5.4486873898519990e-17
)"
R"(      -
)"
R"(         nodes:
)"
R"(            -
)"
R"(               depth: 0
)"
R"(               value: 8.3348042009823129e-17
)"
R"(               splits:
)"
R"(                  - { var:16, quality:3.5126995295286179e-02,
)"
R"(                      le:-8.7000001082818560e+15 }
)"
R"(            -
)"
R"(               depth: 1
)"
R"(               value: -3.3889711937459508e-17
)"
R"(            -
)"
R"(               depth: 1
)"
R"(               value: 3.1839608625053510e-17
)"
R"(      -
)"
R"(         nodes:
)"
R"(            -
)"
R"(               depth: 0
)"
R"(               value: 8.8958788252435651e-17
)"
R"(               splits:
)"
R"(                  - { var:16, quality:3.5126995295286179e-02,
)"
R"(                      le:-8.7000001082818560e+15 }
)"
R"(            -
)"
R"(               depth: 1
)"
R"(               value: 4.6800078389825033e-17
)"
R"(            -
)"
R"(               depth: 1
)"
R"(               value: -5.4486873898519990e-17
)"
R"(      -
)"
R"(         nodes:
)"
R"(            -
)"
R"(               depth: 0
)"
R"(               value: 8.3348042009823129e-17
)"
R"(               splits:
)"
R"(                  - { var:16, quality:3.5126995295286179e-02,
)"
R"(                      le:-8.7000001082818560e+15 }
)"
R"(            -
)"
R"(               depth: 1
)"
R"(               value: -3.3889711937459508e-17
)"
R"(            -
)"
R"(               depth: 1
)"
R"(               value: 3.1839608625053510e-17
)"
R"(      -
)"
R"(         nodes:
)"
R"(            -
)"
R"(               depth: 0
)"
R"(               value: 8.8958788252435651e-17
)"
R"(               splits:
)"
R"(                  - { var:16, quality:3.5126995295286179e-02,
)"
R"(                      le:-8.7000001082818560e+15 }
)"
R"(            -
)"
R"(               depth: 1
)"
R"(               value: 4.6800078389825033e-17
)"
R"(            -
)"
R"(               depth: 1
)"
R"(               value: -5.4486873898519990e-17
)"
R"(      -
)"
R"(         nodes:
)"
R"(            -
)"
R"(               depth: 0
)"
R"(               value: 8.3348042009823129e-17
)"
R"(               splits:
)"
R"(                  - { var:16, quality:3.5126995295286179e-02,
)"
R"(                      le:-8.7000001082818560e+15 }
)"
R"(            -
)"
R"(               depth: 1
)"
R"(               value: -3.3889711937459508e-17
)"
R"(            -
)"
R"(               depth: 1
)"
R"(               value: 3.1839608625053510e-17
)"
R"(      -
)"
R"(         nodes:
)"
R"(            -
)"
R"(               depth: 0
)"
R"(               value: 8.8958788252435651e-17
)"
R"(               splits:
)"
R"(                  - { var:16, quality:3.5126995295286179e-02,
)"
R"(                      le:-8.7000001082818560e+15 }
)"
R"(            -
)"
R"(               depth: 1
)"
R"(               value: 4.6800078389825033e-17
)"
R"(            -
)"
R"(               depth: 1
)"
R"(               value: -5.4486873898519990e-17
)"
R"(      -
)"
R"(         nodes:
)"
R"(            -
)"
R"(               depth: 0
)"
R"(               value: 8.3348042009823129e-17
)"
R"(               splits:
)"
R"(                  - { var:16, quality:3.5126995295286179e-02,
)"
R"(                      le:-8.7000001082818560e+15 }
)"
R"(            -
)"
R"(               depth: 1
)"
R"(               value: -3.3889711937459508e-17
)"
R"(            -
)"
R"(               depth: 1
)"
R"(               value: 3.1839608625053510e-17
)"
R"(      -
)"
R"(         nodes:
)"
R"(            -
)"
R"(               depth: 0
)"
R"(               value: 8.8958788252435651e-17
)"
R"(               splits:
)"
R"(                  - { var:16, quality:3.5126995295286179e-02,
)"
R"(                      le:-8.7000001082818560e+15 }
)"
R"(            -
)"
R"(               depth: 1
)"
R"(               value: 4.6800078389825033e-17
)"
R"(            -
)"
R"(               depth: 1
)"
R"(               value: -5.4486873898519990e-17
)"
R"(      -
)"
R"(         nodes:
)"
R"(            -
)"
R"(               depth: 0
)"
R"(               value: 8.3348042009823129e-17
)"
R"(               splits:
)"
R"(                  - { var:16, quality:3.5126995295286179e-02,
)"
R"(                      le:-8.7000001082818560e+15 }
)"
R"(            -
)"
R"(               depth: 1
)"
R"(               value: -3.3889711937459508e-17
)"
R"(            -
)"
R"(               depth: 1
)"
R"(               value: 3.1839608625053510e-17
)"
R"(      -
)"
R"(         nodes:
)"
R"(            -
)"
R"(               depth: 0
)"
R"(               value: 8.8958788252435651e-17
)"
R"(               splits:
)"
R"(                  - { var:16, quality:3.5126995295286179e-02,
)"
R"(                      le:-8.7000001082818560e+15 }
)"
R"(            -
)"
R"(               depth: 1
)"
R"(               value: 4.6800078389825033e-17
)"
R"(            -
)"
R"(               depth: 1
)"
R"(               value: -5.4486873898519990e-17
)"
R"(      -
)"
R"(         nodes:
)"
R"(            -
)"
R"(               depth: 0
)"
R"(               value: 8.3348042009823129e-17
)"
R"(               splits:
)"
R"(                  - { var:16, quality:3.5126995295286179e-02,
)"
R"(                      le:-8.7000001082818560e+15 }
)"
R"(            -
)"
R"(               depth: 1
)"
R"(               value: -3.3889711937459508e-17
)"
R"(            -
)"
R"(               depth: 1
)"
R"(               value: 3.1839608625053510e-17
)"
R"(      -
)"
R"(         nodes:
)"
R"(            -
)"
R"(               depth: 0
)"
R"(               value: 8.8958788252435651e-17
)"
R"(               splits:
)"
R"(                  - { var:16, quality:3.5126995295286179e-02,
)"
R"(                      le:-8.7000001082818560e+15 }
)"
R"(            -
)"
R"(               depth: 1
)"
R"(               value: 4.6800078389825033e-17
)"
R"(            -
)"
R"(               depth: 1
)"
R"(               value: -5.4486873898519990e-17
)"
R"(      -
)"
R"(         nodes:
)"
R"(            -
)"
R"(               depth: 0
)"
R"(               value: 8.3348042009823129e-17
)"
R"(               splits:
)"
R"(                  - { var:16, quality:3.5126995295286179e-02,
)"
R"(                      le:-8.7000001082818560e+15 }
)"
R"(            -
)"
R"(               depth: 1
)"
R"(               value: -3.3889711937459508e-17
)"
R"(            -
)"
R"(               depth: 1
)"
R"(               value: 3.1839608625053510e-17
)"
R"(      -
)"
R"(         nodes:
)"
R"(            -
)"
R"(               depth: 0
)"
R"(               value: 8.8958788252435651e-17
)"
R"(               splits:
)"
R"(                  - { var:16, quality:3.5126995295286179e-02,
)"
R"(                      le:-8.7000001082818560e+15 }
)"
R"(            -
)"
R"(               depth: 1
)"
R"(               value: 4.6800078389825033e-17
)"
R"(            -
)"
R"(               depth: 1
)"
R"(               value: -5.4486873898519990e-17
)"
R"(      -
)"
R"(         nodes:
)"
R"(            -
)"
R"(               depth: 0
)"
R"(               value: 8.3348042009823129e-17
)"
R"(               splits:
)"
R"(                  - { var:16, quality:3.5126995295286179e-02,
)"
R"(                      le:-8.7000001082818560e+15 }
)"
R"(            -
)"
R"(               depth: 1
)"
R"(               value: -3.3889711937459508e-17
)"
R"(            -
)"
R"(               depth: 1
)"
R"(               value: 3.1839608625053510e-17
)"
R"(      -
)"
R"(         nodes:
)"
R"(            -
)"
R"(               depth: 0
)"
R"(               value: 8.8958788252435651e-17
)"
R"(               splits:
)"
R"(                  - { var:16, quality:3.5126995295286179e-02,
)"
R"(                      le:-8.7000001082818560e+15 }
)"
R"(            -
)"
R"(               depth: 1
)"
R"(               value: 4.6800078389825033e-17
)"
R"(            -
)"
R"(               depth: 1
)"
R"(               value: -5.4486873898519990e-17
)"
R"(      -
)"
R"(         nodes:
)"
R"(            -
)"
R"(               depth: 0
)"
R"(               value: 8.3348042009823129e-17
)"
R"(               splits:
)"
R"(                  - { var:16, quality:3.5126995295286179e-02,
)"
R"(                      le:-8.7000001082818560e+15 }
)"
R"(            -
)"
R"(               depth: 1
)"
R"(               value: -3.3889711937459508e-17
)"
R"(            -
)"
R"(               depth: 1
)"
R"(               value: 3.1839608625053510e-17
)"
R"(      -
)"
R"(         nodes:
)"
R"(            -
)"
R"(               depth: 0
)"
R"(               value: 8.8958788252435651e-17
)"
R"(               splits:
)"
R"(                  - { var:16, quality:3.5126995295286179e-02,
)"
R"(                      le:-8.7000001082818560e+15 }
)"
R"(            -
)"
R"(               depth: 1
)"
R"(               value: 4.6800078389825033e-17
)"
R"(            -
)"
R"(               depth: 1
)"
R"(               value: -5.4486873898519990e-17
)"
R"(      -
)"
R"(         nodes:
)"
R"(            -
)"
R"(               depth: 0
)"
R"(               value: 8.3348042009823129e-17
)"
R"(               splits:
)"
R"(                  - { var:16, quality:3.5126995295286179e-02,
)"
R"(                      le:-8.7000001082818560e+15 }
)"
R"(            -
)"
R"(               depth: 1
)"
R"(               value: -3.3889711937459508e-17
)"
R"(            -
)"
R"(               depth: 1
)"
R"(               value: 3.1839608625053510e-17
)"
R"(      -
)"
R"(         nodes:
)"
R"(            -
)"
R"(               depth: 0
)"
R"(               value: 8.8958788252435651e-17
)"
R"(               splits:
)"
R"(                  - { var:16, quality:3.5126995295286179e-02,
)"
R"(                      le:-8.7000001082818560e+15 }
)"
R"(            -
)"
R"(               depth: 1
)"
R"(               value: 4.6800078389825033e-17
)"
R"(            -
)"
R"(               depth: 1
)"
R"(               value: -5.4486873898519990e-17
)"
R"(      -
)"
R"(         nodes:
)"
R"(            -
)"
R"(               depth: 0
)"
R"(               value: 8.3348042009823129e-17
)"
R"(               splits:
)"
R"(                  - { var:16, quality:3.5126995295286179e-02,
)"
R"(                      le:-8.7000001082818560e+15 }
)"
R"(            -
)"
R"(               depth: 1
)"
R"(               value: -3.3889711937459508e-17
)"
R"(            -
)"
R"(               depth: 1
)"
R"(               value: 3.1839608625053510e-17
)"
R"(      -
)"
R"(         nodes:
)"
R"(            -
)"
R"(               depth: 0
)"
R"(               value: 8.8958788252435651e-17
)"
R"(               splits:
)"
R"(                  - { var:16, quality:3.5126995295286179e-02,
)"
R"(                      le:-8.7000001082818560e+15 }
)"
R"(            -
)"
R"(               depth: 1
)"
R"(               value: 4.6800078389825033e-17
)"
R"(            -
)"
R"(               depth: 1
)"
R"(               value: -5.4486873898519990e-17
)"
R"(      -
)"
R"(         nodes:
)"
R"(            -
)"
R"(               depth: 0
)"
R"(               value: 8.3348042009823129e-17
)"
R"(               splits:
)"
R"(                  - { var:16, quality:3.5126995295286179e-02,
)"
R"(                      le:-8.7000001082818560e+15 }
)"
R"(            -
)"
R"(               depth: 1
)"
R"(               value: -3.3889711937459508e-17
)"
R"(            -
)"
R"(               depth: 1
)"
R"(               value: 3.1839608625053510e-17
)"
R"(      -
)"
R"(         nodes:
)"
R"(            -
)"
R"(               depth: 0
)"
R"(               value: 8.8958788252435651e-17
)"
R"(               splits:
)"
R"(                  - { var:16, quality:3.5126995295286179e-02,
)"
R"(                      le:-8.7000001082818560e+15 }
)"
R"(            -
)"
R"(               depth: 1
)"
R"(               value: 4.6800078389825033e-17
)"
R"(            -
)"
R"(               depth: 1
)"
R"(               value: -5.4486873898519990e-17
)"
R"(      -
)"
R"(         nodes:
)"
R"(            -
)"
R"(               depth: 0
)"
R"(               value: 8.3348042009823129e-17
)"
R"(               splits:
)"
R"(                  - { var:16, quality:3.5126995295286179e-02,
)"
R"(                      le:-8.7000001082818560e+15 }
)"
R"(            -
)"
R"(               depth: 1
)"
R"(               value: -3.3889711937459508e-17
)"
R"(            -
)"
R"(               depth: 1
)"
R"(               value: 3.1839608625053510e-17
)"
R"(      -
)"
R"(         nodes:
)"
R"(            -
)"
R"(               depth: 0
)"
R"(               value: 8.8958788252435651e-17
)"
R"(               splits:
)"
R"(                  - { var:16, quality:3.5126995295286179e-02,
)"
R"(                      le:-8.7000001082818560e+15 }
)"
R"(            -
)"
R"(               depth: 1
)"
R"(               value: 4.6800078389825033e-17
)"
R"(            -
)"
R"(               depth: 1
)"
R"(               value: -5.4486873898519990e-17
)"
R"(      -
)"
R"(         nodes:
)"
R"(            -
)"
R"(               depth: 0
)"
R"(               value: 8.3348042009823129e-17
)"
R"(               splits:
)"
R"(                  - { var:16, quality:3.5126995295286179e-02,
)"
R"(                      le:-8.7000001082818560e+15 }
)"
R"(            -
)"
R"(               depth: 1
)"
R"(               value: -3.3889711937459508e-17
)"
R"(            -
)"
R"(               depth: 1
)"
R"(               value: 3.1839608625053510e-17
)"
R"(      -
)"
R"(         nodes:
)"
R"(            -
)"
R"(               depth: 0
)"
R"(               value: 8.8958788252435651e-17
)"
R"(               splits:
)"
R"(                  - { var:16, quality:3.5126995295286179e-02,
)"
R"(                      le:-8.7000001082818560e+15 }
)"
R"(            -
)"
R"(               depth: 1
)"
R"(               value: 4.6800078389825033e-17
)"
R"(            -
)"
R"(               depth: 1
)"
R"(               value: -5.4486873898519990e-17
)"
R"(      -
)"
R"(         nodes:
)"
R"(            -
)"
R"(               depth: 0
)"
R"(               value: 8.3348042009823129e-17
)"
R"(               splits:
)"
R"(                  - { var:16, quality:3.5126995295286179e-02,
)"
R"(                      le:-8.7000001082818560e+15 }
)"
R"(            -
)"
R"(               depth: 1
)"
R"(               value: -3.3889711937459508e-17
)"
R"(            -
)"
R"(               depth: 1
)"
R"(               value: 3.1839608625053510e-17
)"
R"(      -
)"
R"(         nodes:
)"
R"(            -
)"
R"(               depth: 0
)"
R"(               value: 8.8958788252435651e-17
)"
R"(               splits:
)"
R"(                  - { var:16, quality:3.5126995295286179e-02,
)"
R"(                      le:-8.7000001082818560e+15 }
)"
R"(            -
)"
R"(               depth: 1
)"
R"(               value: 4.6800078389825033e-17
)"
R"(            -
)"
R"(               depth: 1
)"
R"(               value: -5.4486873898519990e-17
)"
R"(      -
)"
R"(         nodes:
)"
R"(            -
)"
R"(               depth: 0
)"
R"(               value: 8.3348042009823129e-17
)"
R"(               splits:
)"
R"(                  - { var:16, quality:3.5126995295286179e-02,
)"
R"(                      le:-8.7000001082818560e+15 }
)"
R"(            -
)"
R"(               depth: 1
)"
R"(               value: -3.3889711937459508e-17
)"
R"(            -
)"
R"(               depth: 1
)"
R"(               value: 3.1839608625053510e-17
)"
R"(      -
)"
R"(         nodes:
)"
R"(            -
)"
R"(               depth: 0
)"
R"(               value: 8.8958788252435651e-17
)"
R"(               splits:
)"
R"(                  - { var:16, quality:3.5126995295286179e-02,
)"
R"(                      le:-8.7000001082818560e+15 }
)"
R"(            -
)"
R"(               depth: 1
)"
R"(               value: 4.6800078389825033e-17
)"
R"(            -
)"
R"(               depth: 1
)"
R"(               value: -5.4486873898519990e-17
)"
R"(      -
)"
R"(         nodes:
)"
R"(            -
)"
R"(               depth: 0
)"
R"(               value: 8.3348042009823129e-17
)"
R"(               splits:
)"
R"(                  - { var:16, quality:3.5126995295286179e-02,
)"
R"(                      le:-8.7000001082818560e+15 }
)"
R"(            -
)"
R"(               depth: 1
)"
R"(               value: -3.3889711937459508e-17
)"
R"(            -
)"
R"(               depth: 1
)"
R"(               value: 3.1839608625053510e-17
)"
R"(      -
)"
R"(         nodes:
)"
R"(            -
)"
R"(               depth: 0
)"
R"(               value: 8.8958788252435651e-17
)"
R"(               splits:
)"
R"(                  - { var:16, quality:3.5126995295286179e-02,
)"
R"(                      le:-8.7000001082818560e+15 }
)"
R"(            -
)"
R"(               depth: 1
)"
R"(               value: 4.6800078389825033e-17
)"
R"(            -
)"
R"(               depth: 1
)"
R"(               value: -5.4486873898519990e-17
)"
R"(      -
)"
R"(         nodes:
)"
R"(            -
)"
R"(               depth: 0
)"
R"(               value: 8.3348042009823129e-17
)"
R"(               splits:
)"
R"(                  - { var:16, quality:3.5126995295286179e-02,
)"
R"(                      le:-8.7000001082818560e+15 }
)"
R"(            -
)"
R"(               depth: 1
)"
R"(               value: -3.3889711937459508e-17
)"
R"(            -
)"
R"(               depth: 1
)"
R"(               value: 3.1839608625053510e-17
)"
;
};