#include <string>

namespace mct
{
	static const std::string bubble_boost_model = R"(%YAML:1.0
)"
R"(---
)"
R"(opencv_ml_boost:
)"
R"(   format: 3
)"
R"(   is_classifier: 1
)"
R"(   var_all: 19
)"
R"(   var_count: 18
)"
R"(   ord_var_count: 18
)"
R"(   cat_var_count: 1
)"
R"(   training_params:
)"
R"(      boosting_type: GentleAdaboost
)"
R"(      use_surrogates: 0
)"
R"(      max_categories: 10
)"
R"(      regression_accuracy: 9.9999997764825821e-03
)"
R"(      max_depth: 1
)"
R"(      min_sample_count: 10
)"
R"(      cross_validation_folds: 0
)"
R"(      weight_trimming_rate: 0.
)"
R"(   global_var_idx: 1
)"
R"(   var_idx: [ 0, 1, 2, 3, 4, 5, 6, 7, 8, 9, 10, 11, 12, 13, 14, 15, 16,
)"
R"(       17 ]
)"
R"(   var_type: [ 0, 0, 0, 0, 0, 0, 0, 0, 0, 0, 0, 0, 0, 0, 0, 0, 0, 0, 1 ]
)"
R"(   cat_ofs: [ 0, 0, 0, 0, 0, 0, 0, 0, 0, 0, 0, 0, 0, 0, 0, 0, 0, 0, 0, 0,
)"
R"(       0, 0, 0, 0, 0, 0, 0, 0, 0, 0, 0, 0, 0, 0, 0, 0 ]
)"
R"(   class_labels: [ 0, 1 ]
)"
R"(   missing_subst: [ 0., 0., 0., 0., 0., 0., 0., 0., 0., 0., 0., 0., 0.,
)"
R"(       0., 0., 0., 0., 0., 0. ]
)"
R"(   ntrees: 100
)"
R"(   trees:
)"
R"(      -
)"
R"(         nodes:
)"
R"(            -
)"
R"(               depth: 0
)"
R"(               value: -6.1426684280052968e-01
)"
R"(               splits:
)"
R"(                  - { var:2, quality:7.2097820043563843e-01,
)"
R"(                      le:9.6933150291442871e-01 }
)"
R"(            -
)"
R"(               depth: 1
)"
R"(               value: -8.5701021355617513e-01
)"
R"(            -
)"
R"(               depth: 1
)"
R"(               value: 8.0144404332130403e-01
)"
R"(      -
)"
R"(         nodes:
)"
R"(            -
)"
R"(               depth: 0
)"
R"(               value: -2.9006973308703432e-01
)"
R"(               splits:
)"
R"(                  - { var:4, quality:6.3400059938430786e-01,
)"
R"(                      le:1.6228558123111725e-01 }
)"
R"(            -
)"
R"(               depth: 1
)"
R"(               value: -9.1401897453203063e-01
)"
R"(            -
)"
R"(               depth: 1
)"
R"(               value: 5.9118809387631877e-01
)"
R"(      -
)"
R"(         nodes:
)"
R"(            -
)"
R"(               depth: 0
)"
R"(               value: -2.1232542855694908e-01
)"
R"(               splits:
)"
R"(                  - { var:1, quality:3.5594284534454346e-01,
)"
R"(                      le:9.2294499278068542e-02 }
)"
R"(            -
)"
R"(               depth: 1
)"
R"(               value: -7.5673733852911673e-01
)"
R"(            -
)"
R"(               depth: 1
)"
R"(               value: 3.5867742460418151e-01
)"
R"(      -
)"
R"(         nodes:
)"
R"(            -
)"
R"(               depth: 0
)"
R"(               value: -8.8401824131306816e-02
)"
R"(               splits:
)"
R"(                  - { var:3, quality:2.0215825736522675e-01,
)"
R"(                      le:6.4278650283813477e-01 }
)"
R"(            -
)"
R"(               depth: 1
)"
R"(               value: -5.0310459350797776e-01
)"
R"(            -
)"
R"(               depth: 1
)"
R"(               value: 3.8023109755647894e-01
)"
R"(      -
)"
R"(         nodes:
)"
R"(            -
)"
R"(               depth: 0
)"
R"(               value: -1.6081832502796413e-02
)"
R"(               splits:
)"
R"(                  - { var:4, quality:1.4270554482936859e-01,
)"
R"(                      le:1.9817501306533813e-02 }
)"
R"(            -
)"
R"(               depth: 1
)"
R"(               value: -8.1114842177316304e-01
)"
R"(            -
)"
R"(               depth: 1
)"
R"(               value: 1.6308168230667755e-01
)"
R"(      -
)"
R"(         nodes:
)"
R"(            -
)"
R"(               depth: 0
)"
R"(               value: -3.6740815750259934e-02
)"
R"(               splits:
)"
R"(                  - { var:11, quality:1.2237890064716339e-01,
)"
R"(                      le:2.0702390670776367e+00 }
)"
R"(            -
)"
R"(               depth: 1
)"
R"(               value: 1.9594391614511422e-01
)"
R"(            -
)"
R"(               depth: 1
)"
R"(               value: -5.5688244036827617e-01
)"
R"(      -
)"
R"(         nodes:
)"
R"(            -
)"
R"(               depth: 0
)"
R"(               value: -1.7768034505903810e-02
)"
R"(               splits:
)"
R"(                  - { var:5, quality:8.6718268692493439e-02,
)"
R"(                      le:2.5175719261169434e+00 }
)"
R"(            -
)"
R"(               depth: 1
)"
R"(               value: -1.4373275880833919e-01
)"
R"(            -
)"
R"(               depth: 1
)"
R"(               value: 6.6815867433627918e-01
)"
R"(      -
)"
R"(         nodes:
)"
R"(            -
)"
R"(               depth: 0
)"
R"(               value: 1.6048512547722073e-02
)"
R"(               splits:
)"
R"(                  - { var:3, quality:9.7136333584785461e-02,
)"
R"(                      le:5.2757149934768677e-01 }
)"
R"(            -
)"
R"(               depth: 1
)"
R"(               value: -5.6163703976131085e-01
)"
R"(            -
)"
R"(               depth: 1
)"
R"(               value: 1.8375009062699971e-01
)"
R"(      -
)"
R"(         nodes:
)"
R"(            -
)"
R"(               depth: 0
)"
R"(               value: -1.2759314111542760e-02
)"
R"(               splits:
)"
R"(                  - { var:8, quality:7.8360714018344879e-02,
)"
R"(                      le:4.3251949548721313e-01 }
)"
R"(            -
)"
R"(               depth: 1
)"
R"(               value: 3.3001185493848667e-01
)"
R"(            -
)"
R"(               depth: 1
)"
R"(               value: -2.4089377170568951e-01
)"
R"(      -
)"
R"(         nodes:
)"
R"(            -
)"
R"(               depth: 0
)"
R"(               value: 2.1102183318780542e-03
)"
R"(               splits:
)"
R"(                  - { var:0, quality:9.6510313451290131e-02,
)"
R"(                      le:4.5473501086235046e-02 }
)"
R"(            -
)"
R"(               depth: 1
)"
R"(               value: -6.4987140647804742e-01
)"
R"(            -
)"
R"(               depth: 1
)"
R"(               value: 1.5012951203625979e-01
)"
R"(      -
)"
R"(         nodes:
)"
R"(            -
)"
R"(               depth: 0
)"
R"(               value: -1.7659464281753027e-02
)"
R"(               splits:
)"
R"(                  - { var:5, quality:6.5481208264827728e-02,
)"
R"(                      le:7.8242999315261841e-01 }
)"
R"(            -
)"
R"(               depth: 1
)"
R"(               value: -1.8462919766632976e-01
)"
R"(            -
)"
R"(               depth: 1
)"
R"(               value: 3.7264691409370337e-01
)"
R"(      -
)"
R"(         nodes:
)"
R"(            -
)"
R"(               depth: 0
)"
R"(               value: 3.8968032607549861e-03
)"
R"(               splits:
)"
R"(                  - { var:1, quality:5.2728671580553055e-02,
)"
R"(                      le:3.5427000373601913e-02 }
)"
R"(            -
)"
R"(               depth: 1
)"
R"(               value: -6.6734029753170099e-01
)"
R"(            -
)"
R"(               depth: 1
)"
R"(               value: 8.2428646882151235e-02
)"
R"(      -
)"
R"(         nodes:
)"
R"(            -
)"
R"(               depth: 0
)"
R"(               value: -1.0997762345273178e-02
)"
R"(               splits:
)"
R"(                  - { var:2, quality:5.7515036314725876e-02,
)"
R"(                      le:8.8996553421020508e-01 }
)"
R"(            -
)"
R"(               depth: 1
)"
R"(               value: -2.5844643360543768e-01
)"
R"(            -
)"
R"(               depth: 1
)"
R"(               value: 2.2094563378667423e-01
)"
R"(      -
)"
R"(         nodes:
)"
R"(            -
)"
R"(               depth: 0
)"
R"(               value: -9.6604412305485927e-04
)"
R"(               splits:
)"
R"(                  - { var:8, quality:4.8217240720987320e-02,
)"
R"(                      le:5.2124750614166260e-01 }
)"
R"(            -
)"
R"(               depth: 1
)"
R"(               value: 2.3522154177934521e-01
)"
R"(            -
)"
R"(               depth: 1
)"
R"(               value: -2.0511016800748599e-01
)"
R"(      -
)"
R"(         nodes:
)"
R"(            -
)"
R"(               depth: 0
)"
R"(               value: 4.8491075525798806e-04
)"
R"(               splits:
)"
R"(                  - { var:4, quality:7.9225167632102966e-02,
)"
R"(                      le:1.0536999702453613e+00 }
)"
R"(            -
)"
R"(               depth: 1
)"
R"(               value: -1.1642555187546948e-01
)"
R"(            -
)"
R"(               depth: 1
)"
R"(               value: 6.7813966197509046e-01
)"
R"(      -
)"
R"(         nodes:
)"
R"(            -
)"
R"(               depth: 0
)"
R"(               value: 1.6270936214092251e-02
)"
R"(               splits:
)"
R"(                  - { var:4, quality:4.7487683594226837e-02,
)"
R"(                      le:4.2584818601608276e-01 }
)"
R"(            -
)"
R"(               depth: 1
)"
R"(               value: 1.4410879356622180e-01
)"
R"(            -
)"
R"(               depth: 1
)"
R"(               value: -3.5312621963976604e-01
)"
R"(      -
)"
R"(         nodes:
)"
R"(            -
)"
R"(               depth: 0
)"
R"(               value: -3.1549273475755791e-03
)"
R"(               splits:
)"
R"(                  - { var:5, quality:7.0385396480560303e-02,
)"
R"(                      le:5.4536998271942139e-02 }
)"
R"(            -
)"
R"(               depth: 1
)"
R"(               value: -3.8978455347662910e-01
)"
R"(            -
)"
R"(               depth: 1
)"
R"(               value: 1.7886797347439787e-01
)"
R"(      -
)"
R"(         nodes:
)"
R"(            -
)"
R"(               depth: 0
)"
R"(               value: -5.3063299406509506e-03
)"
R"(               splits:
)"
R"(                  - { var:7, quality:3.9667785167694092e-02,
)"
R"(                      le:5.5456495285034180e-01 }
)"
R"(            -
)"
R"(               depth: 1
)"
R"(               value: 6.9693864760656907e-02
)"
R"(            -
)"
R"(               depth: 1
)"
R"(               value: -5.3383333458200555e-01
)"
R"(      -
)"
R"(         nodes:
)"
R"(            -
)"
R"(               depth: 0
)"
R"(               value: -6.5220441912860203e-03
)"
R"(               splits:
)"
R"(                  - { var:8, quality:4.1433729231357574e-02,
)"
R"(                      le:3.4696850180625916e-01 }
)"
R"(            -
)"
R"(               depth: 1
)"
R"(               value: 2.6059517205019389e-01
)"
R"(            -
)"
R"(               depth: 1
)"
R"(               value: -1.6147720932255991e-01
)"
R"(      -
)"
R"(         nodes:
)"
R"(            -
)"
R"(               depth: 0
)"
R"(               value: 1.3175290163238171e-03
)"
R"(               splits:
)"
R"(                  - { var:7, quality:6.3162393867969513e-02,
)"
R"(                      le:4.4957649707794189e-01 }
)"
R"(            -
)"
R"(               depth: 1
)"
R"(               value: -4.6230270980878352e-01
)"
R"(            -
)"
R"(               depth: 1
)"
R"(               value: 1.3755114338399446e-01
)"
R"(      -
)"
R"(         nodes:
)"
R"(            -
)"
R"(               depth: 0
)"
R"(               value: -7.2065513635915929e-03
)"
R"(               splits:
)"
R"(                  - { var:3, quality:3.5957958549261093e-02,
)"
R"(                      le:3.9461147785186768e-01 }
)"
R"(            -
)"
R"(               depth: 1
)"
R"(               value: -7.5914955504744652e-01
)"
R"(            -
)"
R"(               depth: 1
)"
R"(               value: 4.0544440919653237e-02
)"
R"(      -
)"
R"(         nodes:
)"
R"(            -
)"
R"(               depth: 0
)"
R"(               value: -9.3923212377103361e-03
)"
R"(               splits:
)"
R"(                  - { var:2, quality:6.0519177466630936e-02,
)"
R"(                      le:6.9202148914337158e-01 }
)"
R"(            -
)"
R"(               depth: 1
)"
R"(               value: 4.6093755008004994e-01
)"
R"(            -
)"
R"(               depth: 1
)"
R"(               value: -1.3787865917290756e-01
)"
R"(      -
)"
R"(         nodes:
)"
R"(            -
)"
R"(               depth: 0
)"
R"(               value: 6.6772233350819105e-03
)"
R"(               splits:
)"
R"(                  - { var:12, quality:3.1033793464303017e-02,
)"
R"(                      le:5.4756278991699219e+00 }
)"
R"(            -
)"
R"(               depth: 1
)"
R"(               value: -4.6719915830923525e-02
)"
R"(            -
)"
R"(               depth: 1
)"
R"(               value: 5.8703056689144351e-01
)"
R"(      -
)"
R"(         nodes:
)"
R"(            -
)"
R"(               depth: 0
)"
R"(               value: 5.9484305700744072e-03
)"
R"(               splits:
)"
R"(                  - { var:1, quality:3.5037308931350708e-02,
)"
R"(                      le:1.2398850172758102e-01 }
)"
R"(            -
)"
R"(               depth: 1
)"
R"(               value: -1.6169776733923405e-01
)"
R"(            -
)"
R"(               depth: 1
)"
R"(               value: 2.1473291299417901e-01
)"
R"(      -
)"
R"(         nodes:
)"
R"(            -
)"
R"(               depth: 0
)"
R"(               value: 7.0546412371734306e-04
)"
R"(               splits:
)"
R"(                  - { var:0, quality:3.7266150116920471e-02,
)"
R"(                      le:1.1611549556255341e-01 }
)"
R"(            -
)"
R"(               depth: 1
)"
R"(               value: 1.4786781064117635e-01
)"
R"(            -
)"
R"(               depth: 1
)"
R"(               value: -2.5252271812600552e-01
)"
R"(      -
)"
R"(         nodes:
)"
R"(            -
)"
R"(               depth: 0
)"
R"(               value: -1.3274040584634111e-03
)"
R"(               splits:
)"
R"(                  - { var:3, quality:2.7669003233313560e-02,
)"
R"(                      le:4.2994850873947144e-01 }
)"
R"(            -
)"
R"(               depth: 1
)"
R"(               value: -5.8940151932156704e-01
)"
R"(            -
)"
R"(               depth: 1
)"
R"(               value: 4.5719797492972156e-02
)"
R"(      -
)"
R"(         nodes:
)"
R"(            -
)"
R"(               depth: 0
)"
R"(               value: -5.2832348744985009e-03
)"
R"(               splits:
)"
R"(                  - { var:12, quality:2.6863532140851021e-02,
)"
R"(                      le:2.2847764492034912e+00 }
)"
R"(            -
)"
R"(               depth: 1
)"
R"(               value: 3.6679155524354595e-01
)"
R"(            -
)"
R"(               depth: 1
)"
R"(               value: -7.7407496365769574e-02
)"
R"(      -
)"
R"(         nodes:
)"
R"(            -
)"
R"(               depth: 0
)"
R"(               value: 2.6133978115480969e-03
)"
R"(               splits:
)"
R"(                  - { var:4, quality:3.9552878588438034e-02,
)"
R"(                      le:2.4625249207019806e-02 }
)"
R"(            -
)"
R"(               depth: 1
)"
R"(               value: -4.8351709690837757e-01
)"
R"(            -
)"
R"(               depth: 1
)"
R"(               value: 8.3962028643296591e-02
)"
R"(      -
)"
R"(         nodes:
)"
R"(            -
)"
R"(               depth: 0
)"
R"(               value: -5.4734111199049515e-03
)"
R"(               splits:
)"
R"(                  - { var:8, quality:4.5934103429317474e-02,
)"
R"(                      le:8.2714903354644775e-01 }
)"
R"(            -
)"
R"(               depth: 1
)"
R"(               value: 1.2423764046025090e-01
)"
R"(            -
)"
R"(               depth: 1
)"
R"(               value: -3.5936881406186333e-01
)"
R"(      -
)"
R"(         nodes:
)"
R"(            -
)"
R"(               depth: 0
)"
R"(               value: -3.8248373467137035e-03
)"
R"(               splits:
)"
R"(                  - { var:4, quality:2.6681303977966309e-02,
)"
R"(                      le:1.0349504947662354e+00 }
)"
R"(            -
)"
R"(               depth: 1
)"
R"(               value: -6.7202343313484098e-02
)"
R"(            -
)"
R"(               depth: 1
)"
R"(               value: 4.1693446184575700e-01
)"
R"(      -
)"
R"(         nodes:
)"
R"(            -
)"
R"(               depth: 0
)"
R"(               value: 3.1739290923680791e-03
)"
R"(               splits:
)"
R"(                  - { var:4, quality:2.4691017344594002e-02,
)"
R"(                      le:4.2584818601608276e-01 }
)"
R"(            -
)"
R"(               depth: 1
)"
R"(               value: 9.3633925934441739e-02
)"
R"(            -
)"
R"(               depth: 1
)"
R"(               value: -2.6966427389726372e-01
)"
R"(      -
)"
R"(         nodes:
)"
R"(            -
)"
R"(               depth: 0
)"
R"(               value: -1.4519350527111830e-03
)"
R"(               splits:
)"
R"(                  - { var:6, quality:2.8336297720670700e-02,
)"
R"(                      le:4.7754448652267456e-01 }
)"
R"(            -
)"
R"(               depth: 1
)"
R"(               value: -2.6497210012729500e-01
)"
R"(            -
)"
R"(               depth: 1
)"
R"(               value: 1.0606996821469217e-01
)"
R"(      -
)"
R"(         nodes:
)"
R"(            -
)"
R"(               depth: 0
)"
R"(               value: -1.5490770160204404e-03
)"
R"(               splits:
)"
R"(                  - { var:6, quality:2.8714194893836975e-02,
)"
R"(                      le:5.9832596778869629e-01 }
)"
R"(            -
)"
R"(               depth: 1
)"
R"(               value: 5.5044636803013282e-02
)"
R"(            -
)"
R"(               depth: 1
)"
R"(               value: -5.0888096262291693e-01
)"
R"(      -
)"
R"(         nodes:
)"
R"(            -
)"
R"(               depth: 0
)"
R"(               value: -4.5426145019884104e-03
)"
R"(               splits:
)"
R"(                  - { var:1, quality:2.3974746465682983e-02,
)"
R"(                      le:3.0454501509666443e-02 }
)"
R"(            -
)"
R"(               depth: 1
)"
R"(               value: -5.8102331850778688e-01
)"
R"(            -
)"
R"(               depth: 1
)"
R"(               value: 3.7009706237770688e-02
)"
R"(      -
)"
R"(         nodes:
)"
R"(            -
)"
R"(               depth: 0
)"
R"(               value: -4.5897845948420111e-03
)"
R"(               splits:
)"
R"(                  - { var:7, quality:2.4059670045971870e-02,
)"
R"(                      le:5.2899503707885742e-01 }
)"
R"(            -
)"
R"(               depth: 1
)"
R"(               value: 6.5923340460771473e-02
)"
R"(            -
)"
R"(               depth: 1
)"
R"(               value: -3.4549942487993879e-01
)"
R"(      -
)"
R"(         nodes:
)"
R"(            -
)"
R"(               depth: 0
)"
R"(               value: -2.3340265979883710e-03
)"
R"(               splits:
)"
R"(                  - { var:14, quality:2.5060238316655159e-02,
)"
R"(                      le:-5.4349999269478400e+14 }
)"
R"(            -
)"
R"(               depth: 1
)"
R"(               value: -4.0738261889162813e-01
)"
R"(            -
)"
R"(               depth: 1
)"
R"(               value: 5.9522232817879030e-02
)"
R"(      -
)"
R"(         nodes:
)"
R"(            -
)"
R"(               depth: 0
)"
R"(               value: -3.0136654551726322e-03
)"
R"(               splits:
)"
R"(                  - { var:8, quality:2.2617431357502937e-02,
)"
R"(                      le:3.5796651244163513e-01 }
)"
R"(            -
)"
R"(               depth: 1
)"
R"(               value: 1.9912547110420625e-01
)"
R"(            -
)"
R"(               depth: 1
)"
R"(               value: -1.1485914979007840e-01
)"
R"(      -
)"
R"(         nodes:
)"
R"(            -
)"
R"(               depth: 0
)"
R"(               value: 6.2270837683370771e-04
)"
R"(               splits:
)"
R"(                  - { var:4, quality:2.4349573999643326e-02,
)"
R"(                      le:7.0661500096321106e-02 }
)"
R"(            -
)"
R"(               depth: 1
)"
R"(               value: -2.6228752447823989e-01
)"
R"(            -
)"
R"(               depth: 1
)"
R"(               value: 9.3236778823019881e-02
)"
R"(      -
)"
R"(         nodes:
)"
R"(            -
)"
R"(               depth: 0
)"
R"(               value: -1.3948693295044218e-03
)"
R"(               splits:
)"
R"(                  - { var:11, quality:2.2124405950307846e-02,
)"
R"(                      le:6.3740849494934082e-01 }
)"
R"(            -
)"
R"(               depth: 1
)"
R"(               value: -5.7186116370314632e-01
)"
R"(            -
)"
R"(               depth: 1
)"
R"(               value: 3.7384740248906784e-02
)"
R"(      -
)"
R"(         nodes:
)"
R"(            -
)"
R"(               depth: 0
)"
R"(               value: -4.1321749561127382e-03
)"
R"(               splits:
)"
R"(                  - { var:11, quality:2.6509949937462807e-02,
)"
R"(                      le:2.2278366088867188e+00 }
)"
R"(            -
)"
R"(               depth: 1
)"
R"(               value: 8.6399814586577792e-02
)"
R"(            -
)"
R"(               depth: 1
)"
R"(               value: -2.9676769454223612e-01
)"
R"(      -
)"
R"(         nodes:
)"
R"(            -
)"
R"(               depth: 0
)"
R"(               value: -1.9384832326634221e-03
)"
R"(               splits:
)"
R"(                  - { var:3, quality:2.6263894513249397e-02,
)"
R"(                      le:8.0899500846862793e-01 }
)"
R"(            -
)"
R"(               depth: 1
)"
R"(               value: -8.2775580109206187e-02
)"
R"(            -
)"
R"(               depth: 1
)"
R"(               value: 3.2291405736935325e-01
)"
R"(      -
)"
R"(         nodes:
)"
R"(            -
)"
R"(               depth: 0
)"
R"(               value: 2.1370079186074551e-03
)"
R"(               splits:
)"
R"(                  - { var:13, quality:2.1906863898038864e-02,
)"
R"(                      le:2.1725831031799316e+00 }
)"
R"(            -
)"
R"(               depth: 1
)"
R"(               value: 4.5041007846239173e-01
)"
R"(            -
)"
R"(               depth: 1
)"
R"(               value: -4.6722267143044414e-02
)"
R"(      -
)"
R"(         nodes:
)"
R"(            -
)"
R"(               depth: 0
)"
R"(               value: 3.0590727352526543e-03
)"
R"(               splits:
)"
R"(                  - { var:13, quality:2.4007752537727356e-02,
)"
R"(                      le:6.1552281379699707e+00 }
)"
R"(            -
)"
R"(               depth: 1
)"
R"(               value: -6.2268695981729794e-02
)"
R"(            -
)"
R"(               depth: 1
)"
R"(               value: 3.7041271829662520e-01
)"
R"(      -
)"
R"(         nodes:
)"
R"(            -
)"
R"(               depth: 0
)"
R"(               value: 2.5563151291406907e-03
)"
R"(               splits:
)"
R"(                  - { var:3, quality:2.9778692871332169e-02,
)"
R"(                      le:9.2592298984527588e-01 }
)"
R"(            -
)"
R"(               depth: 1
)"
R"(               value: 5.1250825414548347e-02
)"
R"(            -
)"
R"(               depth: 1
)"
R"(               value: -6.0885053736013250e-01
)"
R"(      -
)"
R"(         nodes:
)"
R"(            -
)"
R"(               depth: 0
)"
R"(               value: -5.8107780601243525e-03
)"
R"(               splits:
)"
R"(                  - { var:3, quality:2.1226398646831512e-02,
)"
R"(                      le:5.1028001308441162e-01 }
)"
R"(            -
)"
R"(               depth: 1
)"
R"(               value: -3.4038505501503968e-01
)"
R"(            -
)"
R"(               depth: 1
)"
R"(               value: 5.7531309481070769e-02
)"
R"(      -
)"
R"(         nodes:
)"
R"(            -
)"
R"(               depth: 0
)"
R"(               value: -2.0862862590815931e-03
)"
R"(               splits:
)"
R"(                  - { var:1, quality:1.8659915775060654e-02,
)"
R"(                      le:1.5444350242614746e-01 }
)"
R"(            -
)"
R"(               depth: 1
)"
R"(               value: -9.8724257956107134e-02
)"
R"(            -
)"
R"(               depth: 1
)"
R"(               value: 1.9095960137910911e-01
)"
R"(      -
)"
R"(         nodes:
)"
R"(            -
)"
R"(               depth: 0
)"
R"(               value: 5.6855193602898472e-04
)"
R"(               splits:
)"
R"(                  - { var:11, quality:1.7341367900371552e-02,
)"
R"(                      le:1.2018175125122070e+00 }
)"
R"(            -
)"
R"(               depth: 1
)"
R"(               value: -2.3980923071489957e-01
)"
R"(            -
)"
R"(               depth: 1
)"
R"(               value: 7.2709347727925783e-02
)"
R"(      -
)"
R"(         nodes:
)"
R"(            -
)"
R"(               depth: 0
)"
R"(               value: -9.7723909976076603e-04
)"
R"(               splits:
)"
R"(                  - { var:13, quality:2.6295442134141922e-02,
)"
R"(                      le:3.1666049957275391e+00 }
)"
R"(            -
)"
R"(               depth: 1
)"
R"(               value: 2.7470596447210416e-01
)"
R"(            -
)"
R"(               depth: 1
)"
R"(               value: -9.6356596651709661e-02
)"
R"(      -
)"
R"(         nodes:
)"
R"(            -
)"
R"(               depth: 0
)"
R"(               value: 1.5890619028401203e-03
)"
R"(               splits:
)"
R"(                  - { var:3, quality:1.9968584179878235e-02,
)"
R"(                      le:9.6432650089263916e-01 }
)"
R"(            -
)"
R"(               depth: 1
)"
R"(               value: -1.9624613527768151e-02
)"
R"(            -
)"
R"(               depth: 1
)"
R"(               value: 9.4277716074978857e-01
)"
R"(      -
)"
R"(         nodes:
)"
R"(            -
)"
R"(               depth: 0
)"
R"(               value: 6.8028681949015594e-03
)"
R"(               splits:
)"
R"(                  - { var:5, quality:1.7226200550794601e-02,
)"
R"(                      le:3.2106316089630127e+00 }
)"
R"(            -
)"
R"(               depth: 1
)"
R"(               value: -5.0357336503298940e-02
)"
R"(            -
)"
R"(               depth: 1
)"
R"(               value: 3.0736026240649422e-01
)"
R"(      -
)"
R"(         nodes:
)"
R"(            -
)"
R"(               depth: 0
)"
R"(               value: 1.5390108352202954e-03
)"
R"(               splits:
)"
R"(                  - { var:2, quality:2.5624975562095642e-02,
)"
R"(                      le:8.6015295982360840e-01 }
)"
R"(            -
)"
R"(               depth: 1
)"
R"(               value: -1.7880534789773597e-01
)"
R"(            -
)"
R"(               depth: 1
)"
R"(               value: 1.4361502372101193e-01
)"
R"(      -
)"
R"(         nodes:
)"
R"(            -
)"
R"(               depth: 0
)"
R"(               value: -2.9273159135850027e-04
)"
R"(               splits:
)"
R"(                  - { var:2, quality:1.7470574006438255e-02,
)"
R"(                      le:9.6981400251388550e-01 }
)"
R"(            -
)"
R"(               depth: 1
)"
R"(               value: 6.8498269158985464e-02
)"
R"(            -
)"
R"(               depth: 1
)"
R"(               value: -2.5425745400191219e-01
)"
R"(      -
)"
R"(         nodes:
)"
R"(            -
)"
R"(               depth: 0
)"
R"(               value: -1.1007428396747000e-03
)"
R"(               splits:
)"
R"(                  - { var:4, quality:1.7380364239215851e-02,
)"
R"(                      le:1.3752975463867188e+00 }
)"
R"(            -
)"
R"(               depth: 1
)"
R"(               value: 2.2696330770528558e-02
)"
R"(            -
)"
R"(               depth: 1
)"
R"(               value: -7.3140704802017387e-01
)"
R"(      -
)"
R"(         nodes:
)"
R"(            -
)"
R"(               depth: 0
)"
R"(               value: -4.3795496799949266e-03
)"
R"(               splits:
)"
R"(                  - { var:0, quality:1.5714211389422417e-02,
)"
R"(                      le:3.3994503319263458e-02 }
)"
R"(            -
)"
R"(               depth: 1
)"
R"(               value: -4.8121128194582535e-01
)"
R"(            -
)"
R"(               depth: 1
)"
R"(               value: 2.8535688447350348e-02
)"
R"(      -
)"
R"(         nodes:
)"
R"(            -
)"
R"(               depth: 0
)"
R"(               value: -2.4676636840397521e-03
)"
R"(               splits:
)"
R"(                  - { var:16, quality:1.5425692312419415e-02,
)"
R"(                      le:-3.3247887360000000e+09 }
)"
R"(            -
)"
R"(               depth: 1
)"
R"(               value: 3.3127380698448494e-01
)"
R"(            -
)"
R"(               depth: 1
)"
R"(               value: -4.8669902914369866e-02
)"
R"(      -
)"
R"(         nodes:
)"
R"(            -
)"
R"(               depth: 0
)"
R"(               value: 1.4676795705253619e-03
)"
R"(               splits:
)"
R"(                  - { var:4, quality:1.5968810766935349e-02,
)"
R"(                      le:1.1376845836639404e+00 }
)"
R"(            -
)"
R"(               depth: 1
)"
R"(               value: -3.4231096179944499e-02
)"
R"(            -
)"
R"(               depth: 1
)"
R"(               value: 4.4872830692508736e-01
)"
R"(      -
)"
R"(         nodes:
)"
R"(            -
)"
R"(               depth: 0
)"
R"(               value: 2.2780598183591129e-03
)"
R"(               splits:
)"
R"(                  - { var:8, quality:1.7638249322772026e-02,
)"
R"(                      le:7.6721596717834473e-01 }
)"
R"(            -
)"
R"(               depth: 1
)"
R"(               value: 8.9822281324779124e-02
)"
R"(            -
)"
R"(               depth: 1
)"
R"(               value: -1.9914081787630222e-01
)"
R"(      -
)"
R"(         nodes:
)"
R"(            -
)"
R"(               depth: 0
)"
R"(               value: -6.3784744392769580e-04
)"
R"(               splits:
)"
R"(                  - { var:5, quality:1.9039873033761978e-02,
)"
R"(                      le:7.9227618873119354e-02 }
)"
R"(            -
)"
R"(               depth: 1
)"
R"(               value: -1.7837888305881372e-01
)"
R"(            -
)"
R"(               depth: 1
)"
R"(               value: 1.0648129110454259e-01
)"
R"(      -
)"
R"(         nodes:
)"
R"(            -
)"
R"(               depth: 0
)"
R"(               value: -4.6679907295570262e-04
)"
R"(               splits:
)"
R"(                  - { var:3, quality:1.9723916426301003e-02,
)"
R"(                      le:7.9500246047973633e-01 }
)"
R"(            -
)"
R"(               depth: 1
)"
R"(               value: -7.1479470925937802e-02
)"
R"(            -
)"
R"(               depth: 1
)"
R"(               value: 2.7728219869085396e-01
)"
R"(      -
)"
R"(         nodes:
)"
R"(            -
)"
R"(               depth: 0
)"
R"(               value: 1.3748677897801422e-03
)"
R"(               splits:
)"
R"(                  - { var:10, quality:1.5210169367492199e-02,
)"
R"(                      le:7.4807548522949219e-01 }
)"
R"(            -
)"
R"(               depth: 1
)"
R"(               value: 5.2577256795212537e-02
)"
R"(            -
)"
R"(               depth: 1
)"
R"(               value: -2.9564797480398880e-01
)"
R"(      -
)"
R"(         nodes:
)"
R"(            -
)"
R"(               depth: 0
)"
R"(               value: -1.2460051106684884e-03
)"
R"(               splits:
)"
R"(                  - { var:13, quality:1.6817448660731316e-02,
)"
R"(                      le:6.0474443435668945e+00 }
)"
R"(            -
)"
R"(               depth: 1
)"
R"(               value: -5.7185463492407079e-02
)"
R"(            -
)"
R"(               depth: 1
)"
R"(               value: 2.9936284619593156e-01
)"
R"(      -
)"
R"(         nodes:
)"
R"(            -
)"
R"(               depth: 0
)"
R"(               value: 1.3748700488148355e-03
)"
R"(               splits:
)"
R"(                  - { var:3, quality:1.5503340400755405e-02,
)"
R"(                      le:9.3348145484924316e-01 }
)"
R"(            -
)"
R"(               depth: 1
)"
R"(               value: 3.1985281786476590e-02
)"
R"(            -
)"
R"(               depth: 1
)"
R"(               value: -5.0503614509398076e-01
)"
R"(      -
)"
R"(         nodes:
)"
R"(            -
)"
R"(               depth: 0
)"
R"(               value: -2.5209459907310182e-03
)"
R"(               splits:
)"
R"(                  - { var:7, quality:1.5690820291638374e-02,
)"
R"(                      le:6.6049146652221680e-01 }
)"
R"(            -
)"
R"(               depth: 1
)"
R"(               value: 1.8968947756083127e-02
)"
R"(            -
)"
R"(               depth: 1
)"
R"(               value: -7.3237405121106947e-01
)"
R"(      -
)"
R"(         nodes:
)"
R"(            -
)"
R"(               depth: 0
)"
R"(               value: -3.9832155335084891e-03
)"
R"(               splits:
)"
R"(                  - { var:7, quality:1.7358075827360153e-02,
)"
R"(                      le:4.9120199680328369e-01 }
)"
R"(            -
)"
R"(               depth: 1
)"
R"(               value: -1.6097364479468954e-01
)"
R"(            -
)"
R"(               depth: 1
)"
R"(               value: 1.0648345659986783e-01
)"
R"(      -
)"
R"(         nodes:
)"
R"(            -
)"
R"(               depth: 0
)"
R"(               value: -3.4225177532189595e-04
)"
R"(               splits:
)"
R"(                  - { var:8, quality:1.8085487186908722e-02,
)"
R"(                      le:3.4696850180625916e-01 }
)"
R"(            -
)"
R"(               depth: 1
)"
R"(               value: 1.8756649326096703e-01
)"
R"(            -
)"
R"(               depth: 1
)"
R"(               value: -9.6587741189024426e-02
)"
R"(      -
)"
R"(         nodes:
)"
R"(            -
)"
R"(               depth: 0
)"
R"(               value: 5.5387941542143007e-04
)"
R"(               splits:
)"
R"(                  - { var:4, quality:1.3838773593306541e-02,
)"
R"(                      le:1.9298887252807617e-01 }
)"
R"(            -
)"
R"(               depth: 1
)"
R"(               value: -1.4098548530573166e-01
)"
R"(            -
)"
R"(               depth: 1
)"
R"(               value: 9.8325034722752905e-02
)"
R"(      -
)"
R"(         nodes:
)"
R"(            -
)"
R"(               depth: 0
)"
R"(               value: -1.9617022170542205e-04
)"
R"(               splits:
)"
R"(                  - { var:4, quality:1.8686680123209953e-02,
)"
R"(                      le:3.9440304040908813e-01 }
)"
R"(            -
)"
R"(               depth: 1
)"
R"(               value: 8.5841543175946083e-02
)"
R"(            -
)"
R"(               depth: 1
)"
R"(               value: -2.1738745886664340e-01
)"
R"(      -
)"
R"(         nodes:
)"
R"(            -
)"
R"(               depth: 0
)"
R"(               value: -8.3294881962231947e-04
)"
R"(               splits:
)"
R"(                  - { var:4, quality:1.8826689571142197e-02,
)"
R"(                      le:9.4021850824356079e-01 }
)"
R"(            -
)"
R"(               depth: 1
)"
R"(               value: -6.4469255285590346e-02
)"
R"(            -
)"
R"(               depth: 1
)"
R"(               value: 2.9500438637657339e-01
)"
R"(      -
)"
R"(         nodes:
)"
R"(            -
)"
R"(               depth: 0
)"
R"(               value: 1.4687259151151153e-03
)"
R"(               splits:
)"
R"(                  - { var:5, quality:1.7685558646917343e-02,
)"
R"(                      le:7.7748885154724121e+00 }
)"
R"(            -
)"
R"(               depth: 1
)"
R"(               value: 2.5404865932219446e-02
)"
R"(            -
)"
R"(               depth: 1
)"
R"(               value: -7.3730541648220160e-01
)"
R"(      -
)"
R"(         nodes:
)"
R"(            -
)"
R"(               depth: 0
)"
R"(               value: -4.4648379164842350e-03
)"
R"(               splits:
)"
R"(                  - { var:17, quality:1.4727640897035599e-02,
)"
R"(                      le:1.8458551168441772e-01 }
)"
R"(            -
)"
R"(               depth: 1
)"
R"(               value: -3.1627172620425532e-02
)"
R"(            -
)"
R"(               depth: 1
)"
R"(               value: 4.7965185974094499e-01
)"
R"(      -
)"
R"(         nodes:
)"
R"(            -
)"
R"(               depth: 0
)"
R"(               value: 2.0034388774892941e-03
)"
R"(               splits:
)"
R"(                  - { var:14, quality:1.4126264490187168e-02,
)"
R"(                      le:1.6037022500000000e+06 }
)"
R"(            -
)"
R"(               depth: 1
)"
R"(               value: -7.9716144064620353e-02
)"
R"(            -
)"
R"(               depth: 1
)"
R"(               value: 1.7481698027775389e-01
)"
R"(      -
)"
R"(         nodes:
)"
R"(            -
)"
R"(               depth: 0
)"
R"(               value: 4.6207307072871354e-04
)"
R"(               splits:
)"
R"(                  - { var:14, quality:1.4052550308406353e-02,
)"
R"(                      le:5.4779825000000000e+05 }
)"
R"(            -
)"
R"(               depth: 1
)"
R"(               value: 1.6916785609899737e-01
)"
R"(            -
)"
R"(               depth: 1
)"
R"(               value: -8.2832857297259449e-02
)"
R"(      -
)"
R"(         nodes:
)"
R"(            -
)"
R"(               depth: 0
)"
R"(               value: 4.1090967731063444e-04
)"
R"(               splits:
)"
R"(                  - { var:5, quality:1.2441786006093025e-02,
)"
R"(                      le:9.4313848018646240e-01 }
)"
R"(            -
)"
R"(               depth: 1
)"
R"(               value: -7.2699646179014629e-02
)"
R"(            -
)"
R"(               depth: 1
)"
R"(               value: 1.7058629500059175e-01
)"
R"(      -
)"
R"(         nodes:
)"
R"(            -
)"
R"(               depth: 0
)"
R"(               value: 4.1163653916534459e-04
)"
R"(               splits:
)"
R"(                  - { var:9, quality:1.6606435179710388e-02,
)"
R"(                      le:2.7171149849891663e-01 }
)"
R"(            -
)"
R"(               depth: 1
)"
R"(               value: 2.9287967807858667e-01
)"
R"(            -
)"
R"(               depth: 1
)"
R"(               value: -5.6368125229303200e-02
)"
R"(      -
)"
R"(         nodes:
)"
R"(            -
)"
R"(               depth: 0
)"
R"(               value: 1.3344502338572750e-03
)"
R"(               splits:
)"
R"(                  - { var:5, quality:1.6363030299544334e-02,
)"
R"(                      le:2.4837940931320190e-02 }
)"
R"(            -
)"
R"(               depth: 1
)"
R"(               value: -2.7235104790382153e-01
)"
R"(            -
)"
R"(               depth: 1
)"
R"(               value: 6.1115660070316415e-02
)"
R"(      -
)"
R"(         nodes:
)"
R"(            -
)"
R"(               depth: 0
)"
R"(               value: -1.1633633482028732e-03
)"
R"(               splits:
)"
R"(                  - { var:6, quality:1.4553822576999664e-02,
)"
R"(                      le:1.6449299454689026e-01 }
)"
R"(            -
)"
R"(               depth: 1
)"
R"(               value: 4.6548933653152702e-01
)"
R"(            -
)"
R"(               depth: 1
)"
R"(               value: -3.2348158203941296e-02
)"
R"(      -
)"
R"(         nodes:
)"
R"(            -
)"
R"(               depth: 0
)"
R"(               value: 2.1579424206822338e-03
)"
R"(               splits:
)"
R"(                  - { var:7, quality:1.5163536183536053e-02,
)"
R"(                      le:3.8003098964691162e-01 }
)"
R"(            -
)"
R"(               depth: 1
)"
R"(               value: -3.4257338637616935e-01
)"
R"(            -
)"
R"(               depth: 1
)"
R"(               value: 4.6130968661680601e-02
)"
R"(      -
)"
R"(         nodes:
)"
R"(            -
)"
R"(               depth: 0
)"
R"(               value: -1.5166640376712843e-03
)"
R"(               splits:
)"
R"(                  - { var:4, quality:1.5408904291689396e-02,
)"
R"(                      le:3.7648099660873413e-01 }
)"
R"(            -
)"
R"(               depth: 1
)"
R"(               value: 7.8668853164174934e-02
)"
R"(            -
)"
R"(               depth: 1
)"
R"(               value: -1.9365365469611259e-01
)"
R"(      -
)"
R"(         nodes:
)"
R"(            -
)"
R"(               depth: 0
)"
R"(               value: -6.0560403477957889e-04
)"
R"(               splits:
)"
R"(                  - { var:10, quality:1.1498914100229740e-02,
)"
R"(                      le:7.9607099294662476e-01 }
)"
R"(            -
)"
R"(               depth: 1
)"
R"(               value: 1.0965984315994354e-02
)"
R"(            -
)"
R"(               depth: 1
)"
R"(               value: -9.9429351002642163e-01
)"
R"(      -
)"
R"(         nodes:
)"
R"(            -
)"
R"(               depth: 0
)"
R"(               value: -4.1878533224875072e-03
)"
R"(               splits:
)"
R"(                  - { var:12, quality:1.1926464736461639e-02,
)"
R"(                      le:4.5996332168579102e+00 }
)"
R"(            -
)"
R"(               depth: 1
)"
R"(               value: -5.5851280283853305e-02
)"
R"(            -
)"
R"(               depth: 1
)"
R"(               value: 2.2632196345698138e-01
)"
R"(      -
)"
R"(         nodes:
)"
R"(            -
)"
R"(               depth: 0
)"
R"(               value: 6.6769712484283342e-04
)"
R"(               splits:
)"
R"(                  - { var:0, quality:1.3431414030492306e-02,
)"
R"(                      le:4.1941501200199127e-02 }
)"
R"(            -
)"
R"(               depth: 1
)"
R"(               value: -3.2559111892827330e-01
)"
R"(            -
)"
R"(               depth: 1
)"
R"(               value: 4.1834303423370793e-02
)"
R"(      -
)"
R"(         nodes:
)"
R"(            -
)"
R"(               depth: 0
)"
R"(               value: -1.2899670258697494e-03
)"
R"(               splits:
)"
R"(                  - { var:1, quality:1.2737562879920006e-02,
)"
R"(                      le:1.3982499949634075e-02 }
)"
R"(            -
)"
R"(               depth: 1
)"
R"(               value: 8.5883083232314861e-01
)"
R"(            -
)"
R"(               depth: 1
)"
R"(               value: -1.6097071600879431e-02
)"
R"(      -
)"
R"(         nodes:
)"
R"(            -
)"
R"(               depth: 0
)"
R"(               value: 3.8721047951208484e-03
)"
R"(               splits:
)"
R"(                  - { var:1, quality:1.7743675038218498e-02,
)"
R"(                      le:2.8898999094963074e-02 }
)"
R"(            -
)"
R"(               depth: 1
)"
R"(               value: -5.8924563381910600e-01
)"
R"(            -
)"
R"(               depth: 1
)"
R"(               value: 3.3762767090868048e-02
)"
R"(      -
)"
R"(         nodes:
)"
R"(            -
)"
R"(               depth: 0
)"
R"(               value: -3.4075251593838926e-03
)"
R"(               splits:
)"
R"(                  - { var:1, quality:1.3575533404946327e-02,
)"
R"(                      le:3.7893500179052353e-02 }
)"
R"(            -
)"
R"(               depth: 1
)"
R"(               value: 3.1925262755938966e-01
)"
R"(            -
)"
R"(               depth: 1
)"
R"(               value: -4.5445322098229386e-02
)"
R"(      -
)"
R"(         nodes:
)"
R"(            -
)"
R"(               depth: 0
)"
R"(               value: 1.2439616518301235e-03
)"
R"(               splits:
)"
R"(                  - { var:5, quality:1.3485627248883247e-02,
)"
R"(                      le:8.4729604423046112e-02 }
)"
R"(            -
)"
R"(               depth: 1
)"
R"(               value: -1.4396497267962735e-01
)"
R"(            -
)"
R"(               depth: 1
)"
R"(               value: 9.4103813395632965e-02
)"
R"(      -
)"
R"(         nodes:
)"
R"(            -
)"
R"(               depth: 0
)"
R"(               value: -2.2066573190906256e-04
)"
R"(               splits:
)"
R"(                  - { var:3, quality:1.1675487272441387e-02,
)"
R"(                      le:4.5115399360656738e-01 }
)"
R"(            -
)"
R"(               depth: 1
)"
R"(               value: -3.7805147575022174e-01
)"
R"(            -
)"
R"(               depth: 1
)"
R"(               value: 3.0680570002995823e-02
)"
R"(      -
)"
R"(         nodes:
)"
R"(            -
)"
R"(               depth: 0
)"
R"(               value: -1.3806497894124612e-03
)"
R"(               splits:
)"
R"(                  - { var:11, quality:1.3876941986382008e-02,
)"
R"(                      le:1.6500871181488037e+00 }
)"
R"(            -
)"
R"(               depth: 1
)"
R"(               value: 1.1095789901813377e-01
)"
R"(            -
)"
R"(               depth: 1
)"
R"(               value: -1.2489155636590105e-01
)"
R"(      -
)"
R"(         nodes:
)"
R"(            -
)"
R"(               depth: 0
)"
R"(               value: -7.1516044152331298e-05
)"
R"(               splits:
)"
R"(                  - { var:11, quality:1.2048145756125450e-02,
)"
R"(                      le:1.2141504287719727e+00 }
)"
R"(            -
)"
R"(               depth: 1
)"
R"(               value: -1.9813605013389371e-01
)"
R"(            -
)"
R"(               depth: 1
)"
R"(               value: 6.0757852077908001e-02
)"
R"(      -
)"
R"(         nodes:
)"
R"(            -
)"
R"(               depth: 0
)"
R"(               value: -5.5776597682460720e-04
)"
R"(               splits:
)"
R"(                  - { var:9, quality:1.3100238516926765e-02,
)"
R"(                      le:9.8743450641632080e-01 }
)"
R"(            -
)"
R"(               depth: 1
)"
R"(               value: -3.0284482400082541e-02
)"
R"(            -
)"
R"(               depth: 1
)"
R"(               value: 4.4012082983023471e-01
)"
R"(      -
)"
R"(         nodes:
)"
R"(            -
)"
R"(               depth: 0
)"
R"(               value: 1.8347697874944548e-03
)"
R"(               splits:
)"
R"(                  - { var:10, quality:9.4548678025603294e-03,
)"
R"(                      le:2.3408999666571617e-02 }
)"
R"(            -
)"
R"(               depth: 1
)"
R"(               value: -1.
)"
R"(            -
)"
R"(               depth: 1
)"
R"(               value: 1.1268961918137303e-02
)"
R"(      -
)"
R"(         nodes:
)"
R"(            -
)"
R"(               depth: 0
)"
R"(               value: -3.4520726107397956e-03
)"
R"(               splits:
)"
R"(                  - { var:1, quality:8.9330263435840607e-03,
)"
R"(                      le:3.5989999771118164e-02 }
)"
R"(            -
)"
R"(               depth: 1
)"
R"(               value: -3.2338747326440725e-01
)"
R"(            -
)"
R"(               depth: 1
)"
R"(               value: 2.4432024202936518e-02
)"
R"(      -
)"
R"(         nodes:
)"
R"(            -
)"
R"(               depth: 0
)"
R"(               value: -9.1294859979323495e-04
)"
R"(               splits:
)"
R"(                  - { var:1, quality:1.1524301953613758e-02,
)"
R"(                      le:1.3982499949634075e-02 }
)"
R"(            -
)"
R"(               depth: 1
)"
R"(               value: 8.0589922926602808e-01
)"
R"(            -
)"
R"(               depth: 1
)"
R"(               value: -1.5195663986252599e-02
)"
R"(      -
)"
R"(         nodes:
)"
R"(            -
)"
R"(               depth: 0
)"
R"(               value: 3.2573087676578800e-03
)"
R"(               splits:
)"
R"(                  - { var:7, quality:8.5309827700257301e-03,
)"
R"(                      le:5.4423046112060547e-01 }
)"
R"(            -
)"
R"(               depth: 1
)"
R"(               value: 3.6727509985258568e-02
)"
R"(            -
)"
R"(               depth: 1
)"
R"(               value: -2.5130861328755949e-01
)"
R"(      -
)"
R"(         nodes:
)"
R"(            -
)"
R"(               depth: 0
)"
R"(               value: -6.0668656141595870e-04
)"
R"(               splits:
)"
R"(                  - { var:12, quality:9.4262845814228058e-03,
)"
R"(                      le:2.2847764492034912e+00 }
)"
R"(            -
)"
R"(               depth: 1
)"
R"(               value: 2.1811113711376456e-01
)"
R"(            -
)"
R"(               depth: 1
)"
R"(               value: -4.3702928726407284e-02
)"
R"(      -
)"
R"(         nodes:
)"
R"(            -
)"
R"(               depth: 0
)"
R"(               value: 5.5141324975998488e-04
)"
R"(               splits:
)"
R"(                  - { var:2, quality:1.3796223327517509e-02,
)"
R"(                      le:9.0063345432281494e-01 }
)"
R"(            -
)"
R"(               depth: 1
)"
R"(               value: -1.0779155538452684e-01
)"
R"(            -
)"
R"(               depth: 1
)"
R"(               value: 1.2788703726625669e-01
)"
R"(      -
)"
R"(         nodes:
)"
R"(            -
)"
R"(               depth: 0
)"
R"(               value: 9.5873636945421409e-05
)"
R"(               splits:
)"
R"(                  - { var:10, quality:1.0105988010764122e-02,
)"
R"(                      le:7.4888449907302856e-01 }
)"
R"(            -
)"
R"(               depth: 1
)"
R"(               value: 4.0858213240617086e-02
)"
R"(            -
)"
R"(               depth: 1
)"
R"(               value: -2.4782852827988652e-01
)"
R"(      -
)"
R"(         nodes:
)"
R"(            -
)"
R"(               depth: 0
)"
R"(               value: -7.0490497294914249e-04
)"
R"(               splits:
)"
R"(                  - { var:5, quality:1.1583058163523674e-02,
)"
R"(                      le:2.4837940931320190e-02 }
)"
R"(            -
)"
R"(               depth: 1
)"
R"(               value: -2.4447242038947734e-01
)"
R"(            -
)"
R"(               depth: 1
)"
R"(               value: 4.6809882582183757e-02
)"
R"(      -
)"
R"(         nodes:
)"
R"(            -
)"
R"(               depth: 0
)"
R"(               value: -7.7516692024791583e-04
)"
R"(               splits:
)"
R"(                  - { var:8, quality:1.1652956716716290e-02,
)"
R"(                      le:3.5796651244163513e-01 }
)"
R"(            -
)"
R"(               depth: 1
)"
R"(               value: 1.5141125759284441e-01
)"
R"(            -
)"
R"(               depth: 1
)"
R"(               value: -7.7341494355633103e-02
)"
R"(      -
)"
R"(         nodes:
)"
R"(            -
)"
R"(               depth: 0
)"
R"(               value: 2.8719661778082615e-04
)"
R"(               splits:
)"
R"(                  - { var:16, quality:1.0177216492593288e-02,
)"
R"(                      le:7.2408005595207214e-02 }
)"
R"(            -
)"
R"(               depth: 1
)"
R"(               value: 4.5300164329176024e-02
)"
R"(            -
)"
R"(               depth: 1
)"
R"(               value: -2.4881605689175407e-01
)"
R"(      -
)"
R"(         nodes:
)"
R"(            -
)"
R"(               depth: 0
)"
R"(               value: -7.6882954002387204e-04
)"
R"(               splits:
)"
R"(                  - { var:2, quality:9.7179785370826721e-03,
)"
R"(                      le:9.9415749311447144e-01 }
)"
R"(            -
)"
R"(               depth: 1
)"
R"(               value: -1.4022264364277923e-02
)"
R"(            -
)"
R"(               depth: 1
)"
R"(               value: 7.3242884642079775e-01
)"
;
};