#include <string>

namespace mct
{
	static const std::string frame_boost_model = R"(%YAML:1.0
)"
R"(---
)"
R"(opencv_ml_boost:
)"
R"(   format: 3
)"
R"(   is_classifier: 1
)"
R"(   var_all: 6
)"
R"(   var_count: 5
)"
R"(   ord_var_count: 5
)"
R"(   cat_var_count: 1
)"
R"(   training_params:
)"
R"(      boosting_type: GentleAdaboost
)"
R"(      use_surrogates: 0
)"
R"(      max_categories: 10
)"
R"(      regression_accuracy: 9.9999997764825821e-03
)"
R"(      max_depth: 1
)"
R"(      min_sample_count: 10
)"
R"(      cross_validation_folds: 0
)"
R"(      weight_trimming_rate: 0.
)"
R"(   global_var_idx: 1
)"
R"(   var_idx: [ 0, 1, 2, 3, 4 ]
)"
R"(   var_type: [ 0, 0, 0, 0, 0, 1 ]
)"
R"(   cat_ofs: [ 0, 0, 0, 0, 0, 0, 0, 0, 0, 0 ]
)"
R"(   class_labels: [ 0, 1 ]
)"
R"(   missing_subst: [ 0., 0., 0., 0., 0., 0. ]
)"
R"(   ntrees: 100
)"
R"(   trees:
)"
R"(      -
)"
R"(         nodes:
)"
R"(            -
)"
R"(               depth: 0
)"
R"(               value: -8.4209063108145721e-01
)"
R"(               splits:
)"
R"(                  - { var:4, quality:9.9226778745651245e-01,
)"
R"(                      le:3.4163996577262878e-02 }
)"
R"(            -
)"
R"(               depth: 1
)"
R"(               value: -9.9788711137941444e-01
)"
R"(            -
)"
R"(               depth: 1
)"
R"(               value: 9.7535211267605704e-01
)"
R"(      -
)"
R"(         nodes:
)"
R"(            -
)"
R"(               depth: 0
)"
R"(               value: -8.2856173210470019e-01
)"
R"(               splits:
)"
R"(                  - { var:4, quality:9.6205973625183105e-01,
)"
R"(                      le:4.6542000025510788e-02 }
)"
R"(            -
)"
R"(               depth: 1
)"
R"(               value: -9.7925131717029945e-01
)"
R"(            -
)"
R"(               depth: 1
)"
R"(               value: 1.
)"
R"(      -
)"
R"(         nodes:
)"
R"(            -
)"
R"(               depth: 0
)"
R"(               value: -7.3029197639536403e-01
)"
R"(               splits:
)"
R"(                  - { var:3, quality:9.2879539728164673e-01,
)"
R"(                      le:9.6435502171516418e-02 }
)"
R"(            -
)"
R"(               depth: 1
)"
R"(               value: -9.8426116856506685e-01
)"
R"(            -
)"
R"(               depth: 1
)"
R"(               value: 8.2686147109861274e-01
)"
R"(      -
)"
R"(         nodes:
)"
R"(            -
)"
R"(               depth: 0
)"
R"(               value: -6.4754631110966188e-01
)"
R"(               splits:
)"
R"(                  - { var:3, quality:7.7078408002853394e-01,
)"
R"(                      le:4.4648498296737671e-02 }
)"
R"(            -
)"
R"(               depth: 1
)"
R"(               value: -1.
)"
R"(            -
)"
R"(               depth: 1
)"
R"(               value: 3.4965667617425944e-01
)"
R"(      -
)"
R"(         nodes:
)"
R"(            -
)"
R"(               depth: 0
)"
R"(               value: -5.1896241661000142e-01
)"
R"(               splits:
)"
R"(                  - { var:2, quality:6.5538495779037476e-01,
)"
R"(                      le:8.6644500494003296e-02 }
)"
R"(            -
)"
R"(               depth: 1
)"
R"(               value: -8.2923542999295030e-01
)"
R"(            -
)"
R"(               depth: 1
)"
R"(               value: 7.2530619985037759e-01
)"
R"(      -
)"
R"(         nodes:
)"
R"(            -
)"
R"(               depth: 0
)"
R"(               value: -2.2093650194407161e-01
)"
R"(               splits:
)"
R"(                  - { var:3, quality:4.6153646707534790e-01,
)"
R"(                      le:4.4648498296737671e-02 }
)"
R"(            -
)"
R"(               depth: 1
)"
R"(               value: -1.
)"
R"(            -
)"
R"(               depth: 1
)"
R"(               value: 3.0883229505736276e-01
)"
R"(      -
)"
R"(         nodes:
)"
R"(            -
)"
R"(               depth: 0
)"
R"(               value: -1.9998534450182084e-01
)"
R"(               splits:
)"
R"(                  - { var:3, quality:2.0832262933254242e-01,
)"
R"(                      le:4.4648498296737671e-02 }
)"
R"(            -
)"
R"(               depth: 1
)"
R"(               value: -1.
)"
R"(            -
)"
R"(               depth: 1
)"
R"(               value: 1.0421408730978332e-02
)"
R"(      -
)"
R"(         nodes:
)"
R"(            -
)"
R"(               depth: 0
)"
R"(               value: -8.8222219572450425e-02
)"
R"(               splits:
)"
R"(                  - { var:0, quality:2.0546920597553253e-01,
)"
R"(                      le:9.2577147483825684e-01 }
)"
R"(            -
)"
R"(               depth: 1
)"
R"(               value: 1.2859161806939759e-01
)"
R"(            -
)"
R"(               depth: 1
)"
R"(               value: -1.
)"
R"(      -
)"
R"(         nodes:
)"
R"(            -
)"
R"(               depth: 0
)"
R"(               value: -8.0402923879251825e-02
)"
R"(               splits:
)"
R"(                  - { var:0, quality:1.9237671792507172e-01,
)"
R"(                      le:9.2556595802307129e-01 }
)"
R"(            -
)"
R"(               depth: 1
)"
R"(               value: -3.8916374020773781e-01
)"
R"(            -
)"
R"(               depth: 1
)"
R"(               value: 5.2172040196668645e-01
)"
R"(      -
)"
R"(         nodes:
)"
R"(            -
)"
R"(               depth: 0
)"
R"(               value: 3.6741426919753620e-03
)"
R"(               splits:
)"
R"(                  - { var:0, quality:1.8054226040840149e-01,
)"
R"(                      le:9.2577147483825684e-01 }
)"
R"(            -
)"
R"(               depth: 1
)"
R"(               value: 1.8354204398210081e-01
)"
R"(            -
)"
R"(               depth: 1
)"
R"(               value: -1.
)"
R"(      -
)"
R"(         nodes:
)"
R"(            -
)"
R"(               depth: 0
)"
R"(               value: -6.0879932291387232e-02
)"
R"(               splits:
)"
R"(                  - { var:4, quality:1.9110594689846039e-01,
)"
R"(                      le:4.6542000025510788e-02 }
)"
R"(            -
)"
R"(               depth: 1
)"
R"(               value: -2.3752535746180609e-01
)"
R"(            -
)"
R"(               depth: 1
)"
R"(               value: 1.
)"
R"(      -
)"
R"(         nodes:
)"
R"(            -
)"
R"(               depth: 0
)"
R"(               value: 5.4968306224456726e-02
)"
R"(               splits:
)"
R"(                  - { var:0, quality:1.9479328393936157e-01,
)"
R"(                      le:1.3846001029014587e-01 }
)"
R"(            -
)"
R"(               depth: 1
)"
R"(               value: -1.
)"
R"(            -
)"
R"(               depth: 1
)"
R"(               value: 2.3674795375986860e-01
)"
R"(      -
)"
R"(         nodes:
)"
R"(            -
)"
R"(               depth: 0
)"
R"(               value: -5.6949071637804875e-02
)"
R"(               splits:
)"
R"(                  - { var:1, quality:1.7691056430339813e-01,
)"
R"(                      le:1.1635249853134155e-01 }
)"
R"(            -
)"
R"(               depth: 1
)"
R"(               value: -1.
)"
R"(            -
)"
R"(               depth: 1
)"
R"(               value: 1.2720574107168278e-01
)"
R"(      -
)"
R"(         nodes:
)"
R"(            -
)"
R"(               depth: 0
)"
R"(               value: -6.6888856469969046e-02
)"
R"(               splits:
)"
R"(                  - { var:1, quality:2.2041644155979156e-01,
)"
R"(                      le:8.8484370708465576e-01 }
)"
R"(            -
)"
R"(               depth: 1
)"
R"(               value: 1.6453300950963254e-01
)"
R"(            -
)"
R"(               depth: 1
)"
R"(               value: -1.
)"
R"(      -
)"
R"(         nodes:
)"
R"(            -
)"
R"(               depth: 0
)"
R"(               value: -8.3285572363791485e-02
)"
R"(               splits:
)"
R"(                  - { var:0, quality:1.4261342585086823e-01,
)"
R"(                      le:9.2577147483825684e-01 }
)"
R"(            -
)"
R"(               depth: 1
)"
R"(               value: 6.4717925844754776e-02
)"
R"(            -
)"
R"(               depth: 1
)"
R"(               value: -1.
)"
R"(      -
)"
R"(         nodes:
)"
R"(            -
)"
R"(               depth: 0
)"
R"(               value: -5.6089901191676270e-02
)"
R"(               splits:
)"
R"(                  - { var:0, quality:1.4056245982646942e-01,
)"
R"(                      le:9.2556595802307129e-01 }
)"
R"(            -
)"
R"(               depth: 1
)"
R"(               value: -2.7606639570484293e-01
)"
R"(            -
)"
R"(               depth: 1
)"
R"(               value: 5.6859675758945016e-01
)"
R"(      -
)"
R"(         nodes:
)"
R"(            -
)"
R"(               depth: 0
)"
R"(               value: 1.2156788635202668e-02
)"
R"(               splits:
)"
R"(                  - { var:0, quality:1.2309708446264267e-01,
)"
R"(                      le:9.2577147483825684e-01 }
)"
R"(            -
)"
R"(               depth: 1
)"
R"(               value: 1.3362936787226368e-01
)"
R"(            -
)"
R"(               depth: 1
)"
R"(               value: -1.
)"
R"(      -
)"
R"(         nodes:
)"
R"(            -
)"
R"(               depth: 0
)"
R"(               value: -4.1880273908031222e-02
)"
R"(               splits:
)"
R"(                  - { var:4, quality:1.4182147383689880e-01,
)"
R"(                      le:2.8612500056624413e-02 }
)"
R"(            -
)"
R"(               depth: 1
)"
R"(               value: -2.8251185234064929e-01
)"
R"(            -
)"
R"(               depth: 1
)"
R"(               value: 5.4020256699980462e-01
)"
R"(      -
)"
R"(         nodes:
)"
R"(            -
)"
R"(               depth: 0
)"
R"(               value: 1.1306067002854352e-02
)"
R"(               splits:
)"
R"(                  - { var:2, quality:1.6808210313320160e-01,
)"
R"(                      le:4.5028001070022583e-02 }
)"
R"(            -
)"
R"(               depth: 1
)"
R"(               value: 4.6358191010169336e-01
)"
R"(            -
)"
R"(               depth: 1
)"
R"(               value: -3.6004755068587907e-01
)"
R"(      -
)"
R"(         nodes:
)"
R"(            -
)"
R"(               depth: 0
)"
R"(               value: 7.2824608348653177e-03
)"
R"(               splits:
)"
R"(                  - { var:2, quality:1.9925870001316071e-01,
)"
R"(                      le:2.2404000163078308e-02 }
)"
R"(            -
)"
R"(               depth: 1
)"
R"(               value: -1.
)"
R"(            -
)"
R"(               depth: 1
)"
R"(               value: 2.0504790363074271e-01
)"
R"(      -
)"
R"(         nodes:
)"
R"(            -
)"
R"(               depth: 0
)"
R"(               value: -6.5978188908296376e-02
)"
R"(               splits:
)"
R"(                  - { var:0, quality:1.4637194573879242e-01,
)"
R"(                      le:1.3846001029014587e-01 }
)"
R"(            -
)"
R"(               depth: 1
)"
R"(               value: -1.
)"
R"(            -
)"
R"(               depth: 1
)"
R"(               value: 8.6072670046321589e-02
)"
R"(      -
)"
R"(         nodes:
)"
R"(            -
)"
R"(               depth: 0
)"
R"(               value: -5.6500922151978432e-02
)"
R"(               splits:
)"
R"(                  - { var:3, quality:1.6856728494167328e-01,
)"
R"(                      le:9.6435502171516418e-02 }
)"
R"(            -
)"
R"(               depth: 1
)"
R"(               value: -5.0934239699799555e-01
)"
R"(            -
)"
R"(               depth: 1
)"
R"(               value: 3.0869295977540578e-01
)"
R"(      -
)"
R"(         nodes:
)"
R"(            -
)"
R"(               depth: 0
)"
R"(               value: -1.6129631016005522e-02
)"
R"(               splits:
)"
R"(                  - { var:2, quality:1.4468978345394135e-01,
)"
R"(                      le:4.5028001070022583e-02 }
)"
R"(            -
)"
R"(               depth: 1
)"
R"(               value: 4.6109424293349821e-01
)"
R"(            -
)"
R"(               depth: 1
)"
R"(               value: -3.1877506019653606e-01
)"
R"(      -
)"
R"(         nodes:
)"
R"(            -
)"
R"(               depth: 0
)"
R"(               value: 6.7897133106317132e-03
)"
R"(               splits:
)"
R"(                  - { var:2, quality:1.5787582099437714e-01,
)"
R"(                      le:8.6644500494003296e-02 }
)"
R"(            -
)"
R"(               depth: 1
)"
R"(               value: -3.3203476821791117e-01
)"
R"(            -
)"
R"(               depth: 1
)"
R"(               value: 4.7260527926909929e-01
)"
R"(      -
)"
R"(         nodes:
)"
R"(            -
)"
R"(               depth: 0
)"
R"(               value: 8.7280104603801537e-03
)"
R"(               splits:
)"
R"(                  - { var:1, quality:1.5835298597812653e-01,
)"
R"(                      le:8.8484370708465576e-01 }
)"
R"(            -
)"
R"(               depth: 1
)"
R"(               value: 1.6563532245566073e-01
)"
R"(            -
)"
R"(               depth: 1
)"
R"(               value: -1.
)"
R"(      -
)"
R"(         nodes:
)"
R"(            -
)"
R"(               depth: 0
)"
R"(               value: -5.3386999741292650e-02
)"
R"(               splits:
)"
R"(                  - { var:1, quality:1.1427568644285202e-01,
)"
R"(                      le:1.1635249853134155e-01 }
)"
R"(            -
)"
R"(               depth: 1
)"
R"(               value: -1.
)"
R"(            -
)"
R"(               depth: 1
)"
R"(               value: 6.4322685205262922e-02
)"
R"(      -
)"
R"(         nodes:
)"
R"(            -
)"
R"(               depth: 0
)"
R"(               value: -4.3745855783374171e-02
)"
R"(               splits:
)"
R"(                  - { var:3, quality:1.2347859889268875e-01,
)"
R"(                      le:5.3911149501800537e-01 }
)"
R"(            -
)"
R"(               depth: 1
)"
R"(               value: 1.0068266739948381e-01
)"
R"(            -
)"
R"(               depth: 1
)"
R"(               value: -8.8544177935815382e-01
)"
R"(      -
)"
R"(         nodes:
)"
R"(            -
)"
R"(               depth: 0
)"
R"(               value: -3.9214950342722953e-02
)"
R"(               splits:
)"
R"(                  - { var:4, quality:1.0625589638948441e-01,
)"
R"(                      le:4.9499999731779099e-03 }
)"
R"(            -
)"
R"(               depth: 1
)"
R"(               value: 3.5660696095305083e-01
)"
R"(            -
)"
R"(               depth: 1
)"
R"(               value: -3.0377352725042051e-01
)"
R"(      -
)"
R"(         nodes:
)"
R"(            -
)"
R"(               depth: 0
)"
R"(               value: 5.0853101437026474e-04
)"
R"(               splits:
)"
R"(                  - { var:4, quality:1.9813254475593567e-01,
)"
R"(                      le:1.4564499258995056e-02 }
)"
R"(            -
)"
R"(               depth: 1
)"
R"(               value: -3.4919086222425377e-01
)"
R"(            -
)"
R"(               depth: 1
)"
R"(               value: 5.6708741145257158e-01
)"
R"(      -
)"
R"(         nodes:
)"
R"(            -
)"
R"(               depth: 0
)"
R"(               value: 1.6844412253228278e-02
)"
R"(               splits:
)"
R"(                  - { var:1, quality:1.3983862102031708e-01,
)"
R"(                      le:5.3674799203872681e-01 }
)"
R"(            -
)"
R"(               depth: 1
)"
R"(               value: 2.8566649808481709e-01
)"
R"(            -
)"
R"(               depth: 1
)"
R"(               value: -5.0229035912220243e-01
)"
R"(      -
)"
R"(         nodes:
)"
R"(            -
)"
R"(               depth: 0
)"
R"(               value: -1.0376592105992346e-02
)"
R"(               splits:
)"
R"(                  - { var:1, quality:1.2046769261360168e-01,
)"
R"(                      le:4.9296873807907104e-01 }
)"
R"(            -
)"
R"(               depth: 1
)"
R"(               value: -3.8979906425705596e-01
)"
R"(            -
)"
R"(               depth: 1
)"
R"(               value: 3.0684240529688622e-01
)"
R"(      -
)"
R"(         nodes:
)"
R"(            -
)"
R"(               depth: 0
)"
R"(               value: -4.0867566788277652e-03
)"
R"(               splits:
)"
R"(                  - { var:0, quality:1.1706229299306870e-01,
)"
R"(                      le:1.3846001029014587e-01 }
)"
R"(            -
)"
R"(               depth: 1
)"
R"(               value: -1.
)"
R"(            -
)"
R"(               depth: 1
)"
R"(               value: 1.1343913266575012e-01
)"
R"(      -
)"
R"(         nodes:
)"
R"(            -
)"
R"(               depth: 0
)"
R"(               value: -4.1395662872964645e-02
)"
R"(               splits:
)"
R"(                  - { var:1, quality:1.2416929751634598e-01,
)"
R"(                      le:8.8484370708465576e-01 }
)"
R"(            -
)"
R"(               depth: 1
)"
R"(               value: 8.6348069567362670e-02
)"
R"(            -
)"
R"(               depth: 1
)"
R"(               value: -1.
)"
R"(      -
)"
R"(         nodes:
)"
R"(            -
)"
R"(               depth: 0
)"
R"(               value: -4.6694179146873821e-02
)"
R"(               splits:
)"
R"(                  - { var:0, quality:1.2146959453821182e-01,
)"
R"(                      le:6.7226374149322510e-01 }
)"
R"(            -
)"
R"(               depth: 1
)"
R"(               value: 3.0862459187541130e-01
)"
R"(            -
)"
R"(               depth: 1
)"
R"(               value: -3.8241876617233100e-01
)"
R"(      -
)"
R"(         nodes:
)"
R"(            -
)"
R"(               depth: 0
)"
R"(               value: -5.2493509408452835e-03
)"
R"(               splits:
)"
R"(                  - { var:3, quality:1.2362984567880630e-01,
)"
R"(                      le:4.4648498296737671e-02 }
)"
R"(            -
)"
R"(               depth: 1
)"
R"(               value: -1.
)"
R"(            -
)"
R"(               depth: 1
)"
R"(               value: 1.1900519416496205e-01
)"
R"(      -
)"
R"(         nodes:
)"
R"(            -
)"
R"(               depth: 0
)"
R"(               value: -4.3692073451640875e-02
)"
R"(               splits:
)"
R"(                  - { var:4, quality:1.7008250951766968e-01,
)"
R"(                      le:1.0105000110343099e-03 }
)"
R"(            -
)"
R"(               depth: 1
)"
R"(               value: 6.7421294758692651e-01
)"
R"(            -
)"
R"(               depth: 1
)"
R"(               value: -2.7794801101735578e-01
)"
R"(      -
)"
R"(         nodes:
)"
R"(            -
)"
R"(               depth: 0
)"
R"(               value: 2.2972324395225723e-02
)"
R"(               splits:
)"
R"(                  - { var:2, quality:1.0986588895320892e-01,
)"
R"(                      le:2.2404000163078308e-02 }
)"
R"(            -
)"
R"(               depth: 1
)"
R"(               value: -1.
)"
R"(            -
)"
R"(               depth: 1
)"
R"(               value: 1.2985513981043609e-01
)"
R"(      -
)"
R"(         nodes:
)"
R"(            -
)"
R"(               depth: 0
)"
R"(               value: -3.6608712672207971e-02
)"
R"(               splits:
)"
R"(                  - { var:3, quality:9.9341988563537598e-02,
)"
R"(                      le:9.6435502171516418e-02 }
)"
R"(            -
)"
R"(               depth: 1
)"
R"(               value: -4.3307726546930997e-01
)"
R"(            -
)"
R"(               depth: 1
)"
R"(               value: 2.1057808829549371e-01
)"
R"(      -
)"
R"(         nodes:
)"
R"(            -
)"
R"(               depth: 0
)"
R"(               value: -9.1394572922314267e-03
)"
R"(               splits:
)"
R"(                  - { var:2, quality:1.5600596368312836e-01,
)"
R"(                      le:4.5028001070022583e-02 }
)"
R"(            -
)"
R"(               depth: 1
)"
R"(               value: 5.0714366543319100e-01
)"
R"(            -
)"
R"(               depth: 1
)"
R"(               value: -3.1114900289307040e-01
)"
R"(      -
)"
R"(         nodes:
)"
R"(            -
)"
R"(               depth: 0
)"
R"(               value: 1.0963637503865207e-02
)"
R"(               splits:
)"
R"(                  - { var:2, quality:2.0664827525615692e-01,
)"
R"(                      le:8.6644500494003296e-02 }
)"
R"(            -
)"
R"(               depth: 1
)"
R"(               value: -3.7373236989235953e-01
)"
R"(            -
)"
R"(               depth: 1
)"
R"(               value: 5.4782411094417449e-01
)"
R"(      -
)"
R"(         nodes:
)"
R"(            -
)"
R"(               depth: 0
)"
R"(               value: 1.4926823100427115e-02
)"
R"(               splits:
)"
R"(                  - { var:4, quality:1.3707403838634491e-01,
)"
R"(                      le:4.9499999731779099e-03 }
)"
R"(            -
)"
R"(               depth: 1
)"
R"(               value: 4.6098124768502069e-01
)"
R"(            -
)"
R"(               depth: 1
)"
R"(               value: -2.9187706406408787e-01
)"
R"(      -
)"
R"(         nodes:
)"
R"(            -
)"
R"(               depth: 0
)"
R"(               value: 9.3033313606760114e-03
)"
R"(               splits:
)"
R"(                  - { var:4, quality:1.1684889346361160e-01,
)"
R"(                      le:3.0062999576330185e-02 }
)"
R"(            -
)"
R"(               depth: 1
)"
R"(               value: -2.2405596791043128e-01
)"
R"(            -
)"
R"(               depth: 1
)"
R"(               value: 5.0965769351444912e-01
)"
R"(      -
)"
R"(         nodes:
)"
R"(            -
)"
R"(               depth: 0
)"
R"(               value: 1.2606876448350294e-02
)"
R"(               splits:
)"
R"(                  - { var:1, quality:1.2589347362518311e-01,
)"
R"(                      le:8.8484370708465576e-01 }
)"
R"(            -
)"
R"(               depth: 1
)"
R"(               value: 1.3677603655011633e-01
)"
R"(            -
)"
R"(               depth: 1
)"
R"(               value: -1.
)"
R"(      -
)"
R"(         nodes:
)"
R"(            -
)"
R"(               depth: 0
)"
R"(               value: -4.2730038253915005e-02
)"
R"(               splits:
)"
R"(                  - { var:3, quality:1.0439634323120117e-01,
)"
R"(                      le:4.4648498296737671e-02 }
)"
R"(            -
)"
R"(               depth: 1
)"
R"(               value: -1.
)"
R"(            -
)"
R"(               depth: 1
)"
R"(               value: 6.4418930466530980e-02
)"
R"(      -
)"
R"(         nodes:
)"
R"(            -
)"
R"(               depth: 0
)"
R"(               value: -3.9542153574391704e-02
)"
R"(               splits:
)"
R"(                  - { var:3, quality:1.1227832734584808e-01,
)"
R"(                      le:7.8769552707672119e-01 }
)"
R"(            -
)"
R"(               depth: 1
)"
R"(               value: 8.5158643365393749e-02
)"
R"(            -
)"
R"(               depth: 1
)"
R"(               value: -9.2738525146865725e-01
)"
R"(      -
)"
R"(         nodes:
)"
R"(            -
)"
R"(               depth: 0
)"
R"(               value: -3.8057212948219427e-02
)"
R"(               splits:
)"
R"(                  - { var:0, quality:1.0955023765563965e-01,
)"
R"(                      le:1.3846001029014587e-01 }
)"
R"(            -
)"
R"(               depth: 1
)"
R"(               value: -1.
)"
R"(            -
)"
R"(               depth: 1
)"
R"(               value: 7.4321493726010407e-02
)"
R"(      -
)"
R"(         nodes:
)"
R"(            -
)"
R"(               depth: 0
)"
R"(               value: -4.1184400652143349e-02
)"
R"(               splits:
)"
R"(                  - { var:2, quality:1.2558889389038086e-01,
)"
R"(                      le:4.5028001070022583e-02 }
)"
R"(            -
)"
R"(               depth: 1
)"
R"(               value: 4.3979021196400764e-01
)"
R"(            -
)"
R"(               depth: 1
)"
R"(               value: -2.9877126527020598e-01
)"
R"(      -
)"
R"(         nodes:
)"
R"(            -
)"
R"(               depth: 0
)"
R"(               value: 4.5356334997477959e-03
)"
R"(               splits:
)"
R"(                  - { var:4, quality:1.4235621690750122e-01,
)"
R"(                      le:1.4564499258995056e-02 }
)"
R"(            -
)"
R"(               depth: 1
)"
R"(               value: -3.4943386845728447e-01
)"
R"(            -
)"
R"(               depth: 1
)"
R"(               value: 4.0664838149442450e-01
)"
R"(      -
)"
R"(         nodes:
)"
R"(            -
)"
R"(               depth: 0
)"
R"(               value: 3.2515118837372239e-03
)"
R"(               splits:
)"
R"(                  - { var:1, quality:1.1624828726053238e-01,
)"
R"(                      le:5.3674799203872681e-01 }
)"
R"(            -
)"
R"(               depth: 1
)"
R"(               value: 2.5812196573395840e-01
)"
R"(            -
)"
R"(               depth: 1
)"
R"(               value: -4.5281436607530101e-01
)"
R"(      -
)"
R"(         nodes:
)"
R"(            -
)"
R"(               depth: 0
)"
R"(               value: -8.1120034580718266e-03
)"
R"(               splits:
)"
R"(                  - { var:0, quality:9.7033247351646423e-02,
)"
R"(                      le:9.2577147483825684e-01 }
)"
R"(            -
)"
R"(               depth: 1
)"
R"(               value: 8.9648474835711436e-02
)"
R"(            -
)"
R"(               depth: 1
)"
R"(               value: -1.
)"
R"(      -
)"
R"(         nodes:
)"
R"(            -
)"
R"(               depth: 0
)"
R"(               value: -3.4893176585654224e-02
)"
R"(               splits:
)"
R"(                  - { var:3, quality:1.3142050802707672e-01,
)"
R"(                      le:9.6435502171516418e-02 }
)"
R"(            -
)"
R"(               depth: 1
)"
R"(               value: -4.2119885202526353e-01
)"
R"(            -
)"
R"(               depth: 1
)"
R"(               value: 3.0215332665465161e-01
)"
R"(      -
)"
R"(         nodes:
)"
R"(            -
)"
R"(               depth: 0
)"
R"(               value: -7.3587666379011972e-03
)"
R"(               splits:
)"
R"(                  - { var:0, quality:1.5134091675281525e-01,
)"
R"(                      le:9.2556595802307129e-01 }
)"
R"(            -
)"
R"(               depth: 1
)"
R"(               value: -2.4405926486116386e-01
)"
R"(            -
)"
R"(               depth: 1
)"
R"(               value: 6.3178972431042402e-01
)"
R"(      -
)"
R"(         nodes:
)"
R"(            -
)"
R"(               depth: 0
)"
R"(               value: 2.1862024544174064e-02
)"
R"(               splits:
)"
R"(                  - { var:2, quality:1.2572664022445679e-01,
)"
R"(                      le:8.6644500494003296e-02 }
)"
R"(            -
)"
R"(               depth: 1
)"
R"(               value: -2.7522925432039885e-01
)"
R"(            -
)"
R"(               depth: 1
)"
R"(               value: 4.4344523491033777e-01
)"
R"(      -
)"
R"(         nodes:
)"
R"(            -
)"
R"(               depth: 0
)"
R"(               value: 8.7152976594300907e-03
)"
R"(               splits:
)"
R"(                  - { var:2, quality:1.3614226877689362e-01,
)"
R"(                      le:4.5028001070022583e-02 }
)"
R"(            -
)"
R"(               depth: 1
)"
R"(               value: 4.4783849932904840e-01
)"
R"(            -
)"
R"(               depth: 1
)"
R"(               value: -3.0114377186940378e-01
)"
R"(      -
)"
R"(         nodes:
)"
R"(            -
)"
R"(               depth: 0
)"
R"(               value: 7.8028416604763806e-03
)"
R"(               splits:
)"
R"(                  - { var:2, quality:1.1980136483907700e-01,
)"
R"(                      le:2.2404000163078308e-02 }
)"
R"(            -
)"
R"(               depth: 1
)"
R"(               value: -1.
)"
R"(            -
)"
R"(               depth: 1
)"
R"(               value: 1.2661623666004343e-01
)"
R"(      -
)"
R"(         nodes:
)"
R"(            -
)"
R"(               depth: 0
)"
R"(               value: -4.1236311934397495e-02
)"
R"(               splits:
)"
R"(                  - { var:4, quality:1.0054250061511993e-01,
)"
R"(                      le:4.6542000025510788e-02 }
)"
R"(            -
)"
R"(               depth: 1
)"
R"(               value: -1.3616391565790342e-01
)"
R"(            -
)"
R"(               depth: 1
)"
R"(               value: 1.
)"
R"(      -
)"
R"(         nodes:
)"
R"(            -
)"
R"(               depth: 0
)"
R"(               value: 3.1922475664216764e-02
)"
R"(               splits:
)"
R"(                  - { var:0, quality:8.7837055325508118e-02,
)"
R"(                      le:9.2577147483825684e-01 }
)"
R"(            -
)"
R"(               depth: 1
)"
R"(               value: 1.1605477859624455e-01
)"
R"(            -
)"
R"(               depth: 1
)"
R"(               value: -1.
)"
R"(      -
)"
R"(         nodes:
)"
R"(            -
)"
R"(               depth: 0
)"
R"(               value: -2.8802107826084420e-02
)"
R"(               splits:
)"
R"(                  - { var:3, quality:1.1193455010652542e-01,
)"
R"(                      le:9.6435502171516418e-02 }
)"
R"(            -
)"
R"(               depth: 1
)"
R"(               value: -3.9803026774630595e-01
)"
R"(            -
)"
R"(               depth: 1
)"
R"(               value: 2.7210936700128596e-01
)"
R"(      -
)"
R"(         nodes:
)"
R"(            -
)"
R"(               depth: 0
)"
R"(               value: -6.2203660859066314e-03
)"
R"(               splits:
)"
R"(                  - { var:0, quality:1.6181094944477081e-01,
)"
R"(                      le:9.2556595802307129e-01 }
)"
R"(            -
)"
R"(               depth: 1
)"
R"(               value: -2.4072120321762158e-01
)"
R"(            -
)"
R"(               depth: 1
)"
R"(               value: 6.8363752447076620e-01
)"
R"(      -
)"
R"(         nodes:
)"
R"(            -
)"
R"(               depth: 0
)"
R"(               value: 2.7216148344871984e-02
)"
R"(               splits:
)"
R"(                  - { var:3, quality:1.1425064504146576e-01,
)"
R"(                      le:5.3911149501800537e-01 }
)"
R"(            -
)"
R"(               depth: 1
)"
R"(               value: 1.6047291555050619e-01
)"
R"(            -
)"
R"(               depth: 1
)"
R"(               value: -8.2459747077536250e-01
)"
R"(      -
)"
R"(         nodes:
)"
R"(            -
)"
R"(               depth: 0
)"
R"(               value: -2.7656501104822106e-02
)"
R"(               splits:
)"
R"(                  - { var:4, quality:1.0356207191944122e-01,
)"
R"(                      le:2.8612500056624413e-02 }
)"
R"(            -
)"
R"(               depth: 1
)"
R"(               value: -2.3880688895891025e-01
)"
R"(            -
)"
R"(               depth: 1
)"
R"(               value: 4.5918698278017173e-01
)"
R"(      -
)"
R"(         nodes:
)"
R"(            -
)"
R"(               depth: 0
)"
R"(               value: 7.1716817261456255e-03
)"
R"(               splits:
)"
R"(                  - { var:4, quality:1.3823790848255157e-01,
)"
R"(                      le:4.9499999731779099e-03 }
)"
R"(            -
)"
R"(               depth: 1
)"
R"(               value: 5.0632830938438589e-01
)"
R"(            -
)"
R"(               depth: 1
)"
R"(               value: -2.6966823652338479e-01
)"
R"(      -
)"
R"(         nodes:
)"
R"(            -
)"
R"(               depth: 0
)"
R"(               value: 1.2507293826661055e-02
)"
R"(               splits:
)"
R"(                  - { var:3, quality:1.3982516527175903e-01,
)"
R"(                      le:9.6435502171516418e-02 }
)"
R"(            -
)"
R"(               depth: 1
)"
R"(               value: -4.8245724542074553e-01
)"
R"(            -
)"
R"(               depth: 1
)"
R"(               value: 2.9468656626611867e-01
)"
R"(      -
)"
R"(         nodes:
)"
R"(            -
)"
R"(               depth: 0
)"
R"(               value: -9.0945998465427579e-03
)"
R"(               splits:
)"
R"(                  - { var:2, quality:1.3094033300876617e-01,
)"
R"(                      le:8.6644500494003296e-02 }
)"
R"(            -
)"
R"(               depth: 1
)"
R"(               value: -2.8176993523447058e-01
)"
R"(            -
)"
R"(               depth: 1
)"
R"(               value: 4.7080806176483553e-01
)"
R"(      -
)"
R"(         nodes:
)"
R"(            -
)"
R"(               depth: 0
)"
R"(               value: 8.6850399979673323e-03
)"
R"(               splits:
)"
R"(                  - { var:4, quality:1.9163113832473755e-01,
)"
R"(                      le:4.9499999731779099e-03 }
)"
R"(            -
)"
R"(               depth: 1
)"
R"(               value: 5.1153392176587209e-01
)"
R"(            -
)"
R"(               depth: 1
)"
R"(               value: -3.7225586233506064e-01
)"
R"(      -
)"
R"(         nodes:
)"
R"(            -
)"
R"(               depth: 0
)"
R"(               value: 1.0922064256084128e-02
)"
R"(               splits:
)"
R"(                  - { var:2, quality:9.0706266462802887e-02,
)"
R"(                      le:8.6644500494003296e-02 }
)"
R"(            -
)"
R"(               depth: 1
)"
R"(               value: -2.4683808738346444e-01
)"
R"(            -
)"
R"(               depth: 1
)"
R"(               value: 3.6236109025387114e-01
)"
R"(      -
)"
R"(         nodes:
)"
R"(            -
)"
R"(               depth: 0
)"
R"(               value: 4.0792418319524201e-03
)"
R"(               splits:
)"
R"(                  - { var:0, quality:1.3493499159812927e-01,
)"
R"(                      le:9.2556595802307129e-01 }
)"
R"(            -
)"
R"(               depth: 1
)"
R"(               value: -2.1180326689665341e-01
)"
R"(            -
)"
R"(               depth: 1
)"
R"(               value: 6.2904120768007377e-01
)"
R"(      -
)"
R"(         nodes:
)"
R"(            -
)"
R"(               depth: 0
)"
R"(               value: 2.1345961113912282e-02
)"
R"(               splits:
)"
R"(                  - { var:0, quality:1.1166724562644958e-01,
)"
R"(                      le:9.2577147483825684e-01 }
)"
R"(            -
)"
R"(               depth: 1
)"
R"(               value: 1.3023325612594530e-01
)"
R"(            -
)"
R"(               depth: 1
)"
R"(               value: -1.
)"
R"(      -
)"
R"(         nodes:
)"
R"(            -
)"
R"(               depth: 0
)"
R"(               value: -3.7336305410436241e-02
)"
R"(               splits:
)"
R"(                  - { var:3, quality:1.5738347172737122e-01,
)"
R"(                      le:9.6435502171516418e-02 }
)"
R"(            -
)"
R"(               depth: 1
)"
R"(               value: -4.8376144296045936e-01
)"
R"(            -
)"
R"(               depth: 1
)"
R"(               value: 3.1208279325495530e-01
)"
R"(      -
)"
R"(         nodes:
)"
R"(            -
)"
R"(               depth: 0
)"
R"(               value: -1.2228560970122008e-02
)"
R"(               splits:
)"
R"(                  - { var:4, quality:1.3514819741249084e-01,
)"
R"(                      le:1.0105000110343099e-03 }
)"
R"(            -
)"
R"(               depth: 1
)"
R"(               value: 6.3180141569545700e-01
)"
R"(            -
)"
R"(               depth: 1
)"
R"(               value: -2.2184405033767668e-01
)"
R"(      -
)"
R"(         nodes:
)"
R"(            -
)"
R"(               depth: 0
)"
R"(               value: 2.0189142572804072e-02
)"
R"(               splits:
)"
R"(                  - { var:3, quality:1.0929862409830093e-01,
)"
R"(                      le:4.4648498296737671e-02 }
)"
R"(            -
)"
R"(               depth: 1
)"
R"(               value: -1.
)"
R"(            -
)"
R"(               depth: 1
)"
R"(               value: 1.2692525361150972e-01
)"
R"(      -
)"
R"(         nodes:
)"
R"(            -
)"
R"(               depth: 0
)"
R"(               value: -3.6690824376380091e-02
)"
R"(               splits:
)"
R"(                  - { var:3, quality:9.7685597836971283e-02,
)"
R"(                      le:7.8769552707672119e-01 }
)"
R"(            -
)"
R"(               depth: 1
)"
R"(               value: 7.9288091905223762e-02
)"
R"(            -
)"
R"(               depth: 1
)"
R"(               value: -8.6735369570998355e-01
)"
R"(      -
)"
R"(         nodes:
)"
R"(            -
)"
R"(               depth: 0
)"
R"(               value: -3.0316024531385426e-02
)"
R"(               splits:
)"
R"(                  - { var:0, quality:1.0251794010400772e-01,
)"
R"(                      le:1.3846001029014587e-01 }
)"
R"(            -
)"
R"(               depth: 1
)"
R"(               value: -1.
)"
R"(            -
)"
R"(               depth: 1
)"
R"(               value: 7.4459221462774325e-02
)"
R"(      -
)"
R"(         nodes:
)"
R"(            -
)"
R"(               depth: 0
)"
R"(               value: -3.8199648904259947e-02
)"
R"(               splits:
)"
R"(                  - { var:3, quality:1.0985960066318512e-01,
)"
R"(                      le:9.6435502171516418e-02 }
)"
R"(            -
)"
R"(               depth: 1
)"
R"(               value: -4.5342977480645413e-01
)"
R"(            -
)"
R"(               depth: 1
)"
R"(               value: 2.2286133578392875e-01
)"
R"(      -
)"
R"(         nodes:
)"
R"(            -
)"
R"(               depth: 0
)"
R"(               value: -1.0571791987764742e-02
)"
R"(               splits:
)"
R"(                  - { var:4, quality:1.3233388960361481e-01,
)"
R"(                      le:1.0105000110343099e-03 }
)"
R"(            -
)"
R"(               depth: 1
)"
R"(               value: 7.0108461544679379e-01
)"
R"(            -
)"
R"(               depth: 1
)"
R"(               value: -1.9636667890954099e-01
)"
R"(      -
)"
R"(         nodes:
)"
R"(            -
)"
R"(               depth: 0
)"
R"(               value: 2.4761583834372328e-02
)"
R"(               splits:
)"
R"(                  - { var:0, quality:1.5567596256732941e-01,
)"
R"(                      le:8.4469521045684814e-01 }
)"
R"(            -
)"
R"(               depth: 1
)"
R"(               value: 3.2620838846910810e-01
)"
R"(            -
)"
R"(               depth: 1
)"
R"(               value: -4.8963374386722341e-01
)"
R"(      -
)"
R"(         nodes:
)"
R"(            -
)"
R"(               depth: 0
)"
R"(               value: -8.0927580134316970e-03
)"
R"(               splits:
)"
R"(                  - { var:0, quality:1.1261067539453506e-01,
)"
R"(                      le:9.2556595802307129e-01 }
)"
R"(            -
)"
R"(               depth: 1
)"
R"(               value: -1.7671085048738969e-01
)"
R"(            -
)"
R"(               depth: 1
)"
R"(               value: 6.5936338018436758e-01
)"
R"(      -
)"
R"(         nodes:
)"
R"(            -
)"
R"(               depth: 0
)"
R"(               value: 1.9866845842154701e-02
)"
R"(               splits:
)"
R"(                  - { var:3, quality:1.2481943517923355e-01,
)"
R"(                      le:9.6435502171516418e-02 }
)"
R"(            -
)"
R"(               depth: 1
)"
R"(               value: -4.6592154340831976e-01
)"
R"(            -
)"
R"(               depth: 1
)"
R"(               value: 2.7599636371046293e-01
)"
R"(      -
)"
R"(         nodes:
)"
R"(            -
)"
R"(               depth: 0
)"
R"(               value: -7.7750701984178258e-03
)"
R"(               splits:
)"
R"(                  - { var:0, quality:1.0712943226099014e-01,
)"
R"(                      le:9.2577147483825684e-01 }
)"
R"(            -
)"
R"(               depth: 1
)"
R"(               value: 1.0013290229374314e-01
)"
R"(            -
)"
R"(               depth: 1
)"
R"(               value: -1.
)"
R"(      -
)"
R"(         nodes:
)"
R"(            -
)"
R"(               depth: 0
)"
R"(               value: -3.8332243215048752e-02
)"
R"(               splits:
)"
R"(                  - { var:0, quality:1.0016231238842010e-01,
)"
R"(                      le:1.3846001029014587e-01 }
)"
R"(            -
)"
R"(               depth: 1
)"
R"(               value: -1.
)"
R"(            -
)"
R"(               depth: 1
)"
R"(               value: 6.4294626518851525e-02
)"
R"(      -
)"
R"(         nodes:
)"
R"(            -
)"
R"(               depth: 0
)"
R"(               value: -3.7766054880761582e-02
)"
R"(               splits:
)"
R"(                  - { var:0, quality:8.6386889219284058e-02,
)"
R"(                      le:9.2556595802307129e-01 }
)"
R"(            -
)"
R"(               depth: 1
)"
R"(               value: -1.8183821369788172e-01
)"
R"(            -
)"
R"(               depth: 1
)"
R"(               value: 5.5194270334143236e-01
)"
R"(      -
)"
R"(         nodes:
)"
R"(            -
)"
R"(               depth: 0
)"
R"(               value: 1.0192501124495932e-02
)"
R"(               splits:
)"
R"(                  - { var:0, quality:1.6204094886779785e-01,
)"
R"(                      le:8.4516954421997070e-01 }
)"
R"(            -
)"
R"(               depth: 1
)"
R"(               value: 3.2178744183695090e-01
)"
R"(            -
)"
R"(               depth: 1
)"
R"(               value: -5.0951125112071849e-01
)"
R"(      -
)"
R"(         nodes:
)"
R"(            -
)"
R"(               depth: 0
)"
R"(               value: -1.0867979293181798e-02
)"
R"(               splits:
)"
R"(                  - { var:1, quality:1.0454087704420090e-01,
)"
R"(                      le:8.8484370708465576e-01 }
)"
R"(            -
)"
R"(               depth: 1
)"
R"(               value: 9.4702118639055990e-02
)"
R"(            -
)"
R"(               depth: 1
)"
R"(               value: -1.
)"
R"(      -
)"
R"(         nodes:
)"
R"(            -
)"
R"(               depth: 0
)"
R"(               value: -3.7670631143682874e-02
)"
R"(               splits:
)"
R"(                  - { var:1, quality:9.4335533678531647e-02,
)"
R"(                      le:1.1635249853134155e-01 }
)"
R"(            -
)"
R"(               depth: 1
)"
R"(               value: -1.
)"
R"(            -
)"
R"(               depth: 1
)"
R"(               value: 5.8883061601339555e-02
)"
R"(      -
)"
R"(         nodes:
)"
R"(            -
)"
R"(               depth: 0
)"
R"(               value: -3.5590569507779446e-02
)"
R"(               splits:
)"
R"(                  - { var:2, quality:7.5869642198085785e-02,
)"
R"(                      le:2.2623499855399132e-02 }
)"
R"(            -
)"
R"(               depth: 1
)"
R"(               value: 4.7767801822432782e-01
)"
R"(            -
)"
R"(               depth: 1
)"
R"(               value: -1.8093933442765422e-01
)"
R"(      -
)"
R"(         nodes:
)"
R"(            -
)"
R"(               depth: 0
)"
R"(               value: 6.9322960826526279e-03
)"
R"(               splits:
)"
R"(                  - { var:2, quality:1.1892009526491165e-01,
)"
R"(                      le:8.6644500494003296e-02 }
)"
R"(            -
)"
R"(               depth: 1
)"
R"(               value: -2.7888041226471372e-01
)"
R"(            -
)"
R"(               depth: 1
)"
R"(               value: 4.2284115441700926e-01
)"
R"(      -
)"
R"(         nodes:
)"
R"(            -
)"
R"(               depth: 0
)"
R"(               value: 6.5324731780889520e-03
)"
R"(               splits:
)"
R"(                  - { var:1, quality:1.0952131450176239e-01,
)"
R"(                      le:5.3674799203872681e-01 }
)"
R"(            -
)"
R"(               depth: 1
)"
R"(               value: 2.4169231314640252e-01
)"
R"(            -
)"
R"(               depth: 1
)"
R"(               value: -4.5901741892091241e-01
)"
R"(      -
)"
R"(         nodes:
)"
R"(            -
)"
R"(               depth: 0
)"
R"(               value: -8.3808270610584157e-03
)"
R"(               splits:
)"
R"(                  - { var:2, quality:1.1356157064437866e-01,
)"
R"(                      le:2.2404000163078308e-02 }
)"
R"(            -
)"
R"(               depth: 1
)"
R"(               value: -1.
)"
R"(            -
)"
R"(               depth: 1
)"
R"(               value: 1.0606969558642081e-01
)"
R"(      -
)"
R"(         nodes:
)"
R"(            -
)"
R"(               depth: 0
)"
R"(               value: -4.0567953488966704e-02
)"
R"(               splits:
)"
R"(                  - { var:3, quality:7.6430521905422211e-02,
)"
R"(                      le:4.4648498296737671e-02 }
)"
R"(            -
)"
R"(               depth: 1
)"
R"(               value: -1.
)"
R"(            -
)"
R"(               depth: 1
)"
R"(               value: 3.7378955014500996e-02
)"
R"(      -
)"
R"(         nodes:
)"
R"(            -
)"
R"(               depth: 0
)"
R"(               value: -2.9022987854800928e-02
)"
R"(               splits:
)"
R"(                  - { var:4, quality:1.2731817364692688e-01,
)"
R"(                      le:4.9499999731779099e-03 }
)"
R"(            -
)"
R"(               depth: 1
)"
R"(               value: 4.7444662163837309e-01
)"
R"(            -
)"
R"(               depth: 1
)"
R"(               value: -2.8023148821895405e-01
)"
R"(      -
)"
R"(         nodes:
)"
R"(            -
)"
R"(               depth: 0
)"
R"(               value: 7.6968506858784572e-03
)"
R"(               splits:
)"
R"(                  - { var:4, quality:1.5138751268386841e-01,
)"
R"(                      le:3.0062999576330185e-02 }
)"
R"(            -
)"
R"(               depth: 1
)"
R"(               value: -2.5513756817736816e-01
)"
R"(            -
)"
R"(               depth: 1
)"
R"(               value: 5.8345202155247189e-01
)"
R"(      -
)"
R"(         nodes:
)"
R"(            -
)"
R"(               depth: 0
)"
R"(               value: 1.9187882033081468e-02
)"
R"(               splits:
)"
R"(                  - { var:0, quality:1.0157672315835953e-01,
)"
R"(                      le:9.2577147483825684e-01 }
)"
R"(            -
)"
R"(               depth: 1
)"
R"(               value: 1.1849101204037736e-01
)"
R"(            -
)"
R"(               depth: 1
)"
R"(               value: -1.
)"
R"(      -
)"
R"(         nodes:
)"
R"(            -
)"
R"(               depth: 0
)"
R"(               value: -3.4300660407714588e-02
)"
R"(               splits:
)"
R"(                  - { var:3, quality:1.1483393609523773e-01,
)"
R"(                      le:9.6435502171516418e-02 }
)"
R"(            -
)"
R"(               depth: 1
)"
R"(               value: -4.5377709477312306e-01
)"
R"(            -
)"
R"(               depth: 1
)"
R"(               value: 2.3664996755261364e-01
)"
R"(      -
)"
R"(         nodes:
)"
R"(            -
)"
R"(               depth: 0
)"
R"(               value: -1.0398909096152662e-02
)"
R"(               splits:
)"
R"(                  - { var:4, quality:1.3219559192657471e-01,
)"
R"(                      le:1.0105000110343099e-03 }
)"
R"(            -
)"
R"(               depth: 1
)"
R"(               value: 6.8934844335905077e-01
)"
R"(            -
)"
R"(               depth: 1
)"
R"(               value: -1.9916340561741852e-01
)"
R"(      -
)"
R"(         nodes:
)"
R"(            -
)"
R"(               depth: 0
)"
R"(               value: 2.3973107649037418e-02
)"
R"(               splits:
)"
R"(                  - { var:0, quality:1.1222630739212036e-01,
)"
R"(                      le:6.1028420925140381e-01 }
)"
R"(            -
)"
R"(               depth: 1
)"
R"(               value: 3.1044969796037297e-01
)"
R"(            -
)"
R"(               depth: 1
)"
R"(               value: -3.6576762547606539e-01
)"
R"(      -
)"
R"(         nodes:
)"
R"(            -
)"
R"(               depth: 0
)"
R"(               value: -1.2727586301287551e-03
)"
R"(               splits:
)"
R"(                  - { var:0, quality:9.5179840922355652e-02,
)"
R"(                      le:9.2556595802307129e-01 }
)"
R"(            -
)"
R"(               depth: 1
)"
R"(               value: -1.4535437435774479e-01
)"
R"(            -
)"
R"(               depth: 1
)"
R"(               value: 6.5931269157968841e-01
)"
R"(      -
)"
R"(         nodes:
)"
R"(            -
)"
R"(               depth: 0
)"
R"(               value: 1.7951873282052316e-02
)"
R"(               splits:
)"
R"(                  - { var:3, quality:1.2627951800823212e-01,
)"
R"(                      le:9.6435502171516418e-02 }
)"
R"(            -
)"
R"(               depth: 1
)"
R"(               value: -4.9685309161179236e-01
)"
R"(            -
)"
R"(               depth: 1
)"
R"(               value: 2.6262171699219383e-01
)"
R"(      -
)"
R"(         nodes:
)"
R"(            -
)"
R"(               depth: 0
)"
R"(               value: -1.0041540930725882e-02
)"
R"(               splits:
)"
R"(                  - { var:2, quality:1.1715694516897202e-01,
)"
R"(                      le:8.6644500494003296e-02 }
)"
R"(            -
)"
R"(               depth: 1
)"
R"(               value: -2.6339003418531209e-01
)"
R"(            -
)"
R"(               depth: 1
)"
R"(               value: 4.5199441229542064e-01
)"
R"(      -
)"
R"(         nodes:
)"
R"(            -
)"
R"(               depth: 0
)"
R"(               value: 7.6279913108323882e-03
)"
R"(               splits:
)"
R"(                  - { var:4, quality:1.8217158317565918e-01,
)"
R"(                      le:4.9499999731779099e-03 }
)"
R"(            -
)"
R"(               depth: 1
)"
R"(               value: 4.8536914951127219e-01
)"
R"(            -
)"
R"(               depth: 1
)"
R"(               value: -3.7356880745963716e-01
)"
R"(      -
)"
R"(         nodes:
)"
R"(            -
)"
R"(               depth: 0
)"
R"(               value: 8.3105222041723516e-03
)"
R"(               splits:
)"
R"(                  - { var:3, quality:1.1413676291704178e-01,
)"
R"(                      le:7.8769552707672119e-01 }
)"
R"(            -
)"
R"(               depth: 1
)"
R"(               value: 1.4225933663245638e-01
)"
R"(            -
)"
R"(               depth: 1
)"
R"(               value: -8.4326624407831685e-01
)"
;
};