#include <string>

namespace mct
{
	static const std::string frame_boost_model = R"(%YAML:1.0
)"
R"(---
)"
R"(opencv_ml_boost:
)"
R"(   format: 3
)"
R"(   is_classifier: 1
)"
R"(   var_all: 9
)"
R"(   var_count: 8
)"
R"(   ord_var_count: 8
)"
R"(   cat_var_count: 1
)"
R"(   training_params:
)"
R"(      boosting_type: GentleAdaboost
)"
R"(      use_surrogates: 0
)"
R"(      max_categories: 10
)"
R"(      regression_accuracy: 9.9999997764825821e-03
)"
R"(      max_depth: 1
)"
R"(      min_sample_count: 10
)"
R"(      cross_validation_folds: 0
)"
R"(      weight_trimming_rate: 0.
)"
R"(   global_var_idx: 1
)"
R"(   var_idx: [ 0, 1, 2, 3, 4, 5, 6, 7 ]
)"
R"(   var_type: [ 0, 0, 0, 0, 0, 0, 0, 0, 1 ]
)"
R"(   cat_ofs: [ 0, 0, 0, 0, 0, 0, 0, 0, 0, 0, 0, 0, 0, 0, 0, 0 ]
)"
R"(   class_labels: [ 0, 1 ]
)"
R"(   missing_subst: [ 0., 0., 0., 0., 0., 0., 0., 0., 0. ]
)"
R"(   ntrees: 100
)"
R"(   trees:
)"
R"(      -
)"
R"(         nodes:
)"
R"(            -
)"
R"(               depth: 0
)"
R"(               value: -7.0734744707347452e-01
)"
R"(               splits:
)"
R"(                  - { var:6, quality:9.8638409376144409e-01,
)"
R"(                      le:3.4163996577262878e-02 }
)"
R"(            -
)"
R"(               depth: 1
)"
R"(               value: -9.9562522785271601e-01
)"
R"(            -
)"
R"(               depth: 1
)"
R"(               value: 9.7867803837953093e-01
)"
R"(      -
)"
R"(         nodes:
)"
R"(            -
)"
R"(               depth: 0
)"
R"(               value: -6.8628980115225757e-01
)"
R"(               splits:
)"
R"(                  - { var:6, quality:9.2594599723815918e-01,
)"
R"(                      le:4.6542000025510788e-02 }
)"
R"(            -
)"
R"(               depth: 1
)"
R"(               value: -9.5608466781449952e-01
)"
R"(            -
)"
R"(               depth: 1
)"
R"(               value: 1.
)"
R"(      -
)"
R"(         nodes:
)"
R"(            -
)"
R"(               depth: 0
)"
R"(               value: -5.2847117238966479e-01
)"
R"(               splits:
)"
R"(                  - { var:5, quality:8.7757688760757446e-01,
)"
R"(                      le:9.6435502171516418e-02 }
)"
R"(            -
)"
R"(               depth: 1
)"
R"(               value: -9.6401296606501674e-01
)"
R"(            -
)"
R"(               depth: 1
)"
R"(               value: 8.4520900540534594e-01
)"
R"(      -
)"
R"(         nodes:
)"
R"(            -
)"
R"(               depth: 0
)"
R"(               value: -4.2819980438568128e-01
)"
R"(               splits:
)"
R"(                  - { var:5, quality:6.7823594808578491e-01,
)"
R"(                      le:4.4648498296737671e-02 }
)"
R"(            -
)"
R"(               depth: 1
)"
R"(               value: -1.
)"
R"(            -
)"
R"(               depth: 1
)"
R"(               value: 4.3727884304997611e-01
)"
R"(      -
)"
R"(         nodes:
)"
R"(            -
)"
R"(               depth: 0
)"
R"(               value: -3.6277395254678502e-01
)"
R"(               splits:
)"
R"(                  - { var:7, quality:5.9031075239181519e-01,
)"
R"(                      le:5.0000000000000000e-01 }
)"
R"(            -
)"
R"(               depth: 1
)"
R"(               value: -7.3052945948066161e-01
)"
R"(            -
)"
R"(               depth: 1
)"
R"(               value: 8.8453796686723374e-01
)"
R"(      -
)"
R"(         nodes:
)"
R"(            -
)"
R"(               depth: 0
)"
R"(               value: -7.4533911077185114e-02
)"
R"(               splits:
)"
R"(                  - { var:5, quality:3.9908805489540100e-01,
)"
R"(                      le:4.4648498296737671e-02 }
)"
R"(            -
)"
R"(               depth: 1
)"
R"(               value: -1.
)"
R"(            -
)"
R"(               depth: 1
)"
R"(               value: 3.5069265258451360e-01
)"
R"(      -
)"
R"(         nodes:
)"
R"(            -
)"
R"(               depth: 0
)"
R"(               value: -1.3971740223696852e-01
)"
R"(               splits:
)"
R"(                  - { var:0, quality:3.6493250727653503e-01,
)"
R"(                      le:9.1418850421905518e-01 }
)"
R"(            -
)"
R"(               depth: 1
)"
R"(               value: -5.1041826780077482e-01
)"
R"(            -
)"
R"(               depth: 1
)"
R"(               value: 7.9206233248559166e-01
)"
R"(      -
)"
R"(         nodes:
)"
R"(            -
)"
R"(               depth: 0
)"
R"(               value: 2.2114578985424408e-02
)"
R"(               splits:
)"
R"(                  - { var:2, quality:3.3158677816390991e-01,
)"
R"(                      le:9.3694353103637695e-01 }
)"
R"(            -
)"
R"(               depth: 1
)"
R"(               value: 3.6779270817799203e-01
)"
R"(            -
)"
R"(               depth: 1
)"
R"(               value: -9.3570627363824621e-01
)"
R"(      -
)"
R"(         nodes:
)"
R"(            -
)"
R"(               depth: 0
)"
R"(               value: -8.2659970776056219e-02
)"
R"(               splits:
)"
R"(                  - { var:4, quality:2.9829201102256775e-01,
)"
R"(                      le:1.3942950963973999e-01 }
)"
R"(            -
)"
R"(               depth: 1
)"
R"(               value: -4.2995085843236275e-01
)"
R"(            -
)"
R"(               depth: 1
)"
R"(               value: 7.5657695773632205e-01
)"
R"(      -
)"
R"(         nodes:
)"
R"(            -
)"
R"(               depth: 0
)"
R"(               value: 3.0683301351788667e-02
)"
R"(               splits:
)"
R"(                  - { var:5, quality:2.3206864297389984e-01,
)"
R"(                      le:4.4648498296737671e-02 }
)"
R"(            -
)"
R"(               depth: 1
)"
R"(               value: -1.
)"
R"(            -
)"
R"(               depth: 1
)"
R"(               value: 2.5492986156774877e-01
)"
R"(      -
)"
R"(         nodes:
)"
R"(            -
)"
R"(               depth: 0
)"
R"(               value: -7.1136763501073896e-02
)"
R"(               splits:
)"
R"(                  - { var:2, quality:2.1022638678550720e-01,
)"
R"(                      le:2.0926249027252197e-01 }
)"
R"(            -
)"
R"(               depth: 1
)"
R"(               value: -1.
)"
R"(            -
)"
R"(               depth: 1
)"
R"(               value: 1.4974177116719564e-01
)"
R"(      -
)"
R"(         nodes:
)"
R"(            -
)"
R"(               depth: 0
)"
R"(               value: -8.0243023201967564e-02
)"
R"(               splits:
)"
R"(                  - { var:4, quality:1.9259393215179443e-01,
)"
R"(                      le:4.5067001134157181e-02 }
)"
R"(            -
)"
R"(               depth: 1
)"
R"(               value: 3.7056452973761389e-01
)"
R"(            -
)"
R"(               depth: 1
)"
R"(               value: -4.9317974226447242e-01
)"
R"(      -
)"
R"(         nodes:
)"
R"(            -
)"
R"(               depth: 0
)"
R"(               value: -1.4644134876167858e-02
)"
R"(               splits:
)"
R"(                  - { var:4, quality:2.4794530868530273e-01,
)"
R"(                      le:2.2315498441457748e-02 }
)"
R"(            -
)"
R"(               depth: 1
)"
R"(               value: -1.
)"
R"(            -
)"
R"(               depth: 1
)"
R"(               value: 2.3676844759215904e-01
)"
R"(      -
)"
R"(         nodes:
)"
R"(            -
)"
R"(               depth: 0
)"
R"(               value: -8.3922927369918049e-02
)"
R"(               splits:
)"
R"(                  - { var:4, quality:1.8734993040561676e-01,
)"
R"(                      le:2.5063699483871460e-01 }
)"
R"(            -
)"
R"(               depth: 1
)"
R"(               value: -2.6256907138156671e-01
)"
R"(            -
)"
R"(               depth: 1
)"
R"(               value: 9.2537330030719533e-01
)"
R"(      -
)"
R"(         nodes:
)"
R"(            -
)"
R"(               depth: 0
)"
R"(               value: 4.2706172374654024e-02
)"
R"(               splits:
)"
R"(                  - { var:3, quality:1.6469614207744598e-01,
)"
R"(                      le:1.6975599527359009e-01 }
)"
R"(            -
)"
R"(               depth: 1
)"
R"(               value: -1.
)"
R"(            -
)"
R"(               depth: 1
)"
R"(               value: 1.9890772020998004e-01
)"
R"(      -
)"
R"(         nodes:
)"
R"(            -
)"
R"(               depth: 0
)"
R"(               value: -5.0695198149110610e-02
)"
R"(               splits:
)"
R"(                  - { var:2, quality:1.9828180968761444e-01,
)"
R"(                      le:9.3833202123641968e-01 }
)"
R"(            -
)"
R"(               depth: 1
)"
R"(               value: 1.7591136924834019e-01
)"
R"(            -
)"
R"(               depth: 1
)"
R"(               value: -9.1435860901157684e-01
)"
R"(      -
)"
R"(         nodes:
)"
R"(            -
)"
R"(               depth: 0
)"
R"(               value: -6.3604340020762262e-02
)"
R"(               splits:
)"
R"(                  - { var:0, quality:1.8291069567203522e-01,
)"
R"(                      le:9.1418850421905518e-01 }
)"
R"(            -
)"
R"(               depth: 1
)"
R"(               value: -2.8165209667893976e-01
)"
R"(            -
)"
R"(               depth: 1
)"
R"(               value: 7.5669845443799133e-01
)"
R"(      -
)"
R"(         nodes:
)"
R"(            -
)"
R"(               depth: 0
)"
R"(               value: 2.9109830288660415e-02
)"
R"(               splits:
)"
R"(                  - { var:6, quality:1.8336151540279388e-01,
)"
R"(                      le:3.0062999576330185e-02 }
)"
R"(            -
)"
R"(               depth: 1
)"
R"(               value: -2.4515810632842688e-01
)"
R"(            -
)"
R"(               depth: 1
)"
R"(               value: 6.9456907964395098e-01
)"
R"(      -
)"
R"(         nodes:
)"
R"(            -
)"
R"(               depth: 0
)"
R"(               value: 3.4137997567947963e-02
)"
R"(               splits:
)"
R"(                  - { var:3, quality:2.6898115873336792e-01,
)"
R"(                      le:5.6323248147964478e-01 }
)"
R"(            -
)"
R"(               depth: 1
)"
R"(               value: 5.2489190721314527e-01
)"
R"(            -
)"
R"(               depth: 1
)"
R"(               value: -5.1158510958697656e-01
)"
R"(      -
)"
R"(         nodes:
)"
R"(            -
)"
R"(               depth: 0
)"
R"(               value: 5.1343620459804330e-03
)"
R"(               splits:
)"
R"(                  - { var:5, quality:2.0502093434333801e-01,
)"
R"(                      le:1.0899399966001511e-01 }
)"
R"(            -
)"
R"(               depth: 1
)"
R"(               value: -4.9325355911438667e-01
)"
R"(            -
)"
R"(               depth: 1
)"
R"(               value: 4.1644966050802318e-01
)"
R"(      -
)"
R"(         nodes:
)"
R"(            -
)"
R"(               depth: 0
)"
R"(               value: -5.7296667535584721e-03
)"
R"(               splits:
)"
R"(                  - { var:2, quality:1.4664912223815918e-01,
)"
R"(                      le:2.0926249027252197e-01 }
)"
R"(            -
)"
R"(               depth: 1
)"
R"(               value: -1.
)"
R"(            -
)"
R"(               depth: 1
)"
R"(               value: 1.4173152419207855e-01
)"
R"(      -
)"
R"(         nodes:
)"
R"(            -
)"
R"(               depth: 0
)"
R"(               value: -5.1327299549533772e-02
)"
R"(               splits:
)"
R"(                  - { var:2, quality:1.8177773058414459e-01,
)"
R"(                      le:9.4673252105712891e-01 }
)"
R"(            -
)"
R"(               depth: 1
)"
R"(               value: 1.9120402065261743e-01
)"
R"(            -
)"
R"(               depth: 1
)"
R"(               value: -7.8996689028268752e-01
)"
R"(      -
)"
R"(         nodes:
)"
R"(            -
)"
R"(               depth: 0
)"
R"(               value: -4.6234310492173317e-02
)"
R"(               splits:
)"
R"(                  - { var:4, quality:1.4740692079067230e-01,
)"
R"(                      le:2.2315498441457748e-02 }
)"
R"(            -
)"
R"(               depth: 1
)"
R"(               value: -1.
)"
R"(            -
)"
R"(               depth: 1
)"
R"(               value: 1.0607700113138215e-01
)"
R"(      -
)"
R"(         nodes:
)"
R"(            -
)"
R"(               depth: 0
)"
R"(               value: -5.5407575622796995e-02
)"
R"(               splits:
)"
R"(                  - { var:3, quality:1.4427070319652557e-01,
)"
R"(                      le:1.6975599527359009e-01 }
)"
R"(            -
)"
R"(               depth: 1
)"
R"(               value: -1.
)"
R"(            -
)"
R"(               depth: 1
)"
R"(               value: 9.4075623844390499e-02
)"
R"(      -
)"
R"(         nodes:
)"
R"(            -
)"
R"(               depth: 0
)"
R"(               value: -5.4982600176467285e-02
)"
R"(               splits:
)"
R"(                  - { var:6, quality:1.3959345221519470e-01,
)"
R"(                      le:4.6542000025510788e-02 }
)"
R"(            -
)"
R"(               depth: 1
)"
R"(               value: -1.8443531541283720e-01
)"
R"(            -
)"
R"(               depth: 1
)"
R"(               value: 1.
)"
R"(      -
)"
R"(         nodes:
)"
R"(            -
)"
R"(               depth: 0
)"
R"(               value: 4.1870742964235867e-02
)"
R"(               splits:
)"
R"(                  - { var:6, quality:1.8966260552406311e-01,
)"
R"(                      le:4.9499999731779099e-03 }
)"
R"(            -
)"
R"(               depth: 1
)"
R"(               value: 5.3520199489490405e-01
)"
R"(            -
)"
R"(               depth: 1
)"
R"(               value: -3.3902838113017586e-01
)"
R"(      -
)"
R"(         nodes:
)"
R"(            -
)"
R"(               depth: 0
)"
R"(               value: 1.7221982290313541e-02
)"
R"(               splits:
)"
R"(                  - { var:5, quality:1.8229249119758606e-01,
)"
R"(                      le:4.4648498296737671e-02 }
)"
R"(            -
)"
R"(               depth: 1
)"
R"(               value: -1.
)"
R"(            -
)"
R"(               depth: 1
)"
R"(               value: 1.9613661196230081e-01
)"
R"(      -
)"
R"(         nodes:
)"
R"(            -
)"
R"(               depth: 0
)"
R"(               value: -5.9486084546201363e-02
)"
R"(               splits:
)"
R"(                  - { var:6, quality:1.6203330457210541e-01,
)"
R"(                      le:2.4850999936461449e-02 }
)"
R"(            -
)"
R"(               depth: 1
)"
R"(               value: -3.6321675128901865e-01
)"
R"(            -
)"
R"(               depth: 1
)"
R"(               value: 4.6234042791659824e-01
)"
R"(      -
)"
R"(         nodes:
)"
R"(            -
)"
R"(               depth: 0
)"
R"(               value: 2.3498249217932679e-03
)"
R"(               splits:
)"
R"(                  - { var:5, quality:1.7819710075855255e-01,
)"
R"(                      le:3.5049802064895630e-01 }
)"
R"(            -
)"
R"(               depth: 1
)"
R"(               value: 2.4167130870311354e-01
)"
R"(            -
)"
R"(               depth: 1
)"
R"(               value: -7.4222009687809032e-01
)"
R"(      -
)"
R"(         nodes:
)"
R"(            -
)"
R"(               depth: 0
)"
R"(               value: -3.4884751578517163e-02
)"
R"(               splits:
)"
R"(                  - { var:0, quality:1.5136972069740295e-01,
)"
R"(                      le:9.1418850421905518e-01 }
)"
R"(            -
)"
R"(               depth: 1
)"
R"(               value: -2.1852900118120133e-01
)"
R"(            -
)"
R"(               depth: 1
)"
R"(               value: 7.8274377742106815e-01
)"
R"(      -
)"
R"(         nodes:
)"
R"(            -
)"
R"(               depth: 0
)"
R"(               value: 3.0924992050855877e-02
)"
R"(               splits:
)"
R"(                  - { var:5, quality:1.8194609880447388e-01,
)"
R"(                      le:9.6435502171516418e-02 }
)"
R"(            -
)"
R"(               depth: 1
)"
R"(               value: -5.4123949037498631e-01
)"
R"(            -
)"
R"(               depth: 1
)"
R"(               value: 3.4724967906514292e-01
)"
R"(      -
)"
R"(         nodes:
)"
R"(            -
)"
R"(               depth: 0
)"
R"(               value: -1.1367644445098999e-02
)"
R"(               splits:
)"
R"(                  - { var:2, quality:1.3463556766510010e-01,
)"
R"(                      le:2.0926249027252197e-01 }
)"
R"(            -
)"
R"(               depth: 1
)"
R"(               value: -1.
)"
R"(            -
)"
R"(               depth: 1
)"
R"(               value: 1.2468530028381852e-01
)"
R"(      -
)"
R"(         nodes:
)"
R"(            -
)"
R"(               depth: 0
)"
R"(               value: -4.7927059443465411e-02
)"
R"(               splits:
)"
R"(                  - { var:0, quality:1.8009674549102783e-01,
)"
R"(                      le:6.0675650835037231e-01 }
)"
R"(            -
)"
R"(               depth: 1
)"
R"(               value: 4.2658981411304353e-01
)"
R"(            -
)"
R"(               depth: 1
)"
R"(               value: -4.2262342602996422e-01
)"
R"(      -
)"
R"(         nodes:
)"
R"(            -
)"
R"(               depth: 0
)"
R"(               value: -2.9648120634675505e-03
)"
R"(               splits:
)"
R"(                  - { var:6, quality:2.1779684722423553e-01,
)"
R"(                      le:1.0164999403059483e-03 }
)"
R"(            -
)"
R"(               depth: 1
)"
R"(               value: 7.2330484664278083e-01
)"
R"(            -
)"
R"(               depth: 1
)"
R"(               value: -3.0283698687444999e-01
)"
R"(      -
)"
R"(         nodes:
)"
R"(            -
)"
R"(               depth: 0
)"
R"(               value: 3.6603846737785078e-02
)"
R"(               splits:
)"
R"(                  - { var:5, quality:1.6425368189811707e-01,
)"
R"(                      le:4.4648498296737671e-02 }
)"
R"(            -
)"
R"(               depth: 1
)"
R"(               value: -1.
)"
R"(            -
)"
R"(               depth: 1
)"
R"(               value: 1.9376497972511489e-01
)"
R"(      -
)"
R"(         nodes:
)"
R"(            -
)"
R"(               depth: 0
)"
R"(               value: -5.1446161526687684e-02
)"
R"(               splits:
)"
R"(                  - { var:3, quality:1.2474959343671799e-01,
)"
R"(                      le:9.3527352809906006e-01 }
)"
R"(            -
)"
R"(               depth: 1
)"
R"(               value: -2.1893808492114214e-01
)"
R"(            -
)"
R"(               depth: 1
)"
R"(               value: 6.7756146539884166e-01
)"
R"(      -
)"
R"(         nodes:
)"
R"(            -
)"
R"(               depth: 0
)"
R"(               value: 1.8681449915371195e-02
)"
R"(               splits:
)"
R"(                  - { var:3, quality:1.8725724518299103e-01,
)"
R"(                      le:6.0993146896362305e-01 }
)"
R"(            -
)"
R"(               depth: 1
)"
R"(               value: 3.8719039723207282e-01
)"
R"(            -
)"
R"(               depth: 1
)"
R"(               value: -4.8851994285997252e-01
)"
R"(      -
)"
R"(         nodes:
)"
R"(            -
)"
R"(               depth: 0
)"
R"(               value: -5.9573937229097131e-03
)"
R"(               splits:
)"
R"(                  - { var:6, quality:1.3735109567642212e-01,
)"
R"(                      le:2.4850999936461449e-02 }
)"
R"(            -
)"
R"(               depth: 1
)"
R"(               value: -2.6737893123626649e-01
)"
R"(            -
)"
R"(               depth: 1
)"
R"(               value: 5.1930769995077675e-01
)"
R"(      -
)"
R"(         nodes:
)"
R"(            -
)"
R"(               depth: 0
)"
R"(               value: 1.2556629094270116e-02
)"
R"(               splits:
)"
R"(                  - { var:4, quality:2.5648099184036255e-01,
)"
R"(                      le:4.5067001134157181e-02 }
)"
R"(            -
)"
R"(               depth: 1
)"
R"(               value: 5.9242126064058254e-01
)"
R"(            -
)"
R"(               depth: 1
)"
R"(               value: -4.2948330236242377e-01
)"
R"(      -
)"
R"(         nodes:
)"
R"(            -
)"
R"(               depth: 0
)"
R"(               value: 1.8297718513801405e-02
)"
R"(               splits:
)"
R"(                  - { var:7, quality:1.7096932232379913e-01,
)"
R"(                      le:5.0000000000000000e-01 }
)"
R"(            -
)"
R"(               depth: 1
)"
R"(               value: -2.9260463031667860e-01
)"
R"(            -
)"
R"(               depth: 1
)"
R"(               value: 5.6713409905470502e-01
)"
R"(      -
)"
R"(         nodes:
)"
R"(            -
)"
R"(               depth: 0
)"
R"(               value: 1.9058267865544997e-02
)"
R"(               splits:
)"
R"(                  - { var:5, quality:1.5888528525829315e-01,
)"
R"(                      le:4.4648498296737671e-02 }
)"
R"(            -
)"
R"(               depth: 1
)"
R"(               value: -1.
)"
R"(            -
)"
R"(               depth: 1
)"
R"(               value: 1.7461567883168555e-01
)"
R"(      -
)"
R"(         nodes:
)"
R"(            -
)"
R"(               depth: 0
)"
R"(               value: -5.2244713352421299e-02
)"
R"(               splits:
)"
R"(                  - { var:6, quality:1.4760458469390869e-01,
)"
R"(                      le:4.9499999731779099e-03 }
)"
R"(            -
)"
R"(               depth: 1
)"
R"(               value: 3.7771646198176745e-01
)"
R"(            -
)"
R"(               depth: 1
)"
R"(               value: -3.8919390876133381e-01
)"
R"(      -
)"
R"(         nodes:
)"
R"(            -
)"
R"(               depth: 0
)"
R"(               value: -3.4429415243867915e-03
)"
R"(               splits:
)"
R"(                  - { var:6, quality:1.7978689074516296e-01,
)"
R"(                      le:2.4850999936461449e-02 }
)"
R"(            -
)"
R"(               depth: 1
)"
R"(               value: -3.1230284149420129e-01
)"
R"(            -
)"
R"(               depth: 1
)"
R"(               value: 5.7861718595883671e-01
)"
R"(      -
)"
R"(         nodes:
)"
R"(            -
)"
R"(               depth: 0
)"
R"(               value: 1.8185017459285115e-02
)"
R"(               splits:
)"
R"(                  - { var:5, quality:1.4642772078514099e-01,
)"
R"(                      le:5.3911149501800537e-01 }
)"
R"(            -
)"
R"(               depth: 1
)"
R"(               value: 2.3472791958926859e-01
)"
R"(            -
)"
R"(               depth: 1
)"
R"(               value: -6.5649433889988174e-01
)"
R"(      -
)"
R"(         nodes:
)"
R"(            -
)"
R"(               depth: 0
)"
R"(               value: -2.2413919876434738e-02
)"
R"(               splits:
)"
R"(                  - { var:1, quality:1.4384092390537262e-01,
)"
R"(                      le:6.5527498722076416e-02 }
)"
R"(            -
)"
R"(               depth: 1
)"
R"(               value: 6.0330448656086888e-01
)"
R"(            -
)"
R"(               depth: 1
)"
R"(               value: -2.5149227644428185e-01
)"
R"(      -
)"
R"(         nodes:
)"
R"(            -
)"
R"(               depth: 0
)"
R"(               value: 1.7800830419184538e-02
)"
R"(               splits:
)"
R"(                  - { var:0, quality:1.6637483239173889e-01,
)"
R"(                      le:9.1418850421905518e-01 }
)"
R"(            -
)"
R"(               depth: 1
)"
R"(               value: -2.1404539479230955e-01
)"
R"(            -
)"
R"(               depth: 1
)"
R"(               value: 7.3404265806699420e-01
)"
R"(      -
)"
R"(         nodes:
)"
R"(            -
)"
R"(               depth: 0
)"
R"(               value: 3.4744959998659009e-02
)"
R"(               splits:
)"
R"(                  - { var:6, quality:1.9588904082775116e-01,
)"
R"(                      le:2.4850999936461449e-02 }
)"
R"(            -
)"
R"(               depth: 1
)"
R"(               value: -2.9666135214064487e-01
)"
R"(            -
)"
R"(               depth: 1
)"
R"(               value: 6.2218649577378771e-01
)"
R"(      -
)"
R"(         nodes:
)"
R"(            -
)"
R"(               depth: 0
)"
R"(               value: 2.7367208927039772e-02
)"
R"(               splits:
)"
R"(                  - { var:4, quality:1.3060183823108673e-01,
)"
R"(                      le:4.5067001134157181e-02 }
)"
R"(            -
)"
R"(               depth: 1
)"
R"(               value: 4.0019019870506667e-01
)"
R"(            -
)"
R"(               depth: 1
)"
R"(               value: -3.2092910886967324e-01
)"
R"(      -
)"
R"(         nodes:
)"
R"(            -
)"
R"(               depth: 0
)"
R"(               value: 5.0721114991781491e-03
)"
R"(               splits:
)"
R"(                  - { var:4, quality:1.6112738847732544e-01,
)"
R"(                      le:2.2315498441457748e-02 }
)"
R"(            -
)"
R"(               depth: 1
)"
R"(               value: -1.
)"
R"(            -
)"
R"(               depth: 1
)"
R"(               value: 1.6536077142644562e-01
)"
R"(      -
)"
R"(         nodes:
)"
R"(            -
)"
R"(               depth: 0
)"
R"(               value: -5.4701684366362420e-02
)"
R"(               splits:
)"
R"(                  - { var:6, quality:1.4368347823619843e-01,
)"
R"(                      le:4.6542000025510788e-02 }
)"
R"(            -
)"
R"(               depth: 1
)"
R"(               value: -1.8809598850858683e-01
)"
R"(            -
)"
R"(               depth: 1
)"
R"(               value: 1.
)"
R"(      -
)"
R"(         nodes:
)"
R"(            -
)"
R"(               depth: 0
)"
R"(               value: 4.3066531358269051e-02
)"
R"(               splits:
)"
R"(                  - { var:2, quality:1.2692701816558838e-01,
)"
R"(                      le:9.3694353103637695e-01 }
)"
R"(            -
)"
R"(               depth: 1
)"
R"(               value: 2.1487602655254981e-01
)"
R"(            -
)"
R"(               depth: 1
)"
R"(               value: -6.8490426539727001e-01
)"
R"(      -
)"
R"(         nodes:
)"
R"(            -
)"
R"(               depth: 0
)"
R"(               value: -2.0127014856006435e-02
)"
R"(               splits:
)"
R"(                  - { var:5, quality:1.6612163186073303e-01,
)"
R"(                      le:9.6435502171516418e-02 }
)"
R"(            -
)"
R"(               depth: 1
)"
R"(               value: -4.4900722503332530e-01
)"
R"(            -
)"
R"(               depth: 1
)"
R"(               value: 3.6626650008719713e-01
)"
R"(      -
)"
R"(         nodes:
)"
R"(            -
)"
R"(               depth: 0
)"
R"(               value: -6.4154155553441880e-03
)"
R"(               splits:
)"
R"(                  - { var:0, quality:1.9845366477966309e-01,
)"
R"(                      le:9.1418850421905518e-01 }
)"
R"(            -
)"
R"(               depth: 1
)"
R"(               value: -2.6727242726230849e-01
)"
R"(            -
)"
R"(               depth: 1
)"
R"(               value: 7.5420243620770522e-01
)"
R"(      -
)"
R"(         nodes:
)"
R"(            -
)"
R"(               depth: 0
)"
R"(               value: 3.8067128888289406e-02
)"
R"(               splits:
)"
R"(                  - { var:2, quality:1.7172965407371521e-01,
)"
R"(                      le:2.0926249027252197e-01 }
)"
R"(            -
)"
R"(               depth: 1
)"
R"(               value: -1.
)"
R"(            -
)"
R"(               depth: 1
)"
R"(               value: 2.0210328832026797e-01
)"
R"(      -
)"
R"(         nodes:
)"
R"(            -
)"
R"(               depth: 0
)"
R"(               value: -5.3368298097857828e-02
)"
R"(               splits:
)"
R"(                  - { var:5, quality:1.4143261313438416e-01,
)"
R"(                      le:4.4648498296737671e-02 }
)"
R"(            -
)"
R"(               depth: 1
)"
R"(               value: -1.
)"
R"(            -
)"
R"(               depth: 1
)"
R"(               value: 9.3029117237768841e-02
)"
R"(      -
)"
R"(         nodes:
)"
R"(            -
)"
R"(               depth: 0
)"
R"(               value: -5.3796907442650886e-02
)"
R"(               splits:
)"
R"(                  - { var:0, quality:1.6068729758262634e-01,
)"
R"(                      le:6.1580252647399902e-01 }
)"
R"(            -
)"
R"(               depth: 1
)"
R"(               value: 3.3331601983990466e-01
)"
R"(            -
)"
R"(               depth: 1
)"
R"(               value: -4.6141229383520388e-01
)"
R"(      -
)"
R"(         nodes:
)"
R"(            -
)"
R"(               depth: 0
)"
R"(               value: -1.0796837472875192e-02
)"
R"(               splits:
)"
R"(                  - { var:2, quality:1.2918327748775482e-01,
)"
R"(                      le:5.5365401506423950e-01 }
)"
R"(            -
)"
R"(               depth: 1
)"
R"(               value: -5.7123836530616057e-01
)"
R"(            -
)"
R"(               depth: 1
)"
R"(               value: 2.1949785400901786e-01
)"
R"(      -
)"
R"(         nodes:
)"
R"(            -
)"
R"(               depth: 0
)"
R"(               value: -1.7377583833351785e-02
)"
R"(               splits:
)"
R"(                  - { var:1, quality:1.6649498045444489e-01,
)"
R"(                      le:2.4781250953674316e-01 }
)"
R"(            -
)"
R"(               depth: 1
)"
R"(               value: -4.6970367918213807e-01
)"
R"(            -
)"
R"(               depth: 1
)"
R"(               value: 3.5004097218311797e-01
)"
R"(      -
)"
R"(         nodes:
)"
R"(            -
)"
R"(               depth: 0
)"
R"(               value: -8.5882680142972227e-03
)"
R"(               splits:
)"
R"(                  - { var:5, quality:1.1170169711112976e-01,
)"
R"(                      le:9.6435502171516418e-02 }
)"
R"(            -
)"
R"(               depth: 1
)"
R"(               value: -4.0353538654956328e-01
)"
R"(            -
)"
R"(               depth: 1
)"
R"(               value: 2.7405195401477539e-01
)"
R"(      -
)"
R"(         nodes:
)"
R"(            -
)"
R"(               depth: 0
)"
R"(               value: -5.5789802298349348e-03
)"
R"(               splits:
)"
R"(                  - { var:3, quality:1.7718109488487244e-01,
)"
R"(                      le:5.8656251430511475e-01 }
)"
R"(            -
)"
R"(               depth: 1
)"
R"(               value: 3.8362959664750967e-01
)"
R"(            -
)"
R"(               depth: 1
)"
R"(               value: -4.6073330342138524e-01
)"
R"(      -
)"
R"(         nodes:
)"
R"(            -
)"
R"(               depth: 0
)"
R"(               value: -5.5700864306460884e-03
)"
R"(               splits:
)"
R"(                  - { var:3, quality:1.5605598688125610e-01,
)"
R"(                      le:9.3527352809906006e-01 }
)"
R"(            -
)"
R"(               depth: 1
)"
R"(               value: -2.0735329157584217e-01
)"
R"(            -
)"
R"(               depth: 1
)"
R"(               value: 7.6766058248066138e-01
)"
R"(      -
)"
R"(         nodes:
)"
R"(            -
)"
R"(               depth: 0
)"
R"(               value: 3.3664386699256088e-02
)"
R"(               splits:
)"
R"(                  - { var:5, quality:1.1264824122190475e-01,
)"
R"(                      le:4.4648498296737671e-02 }
)"
R"(            -
)"
R"(               depth: 1
)"
R"(               value: -1.
)"
R"(            -
)"
R"(               depth: 1
)"
R"(               value: 1.4154751771871327e-01
)"
R"(      -
)"
R"(         nodes:
)"
R"(            -
)"
R"(               depth: 0
)"
R"(               value: -3.6416609996515102e-02
)"
R"(               splits:
)"
R"(                  - { var:6, quality:1.8130797147750854e-01,
)"
R"(                      le:1.0164999403059483e-03 }
)"
R"(            -
)"
R"(               depth: 1
)"
R"(               value: 7.9040311988514422e-01
)"
R"(            -
)"
R"(               depth: 1
)"
R"(               value: -2.5409622617520289e-01
)"
R"(      -
)"
R"(         nodes:
)"
R"(            -
)"
R"(               depth: 0
)"
R"(               value: 3.5771908873164886e-02
)"
R"(               splits:
)"
R"(                  - { var:0, quality:1.5773597359657288e-01,
)"
R"(                      le:5.4811549186706543e-01 }
)"
R"(            -
)"
R"(               depth: 1
)"
R"(               value: 3.8457644243549766e-01
)"
R"(            -
)"
R"(               depth: 1
)"
R"(               value: -4.1277829107838254e-01
)"
R"(      -
)"
R"(         nodes:
)"
R"(            -
)"
R"(               depth: 0
)"
R"(               value: 4.2792386225853739e-04
)"
R"(               splits:
)"
R"(                  - { var:2, quality:1.5640369057655334e-01,
)"
R"(                      le:3.4420549869537354e-01 }
)"
R"(            -
)"
R"(               depth: 1
)"
R"(               value: -8.1528533138771497e-01
)"
R"(            -
)"
R"(               depth: 1
)"
R"(               value: 1.9216627531634731e-01
)"
R"(      -
)"
R"(         nodes:
)"
R"(            -
)"
R"(               depth: 0
)"
R"(               value: -3.8206412738149578e-02
)"
R"(               splits:
)"
R"(                  - { var:5, quality:1.0323784500360489e-01,
)"
R"(                      le:4.4648498296737671e-02 }
)"
R"(            -
)"
R"(               depth: 1
)"
R"(               value: -1.
)"
R"(            -
)"
R"(               depth: 1
)"
R"(               value: 6.7614746152770244e-02
)"
R"(      -
)"
R"(         nodes:
)"
R"(            -
)"
R"(               depth: 0
)"
R"(               value: -3.8887761356500100e-02
)"
R"(               splits:
)"
R"(                  - { var:4, quality:1.0903545469045639e-01,
)"
R"(                      le:2.5063699483871460e-01 }
)"
R"(            -
)"
R"(               depth: 1
)"
R"(               value: -1.6357655444577376e-01
)"
R"(            -
)"
R"(               depth: 1
)"
R"(               value: 8.2344470991778684e-01
)"
R"(      -
)"
R"(         nodes:
)"
R"(            -
)"
R"(               depth: 0
)"
R"(               value: 2.5448116383459878e-02
)"
R"(               splits:
)"
R"(                  - { var:4, quality:1.5287011861801147e-01,
)"
R"(                      le:4.5067001134157181e-02 }
)"
R"(            -
)"
R"(               depth: 1
)"
R"(               value: 4.6721135579461243e-01
)"
R"(            -
)"
R"(               depth: 1
)"
R"(               value: -3.1913129319351502e-01
)"
R"(      -
)"
R"(         nodes:
)"
R"(            -
)"
R"(               depth: 0
)"
R"(               value: 9.8631330152995338e-03
)"
R"(               splits:
)"
R"(                  - { var:6, quality:1.8198668956756592e-01,
)"
R"(                      le:2.4850999936461449e-02 }
)"
R"(            -
)"
R"(               depth: 1
)"
R"(               value: -3.1226512975940324e-01
)"
R"(            -
)"
R"(               depth: 1
)"
R"(               value: 5.7451216096674207e-01
)"
R"(      -
)"
R"(         nodes:
)"
R"(            -
)"
R"(               depth: 0
)"
R"(               value: 1.9045356069246309e-02
)"
R"(               splits:
)"
R"(                  - { var:2, quality:1.7984294891357422e-01,
)"
R"(                      le:9.3694353103637695e-01 }
)"
R"(            -
)"
R"(               depth: 1
)"
R"(               value: 2.3861883529097083e-01
)"
R"(            -
)"
R"(               depth: 1
)"
R"(               value: -7.9835860010135862e-01
)"
R"(      -
)"
R"(         nodes:
)"
R"(            -
)"
R"(               depth: 0
)"
R"(               value: -3.8578344595998786e-02
)"
R"(               splits:
)"
R"(                  - { var:2, quality:1.2224078923463821e-01,
)"
R"(                      le:2.0926249027252197e-01 }
)"
R"(            -
)"
R"(               depth: 1
)"
R"(               value: -1.
)"
R"(            -
)"
R"(               depth: 1
)"
R"(               value: 8.7019514408736204e-02
)"
R"(      -
)"
R"(         nodes:
)"
R"(            -
)"
R"(               depth: 0
)"
R"(               value: -4.5811232884225443e-02
)"
R"(               splits:
)"
R"(                  - { var:5, quality:1.3282403349876404e-01,
)"
R"(                      le:4.4648498296737671e-02 }
)"
R"(            -
)"
R"(               depth: 1
)"
R"(               value: -1.
)"
R"(            -
)"
R"(               depth: 1
)"
R"(               value: 9.1190348623417114e-02
)"
R"(      -
)"
R"(         nodes:
)"
R"(            -
)"
R"(               depth: 0
)"
R"(               value: -5.0127932241166115e-02
)"
R"(               splits:
)"
R"(                  - { var:6, quality:1.4254528284072876e-01,
)"
R"(                      le:1.0164999403059483e-03 }
)"
R"(            -
)"
R"(               depth: 1
)"
R"(               value: 7.4869989159021533e-01
)"
R"(            -
)"
R"(               depth: 1
)"
R"(               value: -2.2542538214977145e-01
)"
R"(      -
)"
R"(         nodes:
)"
R"(            -
)"
R"(               depth: 0
)"
R"(               value: 2.5475276750591320e-02
)"
R"(               splits:
)"
R"(                  - { var:5, quality:2.3592574894428253e-01,
)"
R"(                      le:9.6435502171516418e-02 }
)"
R"(            -
)"
R"(               depth: 1
)"
R"(               value: -5.8363060346909745e-01
)"
R"(            -
)"
R"(               depth: 1
)"
R"(               value: 4.1174106158970614e-01
)"
R"(      -
)"
R"(         nodes:
)"
R"(            -
)"
R"(               depth: 0
)"
R"(               value: -1.3867006296330394e-02
)"
R"(               splits:
)"
R"(                  - { var:5, quality:1.7134496569633484e-01,
)"
R"(                      le:7.8769552707672119e-01 }
)"
R"(            -
)"
R"(               depth: 1
)"
R"(               value: 2.2017013345043854e-01
)"
R"(            -
)"
R"(               depth: 1
)"
R"(               value: -7.4517259711103134e-01
)"
R"(      -
)"
R"(         nodes:
)"
R"(            -
)"
R"(               depth: 0
)"
R"(               value: -3.6070704090423705e-02
)"
R"(               splits:
)"
R"(                  - { var:6, quality:1.4008440077304840e-01,
)"
R"(                      le:4.6542000025510788e-02 }
)"
R"(            -
)"
R"(               depth: 1
)"
R"(               value: -1.7002228536580818e-01
)"
R"(            -
)"
R"(               depth: 1
)"
R"(               value: 1.
)"
R"(      -
)"
R"(         nodes:
)"
R"(            -
)"
R"(               depth: 0
)"
R"(               value: 4.4452261980414499e-02
)"
R"(               splits:
)"
R"(                  - { var:6, quality:1.2539424002170563e-01,
)"
R"(                      le:4.9499999731779099e-03 }
)"
R"(            -
)"
R"(               depth: 1
)"
R"(               value: 4.0247702639210220e-01
)"
R"(            -
)"
R"(               depth: 1
)"
R"(               value: -3.0026758142586146e-01
)"
R"(      -
)"
R"(         nodes:
)"
R"(            -
)"
R"(               depth: 0
)"
R"(               value: 6.6244936045907849e-03
)"
R"(               splits:
)"
R"(                  - { var:6, quality:1.6332969069480896e-01,
)"
R"(                      le:2.4850999936461449e-02 }
)"
R"(            -
)"
R"(               depth: 1
)"
R"(               value: -2.7282783953131795e-01
)"
R"(            -
)"
R"(               depth: 1
)"
R"(               value: 5.9093098235904262e-01
)"
R"(      -
)"
R"(         nodes:
)"
R"(            -
)"
R"(               depth: 0
)"
R"(               value: 2.0186786065680654e-02
)"
R"(               splits:
)"
R"(                  - { var:3, quality:1.4673602581024170e-01,
)"
R"(                      le:5.5867195129394531e-01 }
)"
R"(            -
)"
R"(               depth: 1
)"
R"(               value: 3.7100755905254229e-01
)"
R"(            -
)"
R"(               depth: 1
)"
R"(               value: -3.9691657752233050e-01
)"
R"(      -
)"
R"(         nodes:
)"
R"(            -
)"
R"(               depth: 0
)"
R"(               value: -3.2399501183882548e-04
)"
R"(               splits:
)"
R"(                  - { var:3, quality:1.4794549345970154e-01,
)"
R"(                      le:1.6975599527359009e-01 }
)"
R"(            -
)"
R"(               depth: 1
)"
R"(               value: -1.
)"
R"(            -
)"
R"(               depth: 1
)"
R"(               value: 1.4766934548530286e-01
)"
R"(      -
)"
R"(         nodes:
)"
R"(            -
)"
R"(               depth: 0
)"
R"(               value: -5.1160234086701013e-02
)"
R"(               splits:
)"
R"(                  - { var:5, quality:1.2977772951126099e-01,
)"
R"(                      le:4.4648498296737671e-02 }
)"
R"(            -
)"
R"(               depth: 1
)"
R"(               value: -1.
)"
R"(            -
)"
R"(               depth: 1
)"
R"(               value: 8.2856453647299502e-02
)"
R"(      -
)"
R"(         nodes:
)"
R"(            -
)"
R"(               depth: 0
)"
R"(               value: -4.9374792569176006e-02
)"
R"(               splits:
)"
R"(                  - { var:3, quality:1.4570467174053192e-01,
)"
R"(                      le:9.3527352809906006e-01 }
)"
R"(            -
)"
R"(               depth: 1
)"
R"(               value: -2.2346980986918141e-01
)"
R"(            -
)"
R"(               depth: 1
)"
R"(               value: 7.7354827633242151e-01
)"
R"(      -
)"
R"(         nodes:
)"
R"(            -
)"
R"(               depth: 0
)"
R"(               value: 2.7756404664618473e-02
)"
R"(               splits:
)"
R"(                  - { var:3, quality:1.3391119241714478e-01,
)"
R"(                      le:7.4189448356628418e-01 }
)"
R"(            -
)"
R"(               depth: 1
)"
R"(               value: 2.8268213780488299e-01
)"
R"(            -
)"
R"(               depth: 1
)"
R"(               value: -4.9451638818766253e-01
)"
R"(      -
)"
R"(         nodes:
)"
R"(            -
)"
R"(               depth: 0
)"
R"(               value: -9.0835988808303236e-03
)"
R"(               splits:
)"
R"(                  - { var:0, quality:1.0212796926498413e-01,
)"
R"(                      le:9.1418850421905518e-01 }
)"
R"(            -
)"
R"(               depth: 1
)"
R"(               value: -1.6115308553428917e-01
)"
R"(            -
)"
R"(               depth: 1
)"
R"(               value: 6.6196130390104446e-01
)"
R"(      -
)"
R"(         nodes:
)"
R"(            -
)"
R"(               depth: 0
)"
R"(               value: 1.8550825936967181e-02
)"
R"(               splits:
)"
R"(                  - { var:6, quality:1.6474533081054688e-01,
)"
R"(                      le:2.4850999936461449e-02 }
)"
R"(            -
)"
R"(               depth: 1
)"
R"(               value: -2.7501033742370928e-01
)"
R"(            -
)"
R"(               depth: 1
)"
R"(               value: 5.7857451044014618e-01
)"
R"(      -
)"
R"(         nodes:
)"
R"(            -
)"
R"(               depth: 0
)"
R"(               value: 2.0139070537741225e-02
)"
R"(               splits:
)"
R"(                  - { var:1, quality:1.6986101865768433e-01,
)"
R"(                      le:6.5527498722076416e-02 }
)"
R"(            -
)"
R"(               depth: 1
)"
R"(               value: 6.3592731055597485e-01
)"
R"(            -
)"
R"(               depth: 1
)"
R"(               value: -2.5504551156498950e-01
)"
R"(      -
)"
R"(         nodes:
)"
R"(            -
)"
R"(               depth: 0
)"
R"(               value: 2.6111684176246527e-02
)"
R"(               splits:
)"
R"(                  - { var:1, quality:1.4356578886508942e-01,
)"
R"(                      le:4.6937501430511475e-01 }
)"
R"(            -
)"
R"(               depth: 1
)"
R"(               value: -3.0859305195233877e-01
)"
R"(            -
)"
R"(               depth: 1
)"
R"(               value: 4.5300723983701097e-01
)"
R"(      -
)"
R"(         nodes:
)"
R"(            -
)"
R"(               depth: 0
)"
R"(               value: 9.0320546649029550e-03
)"
R"(               splits:
)"
R"(                  - { var:5, quality:1.5369170904159546e-01,
)"
R"(                      le:9.6435502171516418e-02 }
)"
R"(            -
)"
R"(               depth: 1
)"
R"(               value: -4.4564833850986368e-01
)"
R"(            -
)"
R"(               depth: 1
)"
R"(               value: 3.4687403728606159e-01
)"
R"(      -
)"
R"(         nodes:
)"
R"(            -
)"
R"(               depth: 0
)"
R"(               value: -5.1630839563825779e-03
)"
R"(               splits:
)"
R"(                  - { var:4, quality:1.8604493141174316e-01,
)"
R"(                      le:4.5067001134157181e-02 }
)"
R"(            -
)"
R"(               depth: 1
)"
R"(               value: 4.4285150281557850e-01
)"
R"(            -
)"
R"(               depth: 1
)"
R"(               value: -4.2036892246007729e-01
)"
R"(      -
)"
R"(         nodes:
)"
R"(            -
)"
R"(               depth: 0
)"
R"(               value: 1.2412456945490517e-03
)"
R"(               splits:
)"
R"(                  - { var:7, quality:1.4469994604587555e-01,
)"
R"(                      le:5.0000000000000000e-01 }
)"
R"(            -
)"
R"(               depth: 1
)"
R"(               value: -2.6075332183632843e-01
)"
R"(            -
)"
R"(               depth: 1
)"
R"(               value: 5.5353668695277225e-01
)"
R"(      -
)"
R"(         nodes:
)"
R"(            -
)"
R"(               depth: 0
)"
R"(               value: 1.5938418233531825e-02
)"
R"(               splits:
)"
R"(                  - { var:3, quality:1.5279591083526611e-01,
)"
R"(                      le:5.5867195129394531e-01 }
)"
R"(            -
)"
R"(               depth: 1
)"
R"(               value: 3.8607975436356917e-01
)"
R"(            -
)"
R"(               depth: 1
)"
R"(               value: -3.9617949389701079e-01
)"
R"(      -
)"
R"(         nodes:
)"
R"(            -
)"
R"(               depth: 0
)"
R"(               value: 3.2027718395452511e-04
)"
R"(               splits:
)"
R"(                  - { var:6, quality:1.4976550638675690e-01,
)"
R"(                      le:2.4850999936461449e-02 }
)"
R"(            -
)"
R"(               depth: 1
)"
R"(               value: -2.5846156135490722e-01
)"
R"(            -
)"
R"(               depth: 1
)"
R"(               value: 5.7905256066133026e-01
)"
R"(      -
)"
R"(         nodes:
)"
R"(            -
)"
R"(               depth: 0
)"
R"(               value: 1.8116179122012032e-02
)"
R"(               splits:
)"
R"(                  - { var:5, quality:1.3148002326488495e-01,
)"
R"(                      le:4.4648498296737671e-02 }
)"
R"(            -
)"
R"(               depth: 1
)"
R"(               value: -1.
)"
R"(            -
)"
R"(               depth: 1
)"
R"(               value: 1.4693431701778145e-01
)"
R"(      -
)"
R"(         nodes:
)"
R"(            -
)"
R"(               depth: 0
)"
R"(               value: -4.3918989124777374e-02
)"
R"(               splits:
)"
R"(                  - { var:6, quality:1.6581803560256958e-01,
)"
R"(                      le:1.0164999403059483e-03 }
)"
R"(            -
)"
R"(               depth: 1
)"
R"(               value: 6.9501482671418058e-01
)"
R"(            -
)"
R"(               depth: 1
)"
R"(               value: -2.6571038253409962e-01
)"
R"(      -
)"
R"(         nodes:
)"
R"(            -
)"
R"(               depth: 0
)"
R"(               value: 2.4470748650167351e-02
)"
R"(               splits:
)"
R"(                  - { var:1, quality:1.3520850241184235e-01,
)"
R"(                      le:6.5527498722076416e-02 }
)"
R"(            -
)"
R"(               depth: 1
)"
R"(               value: 5.9686844317331877e-01
)"
R"(            -
)"
R"(               depth: 1
)"
R"(               value: -2.1069736799439179e-01
)"
R"(      -
)"
R"(         nodes:
)"
R"(            -
)"
R"(               depth: 0
)"
R"(               value: 2.0663141332523297e-02
)"
R"(               splits:
)"
R"(                  - { var:3, quality:1.3574057817459106e-01,
)"
R"(                      le:1.6975599527359009e-01 }
)"
R"(            -
)"
R"(               depth: 1
)"
R"(               value: -1.
)"
R"(            -
)"
R"(               depth: 1
)"
R"(               value: 1.5323735295075266e-01
)"
R"(      -
)"
R"(         nodes:
)"
R"(            -
)"
R"(               depth: 0
)"
R"(               value: -4.4964176333314738e-02
)"
R"(               splits:
)"
R"(                  - { var:2, quality:1.3383570313453674e-01,
)"
R"(                      le:9.3833202123641968e-01 }
)"
R"(            -
)"
R"(               depth: 1
)"
R"(               value: 1.5248421847856602e-01
)"
R"(            -
)"
R"(               depth: 1
)"
R"(               value: -7.1255088828024782e-01
)"
R"(      -
)"
R"(         nodes:
)"
R"(            -
)"
R"(               depth: 0
)"
R"(               value: -3.0293088863827942e-02
)"
R"(               splits:
)"
R"(                  - { var:6, quality:1.5875023603439331e-01,
)"
R"(                      le:3.0062999576330185e-02 }
)"
R"(            -
)"
R"(               depth: 1
)"
R"(               value: -2.8887888922397320e-01
)"
R"(            -
)"
R"(               depth: 1
)"
R"(               value: 5.8007519145419772e-01
)"
R"(      -
)"
R"(         nodes:
)"
R"(            -
)"
R"(               depth: 0
)"
R"(               value: 1.5648018518346549e-02
)"
R"(               splits:
)"
R"(                  - { var:2, quality:1.2693999707698822e-01,
)"
R"(                      le:2.0926249027252197e-01 }
)"
R"(            -
)"
R"(               depth: 1
)"
R"(               value: -1.
)"
R"(            -
)"
R"(               depth: 1
)"
R"(               value: 1.4039116551622768e-01
)"
R"(      -
)"
R"(         nodes:
)"
R"(            -
)"
R"(               depth: 0
)"
R"(               value: -4.2750986685894693e-02
)"
R"(               splits:
)"
R"(                  - { var:5, quality:1.4590737223625183e-01,
)"
R"(                      le:4.4648498296737671e-02 }
)"
R"(            -
)"
R"(               depth: 1
)"
R"(               value: -1.
)"
R"(            -
)"
R"(               depth: 1
)"
R"(               value: 1.0776337158658830e-01
)"
;
};