%YAML:1.0
---
opencv_ml_boost:
   format: 3
   is_classifier: 1
   var_all: 8
   var_count: 7
   ord_var_count: 7
   cat_var_count: 1
   training_params:
      boosting_type: GentleAdaboost
      use_surrogates: 0
      max_categories: 10
      regression_accuracy: 9.9999997764825821e-03
      max_depth: 1
      min_sample_count: 10
      cross_validation_folds: 0
      weight_trimming_rate: 0.
   global_var_idx: 1
   var_idx: [ 0, 1, 2, 3, 4, 5, 6 ]
   var_type: [ 0, 0, 0, 0, 0, 0, 0, 1 ]
   cat_ofs: [ 0, 0, 0, 0, 0, 0, 0, 0, 0, 0, 0, 0, 0, 0 ]
   class_labels: [ 0, 1 ]
   missing_subst: [ 0., 0., 0., 0., 0., 0., 0., 0. ]
   ntrees: 100
   trees:
      -
         nodes:
            -
               depth: 0
               value: -5.8944591029024151e-01
               splits:
                  - { var:6, quality:9.8529261350631714e-01,
                      le:3.6150000989437103e-02 }
            -
               depth: 1
               value: -9.9074686054196970e-01
            -
               depth: 1
               value: 1.
      -
         nodes:
            -
               depth: 0
               value: -5.5638276403255749e-01
               splits:
                  - { var:6, quality:9.4545602798461914e-01,
                      le:3.3215500414371490e-02 }
            -
               depth: 1
               value: -9.7141939795954024e-01
            -
               depth: 1
               value: 9.7575733366391015e-01
      -
         nodes:
            -
               depth: 0
               value: -4.6734740874091801e-01
               splits:
                  - { var:5, quality:8.8117820024490356e-01,
                      le:4.4335998594760895e-02 }
            -
               depth: 1
               value: -1.
            -
               depth: 1
               value: 7.7692436864789138e-01
      -
         nodes:
            -
               depth: 0
               value: -4.5906544711167879e-01
               splits:
                  - { var:6, quality:7.5143849849700928e-01,
                      le:2.9805999249219894e-02 }
            -
               depth: 1
               value: -8.7096715233242095e-01
            -
               depth: 1
               value: 8.5362012923970998e-01
      -
         nodes:
            -
               depth: 0
               value: -2.3148993263498216e-01
               splits:
                  - { var:5, quality:6.2946081161499023e-01,
                      le:4.4335998594760895e-02 }
            -
               depth: 1
               value: -1.
            -
               depth: 1
               value: 5.1784735558508788e-01
      -
         nodes:
            -
               depth: 0
               value: -2.5599342175776596e-01
               splits:
                  - { var:5, quality:3.7241783738136292e-01,
                      le:1.0899399966001511e-01 }
            -
               depth: 1
               value: -6.7474343477663234e-01
            -
               depth: 1
               value: 4.7686672838490640e-01
      -
         nodes:
            -
               depth: 0
               value: -6.8892055718862338e-02
               splits:
                  - { var:0, quality:3.0984604358673096e-01,
                      le:9.1418850421905518e-01 }
            -
               depth: 1
               value: -4.1409985945288197e-01
            -
               depth: 1
               value: 8.1492320136986640e-01
      -
         nodes:
            -
               depth: 0
               value: 4.4534194090354071e-02
               splits:
                  - { var:5, quality:2.6741081476211548e-01,
                      le:4.4335998594760895e-02 }
            -
               depth: 1
               value: -1.
            -
               depth: 1
               value: 2.9864510122873084e-01
      -
         nodes:
            -
               depth: 0
               value: -7.7151321953997140e-02
               splits:
                  - { var:6, quality:2.8107339143753052e-01,
                      le:2.9805999249219894e-02 }
            -
               depth: 1
               value: -3.5608135929223284e-01
            -
               depth: 1
               value: 9.0919303745825131e-01
      -
         nodes:
            -
               depth: 0
               value: 5.7325361395457956e-02
               splits:
                  - { var:4, quality:3.8299041986465454e-01,
                      le:4.5067001134157181e-02 }
            -
               depth: 1
               value: 6.5237036886632926e-01
            -
               depth: 1
               value: -5.8078474544989200e-01
      -
         nodes:
            -
               depth: 0
               value: 2.2003791380867756e-02
               splits:
                  - { var:6, quality:2.2378946840763092e-01,
                      le:3.6150000989437103e-02 }
            -
               depth: 1
               value: -2.0632562529311335e-01
            -
               depth: 1
               value: 1.
      -
         nodes:
            -
               depth: 0
               value: 7.7930481525049597e-02
               splits:
                  - { var:2, quality:2.3609589040279388e-01,
                      le:9.3694353103637695e-01 }
            -
               depth: 1
               value: 3.0109684963798533e-01
            -
               depth: 1
               value: -9.5279260382621667e-01
      -
         nodes:
            -
               depth: 0
               value: -5.6368060030179044e-02
               splits:
                  - { var:2, quality:3.0446124076843262e-01,
                      le:2.0757350325584412e-01 }
            -
               depth: 1
               value: -1.
            -
               depth: 1
               value: 2.6291309578773464e-01
      -
         nodes:
            -
               depth: 0
               value: -1.0866814023257043e-01
               splits:
                  - { var:5, quality:2.9600647091865540e-01,
                      le:4.4335998594760895e-02 }
            -
               depth: 1
               value: -1.
            -
               depth: 1
               value: 2.1017798444469502e-01
      -
         nodes:
            -
               depth: 0
               value: -1.1583235542506366e-01
               splits:
                  - { var:3, quality:1.8776816129684448e-01,
                      le:1.6944350302219391e-01 }
            -
               depth: 1
               value: -1.
            -
               depth: 1
               value: 8.1359923664434564e-02
      -
         nodes:
            -
               depth: 0
               value: -7.5891921968697401e-02
               splits:
                  - { var:2, quality:1.8237435817718506e-01,
                      le:2.0757350325584412e-01 }
            -
               depth: 1
               value: -1.
            -
               depth: 1
               value: 1.1522724981725530e-01
      -
         nodes:
            -
               depth: 0
               value: -7.0666428784057878e-02
               splits:
                  - { var:2, quality:2.4158117175102234e-01,
                      le:9.3694353103637695e-01 }
            -
               depth: 1
               value: 2.1381084769117423e-01
            -
               depth: 1
               value: -9.0232308593375998e-01
      -
         nodes:
            -
               depth: 0
               value: -7.6097081864329133e-02
               splits:
                  - { var:5, quality:1.9810339808464050e-01,
                      le:1.0899399966001511e-01 }
            -
               depth: 1
               value: -4.5756434080062863e-01
            -
               depth: 1
               value: 4.2804220466881726e-01
      -
         nodes:
            -
               depth: 0
               value: -7.9169091089673384e-03
               splits:
                  - { var:0, quality:2.6218226552009583e-01,
                      le:9.1418850421905518e-01 }
            -
               depth: 1
               value: -3.5002384447133239e-01
            -
               depth: 1
               value: 7.5827504861904671e-01
      -
         nodes:
            -
               depth: 0
               value: 4.3876618463214161e-02
               splits:
                  - { var:5, quality:2.0771586894989014e-01,
                      le:4.4335998594760895e-02 }
            -
               depth: 1
               value: -1.
            -
               depth: 1
               value: 2.4101745053720963e-01
      -
         nodes:
            -
               depth: 0
               value: -6.2289603991869148e-02
               splits:
                  - { var:4, quality:1.7585298418998718e-01,
                      le:4.5067001134157181e-02 }
            -
               depth: 1
               value: 3.9626411294298736e-01
            -
               depth: 1
               value: -4.3732305821370104e-01
      -
         nodes:
            -
               depth: 0
               value: -6.7753441712251105e-03
               splits:
                  - { var:6, quality:3.3306846022605896e-01,
                      le:2.9805999249219894e-02 }
            -
               depth: 1
               value: -3.6010764513853044e-01
            -
               depth: 1
               value: 9.3574404647132903e-01
      -
         nodes:
            -
               depth: 0
               value: 8.6673224302815738e-02
               splits:
                  - { var:1, quality:2.7178236842155457e-01,
                      le:4.8750001192092896e-01 }
            -
               depth: 1
               value: 4.4543443128311355e-01
            -
               depth: 1
               value: -6.4994518866070994e-01
      -
         nodes:
            -
               depth: 0
               value: -1.2953308842115761e-02
               splits:
                  - { var:6, quality:1.7676068842411041e-01,
                      le:2.9805999249219894e-02 }
            -
               depth: 1
               value: -2.2256620713501471e-01
            -
               depth: 1
               value: 8.2951822359873006e-01
      -
         nodes:
            -
               depth: 0
               value: 4.1844471839195610e-02
               splits:
                  - { var:6, quality:2.6337635517120361e-01,
                      le:4.9499999731779099e-03 }
            -
               depth: 1
               value: 4.6941696008610401e-01
            -
               depth: 1
               value: -5.7004097882699356e-01
      -
         nodes:
            -
               depth: 0
               value: -6.3850254425996626e-03
               splits:
                  - { var:5, quality:2.4381758272647858e-01,
                      le:1.0899399966001511e-01 }
            -
               depth: 1
               value: -4.7785757823591080e-01
            -
               depth: 1
               value: 5.1066908176416048e-01
      -
         nodes:
            -
               depth: 0
               value: 2.6037539874257396e-03
               splits:
                  - { var:0, quality:1.8067298829555511e-01,
                      le:9.1418850421905518e-01 }
            -
               depth: 1
               value: -2.7606888502842181e-01
            -
               depth: 1
               value: 6.5091359090094192e-01
      -
         nodes:
            -
               depth: 0
               value: 2.6469467595223520e-02
               splits:
                  - { var:4, quality:2.1867269277572632e-01,
                      le:2.2315498441457748e-02 }
            -
               depth: 1
               value: -1.
            -
               depth: 1
               value: 2.3882070897452495e-01
      -
         nodes:
            -
               depth: 0
               value: -6.8315721020112838e-02
               splits:
                  - { var:2, quality:2.1122960746288300e-01,
                      le:9.3833202123641968e-01 }
            -
               depth: 1
               value: 2.0025418292758562e-01
            -
               depth: 1
               value: -8.3743601223762187e-01
      -
         nodes:
            -
               depth: 0
               value: -5.9608713464316662e-02
               splits:
                  - { var:2, quality:2.2155630588531494e-01,
                      le:2.0757350325584412e-01 }
            -
               depth: 1
               value: -1.
            -
               depth: 1
               value: 1.7221298203257399e-01
      -
         nodes:
            -
               depth: 0
               value: -8.2715113540854410e-02
               splits:
                  - { var:0, quality:1.9744765758514404e-01,
                      le:6.1490702629089355e-01 }
            -
               depth: 1
               value: 3.7303548981466156e-01
            -
               depth: 1
               value: -5.0093915990465421e-01
      -
         nodes:
            -
               depth: 0
               value: -1.5634676054955582e-02
               splits:
                  - { var:5, quality:1.8535949289798737e-01,
                      le:4.4335998594760895e-02 }
            -
               depth: 1
               value: -1.
            -
               depth: 1
               value: 1.7242056344745235e-01
      -
         nodes:
            -
               depth: 0
               value: -6.4973382088011733e-02
               splits:
                  - { var:0, quality:2.0243941247463226e-01,
                      le:9.1418850421905518e-01 }
            -
               depth: 1
               value: -3.1511047370147394e-01
            -
               depth: 1
               value: 7.2746358623856855e-01
      -
         nodes:
            -
               depth: 0
               value: 2.7488283094897877e-02
               splits:
                  - { var:6, quality:2.0622646808624268e-01,
                      le:2.9805999249219894e-02 }
            -
               depth: 1
               value: -2.4008292290970740e-01
            -
               depth: 1
               value: 7.9539924388844641e-01
      -
         nodes:
            -
               depth: 0
               value: 4.8357245584056886e-02
               splits:
                  - { var:4, quality:2.2199377417564392e-01,
                      le:4.5067001134157181e-02 }
            -
               depth: 1
               value: 4.7102452921224475e-01
            -
               depth: 1
               value: -4.7133131240185000e-01
      -
         nodes:
            -
               depth: 0
               value: 4.1176472611739491e-03
               splits:
                  - { var:2, quality:2.0781050622463226e-01,
                      le:2.0757350325584412e-01 }
            -
               depth: 1
               value: -1.
            -
               depth: 1
               value: 2.1105908604515833e-01
      -
         nodes:
            -
               depth: 0
               value: -6.8992397709688319e-02
               splits:
                  - { var:5, quality:2.8153929114341736e-01,
                      le:9.6435502171516418e-02 }
            -
               depth: 1
               value: -5.8383542322710902e-01
            -
               depth: 1
               value: 4.6860709984438237e-01
      -
         nodes:
            -
               depth: 0
               value: -2.1095499902658247e-02
               splits:
                  - { var:5, quality:1.4296536147594452e-01,
                      le:4.4335998594760895e-02 }
            -
               depth: 1
               value: -1.
            -
               depth: 1
               value: 1.2449616308880285e-01
      -
         nodes:
            -
               depth: 0
               value: -5.1646208295540001e-02
               splits:
                  - { var:6, quality:2.0380896329879761e-01,
                      le:1.0170000605285168e-03 }
            -
               depth: 1
               value: 7.1870274415156377e-01
            -
               depth: 1
               value: -3.1275077687850894e-01
      -
         nodes:
            -
               depth: 0
               value: 2.8455214343979116e-02
               splits:
                  - { var:6, quality:2.2008617222309113e-01,
                      le:2.9805999249219894e-02 }
            -
               depth: 1
               value: -2.3021878790282974e-01
            -
               depth: 1
               value: 8.7614951995856882e-01
      -
         nodes:
            -
               depth: 0
               value: 6.1280254960948813e-02
               splits:
                  - { var:6, quality:2.3825244605541229e-01,
                      le:4.9499999731779099e-03 }
            -
               depth: 1
               value: 4.7576389019575649e-01
            -
               depth: 1
               value: -5.0447711770722337e-01
      -
         nodes:
            -
               depth: 0
               value: 3.0107527193290861e-03
               splits:
                  - { var:4, quality:2.4225538969039917e-01,
                      le:2.2315498441457748e-02 }
            -
               depth: 1
               value: -1.
            -
               depth: 1
               value: 2.4452992150086877e-01
      -
         nodes:
            -
               depth: 0
               value: -7.9075024088691298e-02
               splits:
                  - { var:6, quality:1.5139608085155487e-01,
                      le:2.9805999249219894e-02 }
            -
               depth: 1
               value: -2.8353725208292968e-01
            -
               depth: 1
               value: 6.3080292259382953e-01
      -
         nodes:
            -
               depth: 0
               value: 1.4707220201355330e-02
               splits:
                  - { var:4, quality:2.1251574158668518e-01,
                      le:4.5067001134157181e-02 }
            -
               depth: 1
               value: 4.1741872613713632e-01
            -
               depth: 1
               value: -5.1246778361257594e-01
      -
         nodes:
            -
               depth: 0
               value: -6.7116945521060326e-03
               splits:
                  - { var:5, quality:1.9433875381946564e-01,
                      le:4.4335998594760895e-02 }
            -
               depth: 1
               value: -1.
            -
               depth: 1
               value: 1.8889486458677876e-01
      -
         nodes:
            -
               depth: 0
               value: -6.6566887720734713e-02
               splits:
                  - { var:2, quality:2.2748593986034393e-01,
                      le:2.0757350325584412e-01 }
            -
               depth: 1
               value: -1.
            -
               depth: 1
               value: 1.7239484304715405e-01
      -
         nodes:
            -
               depth: 0
               value: -8.5678895834167559e-02
               splits:
                  - { var:0, quality:2.0916281640529633e-01,
                      le:6.6142654418945313e-01 }
            -
               depth: 1
               value: 3.9317139478476404e-01
            -
               depth: 1
               value: -5.0715080753442965e-01
      -
         nodes:
            -
               depth: 0
               value: -1.5844378128016378e-02
               splits:
                  - { var:2, quality:1.6498024761676788e-01,
                      le:2.0757350325584412e-01 }
            -
               depth: 1
               value: -1.
            -
               depth: 1
               value: 1.5153687211633940e-01
      -
         nodes:
            -
               depth: 0
               value: -5.8424075516355062e-02
               splits:
                  - { var:5, quality:1.4056532084941864e-01,
                      le:4.4335998594760895e-02 }
            -
               depth: 1
               value: -1.
            -
               depth: 1
               value: 8.7238046957508100e-02
      -
         nodes:
            -
               depth: 0
               value: -5.3831234732267322e-02
               splits:
                  - { var:6, quality:1.9848605990409851e-01,
                      le:1.0170000605285168e-03 }
            -
               depth: 1
               value: 7.6503208638035536e-01
            -
               depth: 1
               value: -2.9268460647416528e-01
      -
         nodes:
            -
               depth: 0
               value: 3.2798317322398206e-02
               splits:
                  - { var:0, quality:2.1788367629051208e-01,
                      le:7.6353150606155396e-01 }
            -
               depth: 1
               value: 4.3278322635419636e-01
            -
               depth: 1
               value: -5.0924199996187358e-01
      -
         nodes:
            -
               depth: 0
               value: -3.7740451936681698e-03
               splits:
                  - { var:3, quality:1.6696904599666595e-01,
                      le:1.6944350302219391e-01 }
            -
               depth: 1
               value: -1.
            -
               depth: 1
               value: 1.6381323217237695e-01
      -
         nodes:
            -
               depth: 0
               value: -5.7628302348919420e-02
               splits:
                  - { var:2, quality:1.6595458984375000e-01,
                      le:5.7297450304031372e-01 }
            -
               depth: 1
               value: -8.3234822519728568e-01
            -
               depth: 1
               value: 1.5229731959849147e-01
      -
         nodes:
            -
               depth: 0
               value: -4.7541767980946670e-02
               splits:
                  - { var:2, quality:1.8106125295162201e-01,
                      le:9.4673252105712891e-01 }
            -
               depth: 1
               value: 2.0295802142185893e-01
            -
               depth: 1
               value: -7.6131894902001984e-01
      -
         nodes:
            -
               depth: 0
               value: -4.2759885880889491e-02
               splits:
                  - { var:5, quality:2.0523804426193237e-01,
                      le:4.4335998594760895e-02 }
            -
               depth: 1
               value: -1.
            -
               depth: 1
               value: 1.6973605261439537e-01
      -
         nodes:
            -
               depth: 0
               value: -7.4993850128032502e-02
               splits:
                  - { var:6, quality:2.0064091682434082e-01,
                      le:3.4163996577262878e-02 }
            -
               depth: 1
               value: -2.8332721368182490e-01
            -
               depth: 1
               value: 8.6108681221765371e-01
      -
         nodes:
            -
               depth: 0
               value: 4.0002954069804073e-02
               splits:
                  - { var:6, quality:1.9132769107818604e-01,
                      le:4.9499999731779099e-03 }
            -
               depth: 1
               value: 4.4514264930303649e-01
            -
               depth: 1
               value: -4.2829838319485303e-01
      -
         nodes:
            -
               depth: 0
               value: 4.1199992046923439e-03
               splits:
                  - { var:5, quality:1.8738470971584320e-01,
                      le:9.6435502171516418e-02 }
            -
               depth: 1
               value: -3.9256991842231631e-01
            -
               depth: 1
               value: 4.7644795839641008e-01
      -
         nodes:
            -
               depth: 0
               value: 6.3244664899215599e-03
               splits:
                  - { var:6, quality:2.2956223785877228e-01,
                      le:1.0170000605285168e-03 }
            -
               depth: 1
               value: 7.0921098139492433e-01
            -
               depth: 1
               value: -3.2021792412302369e-01
      -
         nodes:
            -
               depth: 0
               value: 3.6726994445208730e-02
               splits:
                  - { var:6, quality:2.2344680130481720e-01,
                      le:2.9805999249219894e-02 }
            -
               depth: 1
               value: -2.5090187312868129e-01
            -
               depth: 1
               value: 8.0889540219403422e-01
      -
         nodes:
            -
               depth: 0
               value: 5.4107669091703149e-02
               splits:
                  - { var:1, quality:2.1661326289176941e-01,
                      le:4.8750001192092896e-01 }
            -
               depth: 1
               value: 3.9714500701721189e-01
            -
               depth: 1
               value: -5.6881468941148838e-01
      -
         nodes:
            -
               depth: 0
               value: -9.9673129011028701e-03
               splits:
                  - { var:5, quality:1.5832042694091797e-01,
                      le:4.4335998594760895e-02 }
            -
               depth: 1
               value: -1.
            -
               depth: 1
               value: 1.4984667690125231e-01
      -
         nodes:
            -
               depth: 0
               value: -5.5586712919787132e-02
               splits:
                  - { var:6, quality:1.9489885866641998e-01,
                      le:2.9805999249219894e-02 }
            -
               depth: 1
               value: -2.7349822662034012e-01
            -
               depth: 1
               value: 8.2462828616173156e-01
      -
         nodes:
            -
               depth: 0
               value: 3.8389187894439916e-02
               splits:
                  - { var:4, quality:2.2119906544685364e-01,
                      le:4.5067001134157181e-02 }
            -
               depth: 1
               value: 4.1488377175275665e-01
            -
               depth: 1
               value: -5.4521903474450872e-01
      -
         nodes:
            -
               depth: 0
               value: -8.0447575759774355e-03
               splits:
                  - { var:4, quality:2.0862726867198944e-01,
                      le:2.2315498441457748e-02 }
            -
               depth: 1
               value: -1.
            -
               depth: 1
               value: 2.0220924227339904e-01
      -
         nodes:
            -
               depth: 0
               value: -7.1130787077046204e-02
               splits:
                  - { var:2, quality:1.8166701495647430e-01,
                      le:2.0757350325584412e-01 }
            -
               depth: 1
               value: -1.
            -
               depth: 1
               value: 1.1900085065297233e-01
      -
         nodes:
            -
               depth: 0
               value: -6.9967742790624385e-02
               splits:
                  - { var:2, quality:1.8133331835269928e-01,
                      le:9.3694353103637695e-01 }
            -
               depth: 1
               value: 1.6656387351319715e-01
            -
               depth: 1
               value: -8.1590535878489912e-01
      -
         nodes:
            -
               depth: 0
               value: -5.0687700216617983e-02
               splits:
                  - { var:3, quality:1.9313758611679077e-01,
                      le:1.6944350302219391e-01 }
            -
               depth: 1
               value: -1.
            -
               depth: 1
               value: 1.5005586852704342e-01
      -
         nodes:
            -
               depth: 0
               value: -7.1885484123088303e-02
               splits:
                  - { var:5, quality:1.7960090935230255e-01,
                      le:4.4335998594760895e-02 }
            -
               depth: 1
               value: -1.
            -
               depth: 1
               value: 1.1605833346270435e-01
      -
         nodes:
            -
               depth: 0
               value: -6.9281064333030273e-02
               splits:
                  - { var:2, quality:1.6385079920291901e-01,
                      le:2.0757350325584412e-01 }
            -
               depth: 1
               value: -1.
            -
               depth: 1
               value: 1.0160934010917190e-01
      -
         nodes:
            -
               depth: 0
               value: -6.3251650161058187e-02
               splits:
                  - { var:6, quality:1.3877190649509430e-01,
                      le:2.9805999249219894e-02 }
            -
               depth: 1
               value: -2.6581761221635175e-01
            -
               depth: 1
               value: 6.0206810171849567e-01
      -
         nodes:
            -
               depth: 0
               value: 1.3786391275781256e-02
               splits:
                  - { var:4, quality:2.7252000570297241e-01,
                      le:4.5067001134157181e-02 }
            -
               depth: 1
               value: 5.1032264600314992e-01
            -
               depth: 1
               value: -5.3467295762457545e-01
      -
         nodes:
            -
               depth: 0
               value: -1.2244822125732132e-03
               splits:
                  - { var:5, quality:1.4461036026477814e-01,
                      le:4.4335998594760895e-02 }
            -
               depth: 1
               value: -1.
            -
               depth: 1
               value: 1.4356166488443162e-01
      -
         nodes:
            -
               depth: 0
               value: -5.0184370065298592e-02
               splits:
                  - { var:6, quality:2.1707326173782349e-01,
                      le:2.9805999249219894e-02 }
            -
               depth: 1
               value: -3.0720466376074901e-01
            -
               depth: 1
               value: 7.8459326883170843e-01
      -
         nodes:
            -
               depth: 0
               value: 3.7341478469178221e-02
               splits:
                  - { var:0, quality:2.1221844851970673e-01,
                      le:9.1418850421905518e-01 }
            -
               depth: 1
               value: -2.2775627774360138e-01
            -
               depth: 1
               value: 8.3261060364569384e-01
      -
         nodes:
            -
               depth: 0
               value: 5.5294535279721509e-02
               splits:
                  - { var:5, quality:2.1817834675312042e-01,
                      le:9.6435502171516418e-02 }
            -
               depth: 1
               value: -4.7565863391786972e-01
            -
               depth: 1
               value: 4.6045431234049122e-01
      -
         nodes:
            -
               depth: 0
               value: 3.3578135060021250e-03
               splits:
                  - { var:6, quality:2.4362866580486298e-01,
                      le:4.9499999731779099e-03 }
            -
               depth: 1
               value: 4.6544723432981294e-01
            -
               depth: 1
               value: -5.2385050012045820e-01
      -
         nodes:
            -
               depth: 0
               value: -5.3979190104665618e-03
               splits:
                  - { var:6, quality:1.9542619585990906e-01,
                      le:2.9805999249219894e-02 }
            -
               depth: 1
               value: -2.5589508083523987e-01
            -
               depth: 1
               value: 7.7463907009526178e-01
      -
         nodes:
            -
               depth: 0
               value: 4.0105439558615487e-02
               splits:
                  - { var:4, quality:1.5603204071521759e-01,
                      le:2.2315498441457748e-02 }
            -
               depth: 1
               value: -1.
            -
               depth: 1
               value: 1.8857461168091114e-01
      -
         nodes:
            -
               depth: 0
               value: -4.8589548733380256e-02
               splits:
                  - { var:1, quality:2.0370554924011230e-01,
                      le:5.0852549076080322e-01 }
            -
               depth: 1
               value: 2.9345455203255116e-01
            -
               depth: 1
               value: -6.3724055426813120e-01
      -
         nodes:
            -
               depth: 0
               value: -3.1054423783821467e-02
               splits:
                  - { var:2, quality:2.3365750908851624e-01,
                      le:9.3833202123641968e-01 }
            -
               depth: 1
               value: 2.6510413412712369e-01
            -
               depth: 1
               value: -8.1675897207721304e-01
      -
         nodes:
            -
               depth: 0
               value: -5.6028673803583805e-02
               splits:
                  - { var:5, quality:1.3994240760803223e-01,
                      le:4.4335998594760895e-02 }
            -
               depth: 1
               value: -1.
            -
               depth: 1
               value: 8.8894369591303007e-02
      -
         nodes:
            -
               depth: 0
               value: -5.3437753863773717e-02
               splits:
                  - { var:6, quality:1.7822030186653137e-01,
                      le:2.9805999249219894e-02 }
            -
               depth: 1
               value: -2.8071534644386853e-01
            -
               depth: 1
               value: 7.1815045672910272e-01
      -
         nodes:
            -
               depth: 0
               value: 2.6400346804944623e-02
               splits:
                  - { var:6, quality:2.0035511255264282e-01,
                      le:1.0170000605285168e-03 }
            -
               depth: 1
               value: 8.3244797789936376e-01
            -
               depth: 1
               value: -2.2129983057831368e-01
      -
         nodes:
            -
               depth: 0
               value: 5.1567829991793039e-02
               splits:
                  - { var:5, quality:2.2349497675895691e-01,
                      le:9.6435502171516418e-02 }
            -
               depth: 1
               value: -4.9833867466819176e-01
            -
               depth: 1
               value: 4.5315560603863408e-01
      -
         nodes:
            -
               depth: 0
               value: 5.1061478143541665e-04
               splits:
                  - { var:6, quality:2.6171520352363586e-01,
                      le:4.9499999731779099e-03 }
            -
               depth: 1
               value: 4.8202175527951108e-01
            -
               depth: 1
               value: -5.4301769726901628e-01
      -
         nodes:
            -
               depth: 0
               value: -6.4626413901799672e-03
               splits:
                  - { var:6, quality:1.8608754873275757e-01,
                      le:2.9805999249219894e-02 }
            -
               depth: 1
               value: -2.5245870797387088e-01
            -
               depth: 1
               value: 7.4983312173975825e-01
      -
         nodes:
            -
               depth: 0
               value: 3.6134202737357859e-02
               splits:
                  - { var:5, quality:1.5494018793106079e-01,
                      le:4.4335998594760895e-02 }
            -
               depth: 1
               value: -1.
            -
               depth: 1
               value: 1.8441085818313380e-01
      -
         nodes:
            -
               depth: 0
               value: -4.8815261789401820e-02
               splits:
                  - { var:2, quality:1.7590592801570892e-01,
                      le:2.0757350325584412e-01 }
            -
               depth: 1
               value: -1.
            -
               depth: 1
               value: 1.3361302315284657e-01
      -
         nodes:
            -
               depth: 0
               value: -6.5712097158899196e-02
               splits:
                  - { var:3, quality:2.0116527378559113e-01,
                      le:1.6944350302219391e-01 }
            -
               depth: 1
               value: -1.
            -
               depth: 1
               value: 1.4498013092735901e-01
      -
         nodes:
            -
               depth: 0
               value: -7.6411091767617428e-02
               splits:
                  - { var:2, quality:2.2142614424228668e-01,
                      le:9.4673252105712891e-01 }
            -
               depth: 1
               value: 2.2810236545005813e-01
            -
               depth: 1
               value: -7.8438467623623320e-01
      -
         nodes:
            -
               depth: 0
               value: -5.5636247308495056e-02
               splits:
                  - { var:0, quality:1.3430696725845337e-01,
                      le:9.1418850421905518e-01 }
            -
               depth: 1
               value: -2.3523876876158789e-01
            -
               depth: 1
               value: 6.7493022938488811e-01
      -
         nodes:
            -
               depth: 0
               value: 1.9041663082912694e-02
               splits:
                  - { var:5, quality:2.5846767425537109e-01,
                      le:9.6435502171516418e-02 }
            -
               depth: 1
               value: -5.7247661915201353e-01
            -
               depth: 1
               value: 4.5538503384951051e-01
      -
         nodes:
            -
               depth: 0
               value: -1.0367777327471789e-02
               splits:
                  - { var:2, quality:1.6959755122661591e-01,
                      le:2.0757350325584412e-01 }
            -
               depth: 1
               value: -1.
            -
               depth: 1
               value: 1.6089793462843435e-01
      -
         nodes:
            -
               depth: 0
               value: -5.9271799328139398e-02
               splits:
                  - { var:4, quality:1.4860835671424866e-01,
                      le:4.5067001134157181e-02 }
            -
               depth: 1
               value: 3.1691389009392862e-01
            -
               depth: 1
               value: -4.4497283971508572e-01
      -
         nodes:
            -
               depth: 0
               value: -1.0150248799526694e-02
               splits:
                  - { var:6, quality:1.9994585216045380e-01,
                      le:2.9805999249219894e-02 }
            -
               depth: 1
               value: -2.8077205654718063e-01
            -
               depth: 1
               value: 7.2830771984375553e-01
      -
         nodes:
            -
               depth: 0
               value: 3.4796567892813372e-02
               splits:
                  - { var:5, quality:1.7965313792228699e-01,
                      le:4.4335998594760895e-02 }
            -
               depth: 1
               value: -1.
            -
               depth: 1
               value: 2.0723851197692333e-01
      -
         nodes:
            -
               depth: 0
               value: -5.6103404062551598e-02
               splits:
                  - { var:6, quality:1.8672099709510803e-01,
                      le:1.0170000605285168e-03 }
            -
               depth: 1
               value: 7.5995316728898465e-01
            -
               depth: 1
               value: -2.8105522291363882e-01
      -
         nodes:
            -
               depth: 0
               value: 3.0812531314862262e-02
               splits:
                  - { var:0, quality:2.6614499092102051e-01,
                      le:7.0051050186157227e-01 }
            -
               depth: 1
               value: 4.9090009537402413e-01
            -
               depth: 1
               value: -5.4558989255614376e-01
      -
         nodes:
            -
               depth: 0
               value: -2.6705496391736553e-03
               splits:
                  - { var:2, quality:2.0645655691623688e-01,
                      le:5.7932853698730469e-01 }
            -
               depth: 1
               value: -9.0915055529989852e-01
            -
               depth: 1
               value: 2.2507790346743206e-01
