%YAML:1.0
---
opencv_ml_boost:
   format: 3
   is_classifier: 1
   var_all: 6
   var_count: 5
   ord_var_count: 5
   cat_var_count: 1
   training_params:
      boosting_type: GentleAdaboost
      use_surrogates: 0
      max_categories: 10
      regression_accuracy: 9.9999997764825821e-03
      max_depth: 1
      min_sample_count: 10
      cross_validation_folds: 0
      weight_trimming_rate: 0.
   global_var_idx: 1
   var_idx: [ 0, 1, 2, 3, 4 ]
   var_type: [ 0, 0, 0, 0, 0, 1 ]
   cat_ofs: [ 0, 0, 0, 0, 0, 0, 0, 0, 0, 0 ]
   class_labels: [ 0, 1 ]
   missing_subst: [ 0., 0., 0., 0., 0., 0. ]
   ntrees: 100
   trees:
      -
         nodes:
            -
               depth: 0
               value: -8.2491582491582460e-01
               splits:
                  - { var:4, quality:9.9155050516128540e-01,
                      le:3.4163996577262878e-02 }
            -
               depth: 1
               value: -9.9766945037871435e-01
            -
               depth: 1
               value: 9.7570850202429094e-01
      -
         nodes:
            -
               depth: 0
               value: -8.1045521512203811e-01
               splits:
                  - { var:4, quality:9.5686399936676025e-01,
                      le:4.6542000025510788e-02 }
            -
               depth: 1
               value: -9.7617395870193691e-01
            -
               depth: 1
               value: 1.
      -
         nodes:
            -
               depth: 0
               value: -7.0155069517672919e-01
               splits:
                  - { var:3, quality:9.2523062229156494e-01,
                      le:9.6435502171516418e-02 }
            -
               depth: 1
               value: -9.7995692152714642e-01
            -
               depth: 1
               value: 8.5393625896511594e-01
      -
         nodes:
            -
               depth: 0
               value: -6.1035020739099666e-01
               splits:
                  - { var:3, quality:7.6835489273071289e-01,
                      le:4.4648498296737671e-02 }
            -
               depth: 1
               value: -1.
            -
               depth: 1
               value: 4.0550438764108016e-01
      -
         nodes:
            -
               depth: 0
               value: -4.9987648819928426e-01
               splits:
                  - { var:2, quality:6.3661092519760132e-01,
                      le:1.3942950963973999e-01 }
            -
               depth: 1
               value: -8.0005554538788204e-01
            -
               depth: 1
               value: 7.8846934404948954e-01
      -
         nodes:
            -
               depth: 0
               value: -1.8225030733083122e-01
               splits:
                  - { var:3, quality:4.6181035041809082e-01,
                      le:4.4648498296737671e-02 }
            -
               depth: 1
               value: -1.
            -
               depth: 1
               value: 3.4186506666008820e-01
      -
         nodes:
            -
               depth: 0
               value: -1.8909744324971553e-01
               splits:
                  - { var:3, quality:2.0072323083877563e-01,
                      le:4.4648498296737671e-02 }
            -
               depth: 1
               value: -1.
            -
               depth: 1
               value: 1.4336849802297439e-02
      -
         nodes:
            -
               depth: 0
               value: -8.4500398992691877e-02
               splits:
                  - { var:4, quality:2.2870354354381561e-01,
                      le:1.0154999326914549e-03 }
            -
               depth: 1
               value: 5.5914563233231473e-01
            -
               depth: 1
               value: -4.2873187376617289e-01
      -
         nodes:
            -
               depth: 0
               value: 4.0010601510196099e-03
               splits:
                  - { var:3, quality:1.8521788716316223e-01,
                      le:4.4648498296737671e-02 }
            -
               depth: 1
               value: -1.
            -
               depth: 1
               value: 1.8846488171250622e-01
      -
         nodes:
            -
               depth: 0
               value: -6.2258196268828919e-02
               splits:
                  - { var:0, quality:2.2202323377132416e-01,
                      le:9.2578774690628052e-01 }
            -
               depth: 1
               value: 1.7037210326353366e-01
            -
               depth: 1
               value: -1.
      -
         nodes:
            -
               depth: 0
               value: -8.3229505771748286e-02
               splits:
                  - { var:4, quality:1.7928053438663483e-01,
                      le:4.6542000025510788e-02 }
            -
               depth: 1
               value: -2.4234019218532818e-01
            -
               depth: 1
               value: 1.
      -
         nodes:
            -
               depth: 0
               value: 4.8098250520582628e-02
               splits:
                  - { var:0, quality:1.7863006889820099e-01,
                      le:1.3846001029014587e-01 }
            -
               depth: 1
               value: -1.
            -
               depth: 1
               value: 2.1632353238411442e-01
      -
         nodes:
            -
               depth: 0
               value: -5.3754889453007798e-02
               splits:
                  - { var:1, quality:2.0334909856319427e-01,
                      le:1.1635249853134155e-01 }
            -
               depth: 1
               value: -1.
            -
               depth: 1
               value: 1.5809245723173515e-01
      -
         nodes:
            -
               depth: 0
               value: -7.5754574642591305e-02
               splits:
                  - { var:1, quality:1.4819782972335815e-01,
                      le:8.8484370708465576e-01 }
            -
               depth: 1
               value: 7.8380975506828807e-02
            -
               depth: 1
               value: -1.
      -
         nodes:
            -
               depth: 0
               value: -5.7820823129360342e-02
               splits:
                  - { var:0, quality:1.7758469283580780e-01,
                      le:9.2578774690628052e-01 }
            -
               depth: 1
               value: 1.2711369430845354e-01
            -
               depth: 1
               value: -1.
      -
         nodes:
            -
               depth: 0
               value: -6.7214770407069524e-02
               splits:
                  - { var:2, quality:1.2928992509841919e-01,
                      le:4.5067001134157181e-02 }
            -
               depth: 1
               value: 3.3121833307016302e-01
            -
               depth: 1
               value: -3.8037172179838685e-01
      -
         nodes:
            -
               depth: 0
               value: -5.3918381288239432e-03
               splits:
                  - { var:2, quality:2.1286761760711670e-01,
                      le:2.2315498441457748e-02 }
            -
               depth: 1
               value: -1.
            -
               depth: 1
               value: 2.0860051286979989e-01
      -
         nodes:
            -
               depth: 0
               value: -7.1996260904720555e-02
               splits:
                  - { var:4, quality:1.7721535265445709e-01,
                      le:2.4850999936461449e-02 }
            -
               depth: 1
               value: -3.6685746993035567e-01
            -
               depth: 1
               value: 5.1143719648919883e-01
      -
         nodes:
            -
               depth: 0
               value: 4.7248199653890672e-03
               splits:
                  - { var:2, quality:2.1367104351520538e-01,
                      le:4.5067001134157181e-02 }
            -
               depth: 1
               value: 5.2845186529851607e-01
            -
               depth: 1
               value: -4.0321423142551527e-01
      -
         nodes:
            -
               depth: 0
               value: 1.0893611405536593e-02
               splits:
                  - { var:0, quality:1.6802836954593658e-01,
                      le:1.3846001029014587e-01 }
            -
               depth: 1
               value: -1.
            -
               depth: 1
               value: 1.7699387148640067e-01
      -
         nodes:
            -
               depth: 0
               value: -5.6087507899484183e-02
               splits:
                  - { var:2, quality:1.3792507350444794e-01,
                      le:2.2315498441457748e-02 }
            -
               depth: 1
               value: -1.
            -
               depth: 1
               value: 8.6700380046472167e-02
      -
         nodes:
            -
               depth: 0
               value: -5.2698367578883805e-02
               splits:
                  - { var:1, quality:1.2358058989048004e-01,
                      le:1.1635249853134155e-01 }
            -
               depth: 1
               value: -1.
            -
               depth: 1
               value: 7.4825397369058411e-02
      -
         nodes:
            -
               depth: 0
               value: -4.7179233665013962e-02
               splits:
                  - { var:0, quality:1.3053861260414124e-01,
                      le:9.2578774690628052e-01 }
            -
               depth: 1
               value: 8.7486938984045581e-02
            -
               depth: 1
               value: -1.
      -
         nodes:
            -
               depth: 0
               value: -4.9391876444248806e-02
               splits:
                  - { var:1, quality:1.4148683845996857e-01,
                      le:8.8484370708465576e-01 }
            -
               depth: 1
               value: 9.6880050313685406e-02
            -
               depth: 1
               value: -1.
      -
         nodes:
            -
               depth: 0
               value: -5.3524872534175497e-02
               splits:
                  - { var:4, quality:1.5026251971721649e-01,
                      le:2.4850999936461449e-02 }
            -
               depth: 1
               value: -3.4442577505607214e-01
            -
               depth: 1
               value: 4.5316866015287716e-01
      -
         nodes:
            -
               depth: 0
               value: 3.0297978409681578e-03
               splits:
                  - { var:4, quality:1.6542592644691467e-01,
                      le:4.9499999731779099e-03 }
            -
               depth: 1
               value: 4.6688547853659901e-01
            -
               depth: 1
               value: -3.5358274251217470e-01
      -
         nodes:
            -
               depth: 0
               value: 7.2614358842302256e-03
               splits:
                  - { var:2, quality:1.5268555283546448e-01,
                      le:1.2204799801111221e-01 }
            -
               depth: 1
               value: -2.9702449821680199e-01
            -
               depth: 1
               value: 5.0887129245522977e-01
      -
         nodes:
            -
               depth: 0
               value: 1.2538238943661739e-02
               splits:
                  - { var:0, quality:1.3735695183277130e-01,
                      le:9.2556595802307129e-01 }
            -
               depth: 1
               value: -2.1755900793186575e-01
            -
               depth: 1
               value: 6.0880672934555069e-01
      -
         nodes:
            -
               depth: 0
               value: 2.0774334995541984e-02
               splits:
                  - { var:3, quality:1.3191573321819305e-01,
                      le:5.3911149501800537e-01 }
            -
               depth: 1
               value: 1.7176325257534741e-01
            -
               depth: 1
               value: -8.5004560360321979e-01
      -
         nodes:
            -
               depth: 0
               value: -3.3610711183343488e-02
               splits:
                  - { var:3, quality:1.7627550661563873e-01,
                      le:9.6435502171516418e-02 }
            -
               depth: 1
               value: -4.8329050929023787e-01
            -
               depth: 1
               value: 3.5587937643410322e-01
      -
         nodes:
            -
               depth: 0
               value: -1.0712425620789114e-02
               splits:
                  - { var:2, quality:1.5262916684150696e-01,
                      le:2.2755000740289688e-02 }
            -
               depth: 1
               value: 6.4822541197369998e-01
            -
               depth: 1
               value: -2.4216734836640358e-01
      -
         nodes:
            -
               depth: 0
               value: 2.2980395023666625e-02
               splits:
                  - { var:2, quality:1.1066123843193054e-01,
                      le:2.2315498441457748e-02 }
            -
               depth: 1
               value: -1.
            -
               depth: 1
               value: 1.3063948680471771e-01
      -
         nodes:
            -
               depth: 0
               value: -3.6860213359738304e-02
               splits:
                  - { var:0, quality:1.0664099454879761e-01,
                      le:9.2578774690628052e-01 }
            -
               depth: 1
               value: 7.2451356352891835e-02
            -
               depth: 1
               value: -1.
      -
         nodes:
            -
               depth: 0
               value: -4.0058382535266723e-02
               splits:
                  - { var:0, quality:1.0582036525011063e-01,
                      le:1.3846001029014587e-01 }
            -
               depth: 1
               value: -1.
            -
               depth: 1
               value: 6.8506229120200546e-02
      -
         nodes:
            -
               depth: 0
               value: -3.9930592177444331e-02
               splits:
                  - { var:1, quality:1.1540529131889343e-01,
                      le:8.8484370708465576e-01 }
            -
               depth: 1
               value: 7.8613790986169482e-02
            -
               depth: 1
               value: -1.
      -
         nodes:
            -
               depth: 0
               value: -4.3423709107255154e-02
               splits:
                  - { var:0, quality:1.6601586341857910e-01,
                      le:7.4755251407623291e-01 }
            -
               depth: 1
               value: 3.5086568205525304e-01
            -
               depth: 1
               value: -4.5969217613913971e-01
      -
         nodes:
            -
               depth: 0
               value: -9.4177003333430348e-03
               splits:
                  - { var:0, quality:1.4792476594448090e-01,
                      le:9.2556595802307129e-01 }
            -
               depth: 1
               value: -2.2260411199442831e-01
            -
               depth: 1
               value: 6.8404144914929699e-01
      -
         nodes:
            -
               depth: 0
               value: 2.5516092258777417e-02
               splits:
                  - { var:3, quality:1.0545139014720917e-01,
                      le:9.6435502171516418e-02 }
            -
               depth: 1
               value: -4.0255973201792239e-01
            -
               depth: 1
               value: 2.7033327721658140e-01
      -
         nodes:
            -
               depth: 0
               value: -4.0400999300202519e-03
               splits:
                  - { var:2, quality:1.2451870739459991e-01,
                      le:4.5067001134157181e-02 }
            -
               depth: 1
               value: 4.5257840585284659e-01
            -
               depth: 1
               value: -2.7670181222012752e-01
      -
         nodes:
            -
               depth: 0
               value: 7.8432390477002154e-03
               splits:
                  - { var:2, quality:2.5069737434387207e-01,
                      le:1.2204799801111221e-01 }
            -
               depth: 1
               value: -3.9344409589494600e-01
            -
               depth: 1
               value: 6.3242277720051876e-01
      -
         nodes:
            -
               depth: 0
               value: 2.5169157257056197e-02
               splits:
                  - { var:4, quality:1.4636518061161041e-01,
                      le:4.9499999731779099e-03 }
            -
               depth: 1
               value: 4.6216007254734048e-01
            -
               depth: 1
               value: -3.0831990035127643e-01
      -
         nodes:
            -
               depth: 0
               value: 9.6947072659535130e-03
               splits:
                  - { var:4, quality:1.5615016222000122e-01,
                      le:2.4850999936461449e-02 }
            -
               depth: 1
               value: -3.0115645437984867e-01
            -
               depth: 1
               value: 5.1172331284995798e-01
      -
         nodes:
            -
               depth: 0
               value: 1.2918139556143000e-02
               splits:
                  - { var:1, quality:1.1204396188259125e-01,
                      le:8.8484370708465576e-01 }
            -
               depth: 1
               value: 1.2336840989366447e-01
            -
               depth: 1
               value: -1.
      -
         nodes:
            -
               depth: 0
               value: -3.8245323807534308e-02
               splits:
                  - { var:3, quality:1.0995902866125107e-01,
                      le:7.8769552707672119e-01 }
            -
               depth: 1
               value: 9.1950791233142051e-02
            -
               depth: 1
               value: -8.7157530676820738e-01
      -
         nodes:
            -
               depth: 0
               value: -3.4149745772444999e-02
               splits:
                  - { var:3, quality:1.1538179218769073e-01,
                      le:4.4648498296737671e-02 }
            -
               depth: 1
               value: -1.
            -
               depth: 1
               value: 8.4104183114169492e-02
      -
         nodes:
            -
               depth: 0
               value: -4.3056134944771972e-02
               splits:
                  - { var:2, quality:1.3963752985000610e-01,
                      le:2.2755000740289688e-02 }
            -
               depth: 1
               value: 6.4768237322475275e-01
            -
               depth: 1
               value: -2.4252915955497950e-01
      -
         nodes:
            -
               depth: 0
               value: 1.8864788276947670e-02
               splits:
                  - { var:4, quality:1.1073980480432510e-01,
                      le:3.0062999576330185e-02 }
            -
               depth: 1
               value: -2.0534451443824459e-01
            -
               depth: 1
               value: 5.1119015409622903e-01
      -
         nodes:
            -
               depth: 0
               value: 1.3070072000018194e-02
               splits:
                  - { var:2, quality:1.3830514252185822e-01,
                      le:4.5067001134157181e-02 }
            -
               depth: 1
               value: 4.1133901527914074e-01
            -
               depth: 1
               value: -3.3376671982003225e-01
      -
         nodes:
            -
               depth: 0
               value: 4.6148272899443656e-03
               splits:
                  - { var:2, quality:1.3023608922958374e-01,
                      le:2.2315498441457748e-02 }
            -
               depth: 1
               value: -1.
            -
               depth: 1
               value: 1.3423146770630942e-01
      -
         nodes:
            -
               depth: 0
               value: -4.4930610576684682e-02
               splits:
                  - { var:0, quality:1.2389454990625381e-01,
                      le:1.3846001029014587e-01 }
            -
               depth: 1
               value: -1.
            -
               depth: 1
               value: 8.2678744868831783e-02
      -
         nodes:
            -
               depth: 0
               value: -4.6823600892373175e-02
               splits:
                  - { var:3, quality:1.4204971492290497e-01,
                      le:9.6435502171516418e-02 }
            -
               depth: 1
               value: -5.2006033724820999e-01
            -
               depth: 1
               value: 2.4870979711510721e-01
      -
         nodes:
            -
               depth: 0
               value: -1.6581616737225597e-02
               splits:
                  - { var:0, quality:1.4436392486095428e-01,
                      le:9.2578774690628052e-01 }
            -
               depth: 1
               value: 1.2993686470103730e-01
            -
               depth: 1
               value: -1.
      -
         nodes:
            -
               depth: 0
               value: -5.1682869824772965e-02
               splits:
                  - { var:4, quality:9.7324170172214508e-02,
                      le:1.0154999326914549e-03 }
            -
               depth: 1
               value: 5.4651374632369210e-01
            -
               depth: 1
               value: -2.0991353885239061e-01
      -
         nodes:
            -
               depth: 0
               value: 9.7770865317457645e-03
               splits:
                  - { var:4, quality:1.1810708045959473e-01,
                      le:2.4850999936461449e-02 }
            -
               depth: 1
               value: -2.5225004517811411e-01
            -
               depth: 1
               value: 4.6015597712662226e-01
      -
         nodes:
            -
               depth: 0
               value: 9.3726894163057919e-03
               splits:
                  - { var:4, quality:1.2190240621566772e-01,
                      le:4.9499999731779099e-03 }
            -
               depth: 1
               value: 3.8029457208241108e-01
            -
               depth: 1
               value: -3.1903757956630430e-01
      -
         nodes:
            -
               depth: 0
               value: 3.1316126126414959e-03
               splits:
                  - { var:3, quality:1.4313440024852753e-01,
                      le:9.6435502171516418e-02 }
            -
               depth: 1
               value: -4.8020311163874291e-01
            -
               depth: 1
               value: 2.9925059681966071e-01
      -
         nodes:
            -
               depth: 0
               value: -9.4674598602751108e-03
               splits:
                  - { var:2, quality:1.1918191611766815e-01,
                      le:2.2315498441457748e-02 }
            -
               depth: 1
               value: -1.
            -
               depth: 1
               value: 1.1076309851789251e-01
      -
         nodes:
            -
               depth: 0
               value: -4.2560979059525092e-02
               splits:
                  - { var:2, quality:1.0644136369228363e-01,
                      le:2.2755000740289688e-02 }
            -
               depth: 1
               value: 5.8379308180144540e-01
            -
               depth: 1
               value: -2.0960695603923471e-01
      -
         nodes:
            -
               depth: 0
               value: 1.2730983340108344e-02
               splits:
                  - { var:2, quality:1.5760029852390289e-01,
                      le:1.2204799801111221e-01 }
            -
               depth: 1
               value: -2.7455650554771682e-01
            -
               depth: 1
               value: 5.6074726391142860e-01
      -
         nodes:
            -
               depth: 0
               value: 1.7783052735684864e-02
               splits:
                  - { var:4, quality:1.4286550879478455e-01,
                      le:4.9499999731779099e-03 }
            -
               depth: 1
               value: 4.0599067750121659e-01
            -
               depth: 1
               value: -3.4941547344054324e-01
      -
         nodes:
            -
               depth: 0
               value: 3.9152512768770038e-03
               splits:
                  - { var:2, quality:1.2157214432954788e-01,
                      le:2.2315498441457748e-02 }
            -
               depth: 1
               value: -1.
            -
               depth: 1
               value: 1.2499799825984911e-01
      -
         nodes:
            -
               depth: 0
               value: -4.2177471604823852e-02
               splits:
                  - { var:3, quality:1.4850355684757233e-01,
                      le:9.6435502171516418e-02 }
            -
               depth: 1
               value: -5.1255149707885495e-01
            -
               depth: 1
               value: 2.6975431975104130e-01
      -
         nodes:
            -
               depth: 0
               value: -1.5629851504649874e-02
               splits:
                  - { var:0, quality:9.1257505118846893e-02,
                      le:9.2578774690628052e-01 }
            -
               depth: 1
               value: 7.6828469017564974e-02
            -
               depth: 1
               value: -1.
      -
         nodes:
            -
               depth: 0
               value: -3.3348587786979002e-02
               splits:
                  - { var:0, quality:1.3167111575603485e-01,
                      le:9.2556595802307129e-01 }
            -
               depth: 1
               value: -2.1757954820715195e-01
            -
               depth: 1
               value: 6.7532160562554877e-01
      -
         nodes:
            -
               depth: 0
               value: 2.0923356352801799e-02
               splits:
                  - { var:2, quality:1.2952271103858948e-01,
                      le:1.2204799801111221e-01 }
            -
               depth: 1
               value: -2.4445534192033752e-01
            -
               depth: 1
               value: 5.0734113621128107e-01
      -
         nodes:
            -
               depth: 0
               value: 1.3514358124102585e-02
               splits:
                  - { var:4, quality:1.6097907721996307e-01,
                      le:4.9499999731779099e-03 }
            -
               depth: 1
               value: 4.4489454488656288e-01
            -
               depth: 1
               value: -3.5923443248402981e-01
      -
         nodes:
            -
               depth: 0
               value: 5.9821557078881633e-03
               splits:
                  - { var:3, quality:1.4529193937778473e-01,
                      le:9.6435502171516418e-02 }
            -
               depth: 1
               value: -4.9920771012050003e-01
            -
               depth: 1
               value: 2.9351000029396601e-01
      -
         nodes:
            -
               depth: 0
               value: -1.0825432617885992e-02
               splits:
                  - { var:3, quality:1.1169153451919556e-01,
                      le:7.8769552707672119e-01 }
            -
               depth: 1
               value: 1.4363156420655424e-01
            -
               depth: 1
               value: -7.3319051679429315e-01
      -
         nodes:
            -
               depth: 0
               value: -2.5167749661483219e-02
               splits:
                  - { var:4, quality:1.1839724332094193e-01,
                      le:4.6542000025510788e-02 }
            -
               depth: 1
               value: -1.4004049096487925e-01
            -
               depth: 1
               value: 1.
      -
         nodes:
            -
               depth: 0
               value: 3.9078772162946133e-02
               splits:
                  - { var:0, quality:1.1354236304759979e-01,
                      le:9.2556595802307129e-01 }
            -
               depth: 1
               value: -1.4027050684082573e-01
            -
               depth: 1
               value: 6.6364339043850484e-01
      -
         nodes:
            -
               depth: 0
               value: 2.3454421478935988e-02
               splits:
                  - { var:0, quality:1.2224186956882477e-01,
                      le:8.4469521045684814e-01 }
            -
               depth: 1
               value: 2.8695215221507225e-01
            -
               depth: 1
               value: -4.3837786141617729e-01
      -
         nodes:
            -
               depth: 0
               value: -5.7040934232866882e-03
               splits:
                  - { var:0, quality:1.1510151624679565e-01,
                      le:1.3846001029014587e-01 }
            -
               depth: 1
               value: -1.
            -
               depth: 1
               value: 1.1002501519618975e-01
      -
         nodes:
            -
               depth: 0
               value: -4.0872147242571551e-02
               splits:
                  - { var:1, quality:1.0241908580064774e-01,
                      le:1.1635249853134155e-01 }
            -
               depth: 1
               value: -1.
            -
               depth: 1
               value: 6.4169690272336030e-02
      -
         nodes:
            -
               depth: 0
               value: -3.8721086714142108e-02
               splits:
                  - { var:1, quality:1.1685206741094589e-01,
                      le:8.8484370708465576e-01 }
            -
               depth: 1
               value: 8.1278158394142930e-02
            -
               depth: 1
               value: -1.
      -
         nodes:
            -
               depth: 0
               value: -4.3874651433053566e-02
               splits:
                  - { var:3, quality:9.3351490795612335e-02,
                      le:4.4648498296737671e-02 }
            -
               depth: 1
               value: -1.
            -
               depth: 1
               value: 5.1747228197375018e-02
      -
         nodes:
            -
               depth: 0
               value: -3.5487253418806465e-02
               splits:
                  - { var:4, quality:1.2898790836334229e-01,
                      le:4.9499999731779099e-03 }
            -
               depth: 1
               value: 3.8544178222457015e-01
            -
               depth: 1
               value: -3.3893164710318191e-01
      -
         nodes:
            -
               depth: 0
               value: 5.2160398769164184e-04
               splits:
                  - { var:2, quality:1.9253216683864594e-01,
                      le:1.2204799801111221e-01 }
            -
               depth: 1
               value: -3.3289574972738600e-01
            -
               depth: 1
               value: 5.7797171923059198e-01
      -
         nodes:
            -
               depth: 0
               value: 1.8351506739786444e-02
               splits:
                  - { var:2, quality:1.2067040801048279e-01,
                      le:4.5067001134157181e-02 }
            -
               depth: 1
               value: 3.8278937773122967e-01
            -
               depth: 1
               value: -3.1183818434687832e-01
      -
         nodes:
            -
               depth: 0
               value: 3.9064106526996113e-03
               splits:
                  - { var:2, quality:1.2880998849868774e-01,
                      le:2.2315498441457748e-02 }
            -
               depth: 1
               value: -1.
            -
               depth: 1
               value: 1.3219997271509826e-01
      -
         nodes:
            -
               depth: 0
               value: -4.4538435863057134e-02
               splits:
                  - { var:4, quality:9.2635370790958405e-02,
                      le:2.4850999936461449e-02 }
            -
               depth: 1
               value: -2.7605803895463304e-01
            -
               depth: 1
               value: 3.4701242162260304e-01
      -
         nodes:
            -
               depth: 0
               value: 8.3742541967644674e-04
               splits:
                  - { var:1, quality:1.1763387918472290e-01,
                      le:8.8484370708465576e-01 }
            -
               depth: 1
               value: 1.1837217500454261e-01
            -
               depth: 1
               value: -1.
      -
         nodes:
            -
               depth: 0
               value: -4.1159952022799789e-02
               splits:
                  - { var:2, quality:1.0798270255327225e-01,
                      le:2.2755000740289688e-02 }
            -
               depth: 1
               value: 5.8186521698854199e-01
            -
               depth: 1
               value: -2.1176070464139748e-01
      -
         nodes:
            -
               depth: 0
               value: 1.2839754044053941e-02
               splits:
                  - { var:3, quality:1.1145699769258499e-01,
                      le:5.3911149501800537e-01 }
            -
               depth: 1
               value: 1.7183720779071610e-01
            -
               depth: 1
               value: -6.8712201035669429e-01
      -
         nodes:
            -
               depth: 0
               value: -2.0871257156392233e-02
               splits:
                  - { var:3, quality:1.4595256745815277e-01,
                      le:9.6435502171516418e-02 }
            -
               depth: 1
               value: -5.1535839392230876e-01
            -
               depth: 1
               value: 2.7340730820483727e-01
      -
         nodes:
            -
               depth: 0
               value: -1.4271182434414914e-02
               splits:
                  - { var:0, quality:8.6489416658878326e-02,
                      le:1.3846001029014587e-01 }
            -
               depth: 1
               value: -1.
            -
               depth: 1
               value: 7.3263797753843687e-02
      -
         nodes:
            -
               depth: 0
               value: -3.1590268742785386e-02
               splits:
                  - { var:1, quality:8.7953388690948486e-02,
                      le:4.8500001430511475e-01 }
            -
               depth: 1
               value: -3.3820777676815444e-01
            -
               depth: 1
               value: 2.5200554880635700e-01
      -
         nodes:
            -
               depth: 0
               value: -3.6422756480971367e-03
               splits:
                  - { var:1, quality:1.4419804513454437e-01,
                      le:5.3674799203872681e-01 }
            -
               depth: 1
               value: 2.6143146412963464e-01
            -
               depth: 1
               value: -5.4758441327959828e-01
      -
         nodes:
            -
               depth: 0
               value: -1.5636145619448719e-02
               splits:
                  - { var:0, quality:1.5779769420623779e-01,
                      le:8.4525901079177856e-01 }
            -
               depth: 1
               value: 3.2288995093710349e-01
            -
               depth: 1
               value: -4.8104548815988168e-01
      -
         nodes:
            -
               depth: 0
               value: -1.0272987354792184e-02
               splits:
                  - { var:0, quality:1.0405182093381882e-01,
                      le:9.2556595802307129e-01 }
            -
               depth: 1
               value: -1.9569343977098519e-01
            -
               depth: 1
               value: 5.5032476875583058e-01
      -
         nodes:
            -
               depth: 0
               value: 1.3066218230241964e-02
               splits:
                  - { var:0, quality:1.1742685735225677e-01,
                      le:9.2578774690628052e-01 }
            -
               depth: 1
               value: 1.2881001269750364e-01
            -
               depth: 1
               value: -1.
      -
         nodes:
            -
               depth: 0
               value: -3.9970004159630701e-02
               splits:
                  - { var:3, quality:1.0698745399713516e-01,
                      le:9.6435502171516418e-02 }
            -
               depth: 1
               value: -4.3951630289020643e-01
            -
               depth: 1
               value: 2.2380381281072462e-01
      -
         nodes:
            -
               depth: 0
               value: -9.7528638025233174e-03
               splits:
                  - { var:0, quality:9.6756443381309509e-02,
                      le:9.2556595802307129e-01 }
            -
               depth: 1
               value: -1.8276562494384582e-01
            -
               depth: 1
               value: 5.4894192732501090e-01
      -
         nodes:
            -
               depth: 0
               value: 1.2516771757525188e-02
               splits:
                  - { var:0, quality:1.2594950199127197e-01,
                      le:8.4525901079177856e-01 }
            -
               depth: 1
               value: 2.9678658334499858e-01
            -
               depth: 1
               value: -4.2999533690641206e-01
      -
         nodes:
            -
               depth: 0
               value: -5.5695736208324102e-03
               splits:
                  - { var:2, quality:9.8627083003520966e-02,
                      le:2.2755000740289688e-02 }
            -
               depth: 1
               value: 5.6119296552581399e-01
            -
               depth: 1
               value: -1.7953318836839938e-01
      -
         nodes:
            -
               depth: 0
               value: 1.3503451860847289e-02
               splits:
                  - { var:2, quality:1.0127149522304535e-01,
                      le:2.2315498441457748e-02 }
            -
               depth: 1
               value: -1.
            -
               depth: 1
               value: 1.1324573976885752e-01
      -
         nodes:
            -
               depth: 0
               value: -3.4686848565691625e-02
               splits:
                  - { var:0, quality:8.8211469352245331e-02,
                      le:1.3846001029014587e-01 }
            -
               depth: 1
               value: -1.
            -
               depth: 1
               value: 5.5447935382548559e-02
      -
         nodes:
            -
               depth: 0
               value: -3.3203913433805854e-02
               splits:
                  - { var:3, quality:1.1171544343233109e-01,
                      le:9.6435502171516418e-02 }
            -
               depth: 1
               value: -4.5335974501067738e-01
            -
               depth: 1
               value: 2.3006255479419510e-01
      -
         nodes:
            -
               depth: 0
               value: -1.0303082549649730e-02
               splits:
                  - { var:0, quality:1.1508662253618240e-01,
                      le:9.2578774690628052e-01 }
            -
               depth: 1
               value: 1.0587437141704008e-01
            -
               depth: 1
               value: -1.
      -
         nodes:
            -
               depth: 0
               value: -4.1239093621776399e-02
               splits:
                  - { var:0, quality:1.1491234600543976e-01,
                      le:9.2556595802307129e-01 }
            -
               depth: 1
               value: -2.1577569697090662e-01
            -
               depth: 1
               value: 6.0740241390593430e-01
      -
         nodes:
            -
               depth: 0
               value: 1.4679690367075749e-02
               splits:
                  - { var:0, quality:1.2736688554286957e-01,
                      le:5.6486654281616211e-01 }
            -
               depth: 1
               value: 3.5068025336779257e-01
            -
               depth: 1
               value: -3.6374643351927272e-01
